tree
version=v4
num_class=1
num_tree_per_iteration=1
label_index=0
max_feature_idx=7
objective=binary sigmoid:1
feature_names=hour_of_day day_of_week banner_pos device_type device_model_hash device_model_ctr device_type_ctr banner_x_device_hash
feature_infos=[0:15] none [0:7] [0:5] [965:999813] [0:1] [0.081516201345017317:0.23304397179634576] [13617:99501]
tree_sizes=6926 7143 7141 7119 7151 7169 7148 7168 7139 7182 7203 7167 7181 7185 7188 7181 7206 7117 7196 7178 7216 7200 7194 7178 7197

Tree=0
num_leaves=64
num_cat=0
split_feature=5 5 5 5 5 5 2 5 7 5 5 5 5 2 7 5 3 5 2 5 7 5 5 5 4 2 7 5 3 5 4 7 5 5 3 4 3 2 2 4 4 5 3 4 5 5 5 4 4 5 5 5 5 7 5 5 4 2 4 4 4 5 7
split_gain=42892.3 9897.87 8834.77 3271.05 1449.26 1334.64 1326.34 1149.36 985.864 759.901 710.506 466.269 455.485 441.458 412.544 263.56 256.122 241.766 232.875 228.447 202.885 328.502 197.672 194.394 179.768 155.071 153.939 192.221 138.493 120.843 141.394 120.066 119.553 110.112 108.649 124.046 104.303 98.6761 90.6755 84.91 84.4791 192.963 177.58 101.467 98.2336 84.0887 117.533 141.104 93.5938 91.5107 82.3249 81.4684 79.8881 69.8627 67.7872 87.8445 59.055 58.5832 56.8511 81.9315 55.667 54.6658 53.641
threshold=0.17556565626207651 0.10864971588840777 0.23647370063643106 0.29530161018985829 0.065105791760370194 0.14752406749451816 1.0000000180025095e-35 0.3888951873476561 92868.500000000015 0.2486331368188405 0.20024877133700417 0.68333333333333346 0.13037923116806163 1.5000000000000002 97698.000000000015 0.20058960704242784 2.5000000000000004 0.092588218828181051 1.0000000180025095e-35 0.24433218919327335 71767.500000000015 0.24406118648324623 0.31353026058908418 0.034437462424746552 936767.00000000012 1.0000000180025095e-35 92868.500000000015 0.16639754067587859 2.5000000000000004 0.25347009593794656 948800.50000000012 71767.500000000015 0.36818343827967215 0.11636332604074541 2.5000000000000004 13811.000000000002 2.5000000000000004 1.0000000180025095e-35 1.0000000180025095e-35 772445.50000000012 592911.50000000012 0.14581007607706942 2.5000000000000004 515179.00000000006 0.14528038011017336 0.25251596474730104 0.26430272685136508 82796.500000000015 657689.50000000012 0.25195610135396901 0.29603311161265178 0.20491309585269321 0.14125402576489535 71767.500000000015 0.19157265579338564 0.19630136657135111 139824.50000000003 1.0000000180025095e-35 614098.00000000012 623003.50000000012 51639.000000000007 0.44320844171416979 71767.500000000015
decision_type=2 2 2 2 2 2 2 2 2 2 2 2 2 2 2 2 2 2 2 2 2 2 2 2 2 2 2 2 2 2 2 2 2 2 2 2 2 2 2 2 2 2 2 2 2 2 2 2 2 2 2 2 2 2 2 2 2 2 2 2 2 2 2
left_child=1 4 8 6 23 12 29 13 10 19 28 37 16 14 39 54 25 57 52 20 -8 56 -16 -1 36 -3 34 -28 -2 30 -4 -11 -24 -27 60 -36 51 61 -19 50 41 42 43 44 -20 49 58 -48 -49 -33 -5 -12 -14 -53 -10 -56 -22 -6 -47 -60 -7 -9 -41
right_child=2 5 3 7 17 26 9 11 15 31 24 -13 18 -15 22 -17 -18 38 40 -21 21 -23 32 -25 -26 33 27 -29 -30 -31 -32 45 -34 -35 35 -37 -38 -39 -40 62 -42 -43 -44 -45 -46 46 47 48 -50 -51 -52 53 -54 -55 55 -57 -58 -59 59 -61 -62 -63 -64
leaf_value=-1.6089886234189594 -1.570735963084211 -1.5884047010982534 -1.564716368185175 -1.5205148931627699 -1.5972842493489126 -1.5693026108000681 -1.5882493411892609 -1.5200202999556136 -1.5768380567602762 -1.5857752309031288 -1.5668484867630736 -1.4221524131714407 -1.5870386335873352 -1.6002167289140701 -1.5534647072541852 -1.5709099322516522 -1.597745883556827 -1.5924066216001451 -1.5812764833065855 -1.5665471882191122 -1.5407685412829772 -1.5286028693617735 -1.5451622351261314 -1.6025119063570537 -1.5564338960775119 -1.5744955268592415 -1.5821892711183465 -1.5772593309683278 -1.5924427335083524 -1.5599657445297226 -1.5567877766227347 -1.5372420295412055 -1.5181504956538352 -1.584972420087033 -1.5085357004589559 -1.5933275654608112 -1.597411095943807 -1.5466199383142343 -1.5848159941575035 -1.5433153398949291 -1.5834994171028374 -1.5816371520170833 -1.5910385505974429 -1.5643162287118626 -1.5679552634513727 -1.5553818237777843 -1.5146293107289068 -1.5523279158323933 -1.5355395839258372 -1.5171890167154312 -1.5404064020724149 -1.5654485063872003 -1.5835917954300198 -1.5586145337441881 -1.5714107256518239 -1.5755681966343105 -1.5566616119508259 -1.592224948989559 -1.5168472582781876 -1.5478053009440522 -1.5762505266893401 -1.5022084165951413 -1.5223067032488988
leaf_weight=6453.4063642472029 13488.713291361928 19110.914218574762 19178.171196579933 200.77768750488758 16809.703945815563 1109.8820294439793 140.47343507409096 967.84777842462063 11935.275748744607 50.513679683208466 3957.9454524815083 45.689339488744736 8883.313006311655 131.67610883712769 4318.352043479681 24645.993237569928 2263.7506900727749 14372.844578176737 1060.9291657060385 1652.4784089624882 230.85886754095554 482.71780416369438 3620.6673159450293 11929.74194675684 4276.9194747507572 1193.4566286951303 14431.446122303605 14053.302986472845 269.31169673800468 10682.224329411983 2268.7169226258993 918.46923761069775 154.80456329882145 3691.1878181993961 15.750051811337469 453.771762996912 82.013783305883408 113.51388692855835 1577.8430283069611 147.99373008310795 4434.2781005054712 6613.4609448164701 439.44063477218151 1324.4232757389545 938.05038310587406 665.04948504269123 219.7912635654211 431.06898561120033 1013.6790102720261 269.02791202068329 3468.8424921780825 2199.1896668821573 19111.907465085387 3522.3359113931656 7460.1326489448547 11845.315993353724 2636.9275933504105 2370.8794208616018 95.493557378649712 419.15002748370171 16047.032518014312 194.10874664783478 476.33264802396297
leaf_count=45481 95063 134686 135160 1415 118468 7822 990 6821 84115 356 27894 322 62606 928 30434 173695 15954 101294 7477 11646 1627 3402 25517 84076 30142 8411 101707 99042 1898 75284 15989 6473 1091 26014 111 3198 578 800 11120 1043 31251 46609 3097 9334 6611 4687 1549 3038 7144 1896 24447 15499 134693 24824 52576 83481 18584 16709 673 2954 113093 1368 3357
internal_value=-1.57713 -1.5873 -1.56479 -1.55547 -1.59796 -1.58235 -1.5597 -1.54285 -1.57093 -1.54967 -1.56632 -1.51623 -1.58499 -1.54566 -1.54508 -1.57323 -1.5881 -1.59439 -1.58308 -1.55735 -1.55299 -1.55151 -1.54907 -1.60479 -1.56157 -1.58719 -1.57839 -1.57976 -1.57116 -1.56258 -1.56388 -1.54 -1.54405 -1.58241 -1.57619 -1.59042 -1.56382 -1.51964 -1.59166 -1.53755 -1.58003 -1.57855 -1.57313 -1.57076 -1.57503 -1.53943 -1.54225 -1.5371 -1.54054 -1.53268 -1.53931 -1.56353 -1.58469 -1.56124 -1.57506 -1.57396 -1.55538 -1.59666 -1.54953 -1.54201 -1.5758 -1.51702 -1.52725
internal_weight=307569 168691 138879 55195.4 53514.4 115176 41354.8 13840.6 83683.1 9225.7 27796.4 1321.16 69065.1 12519.4 12387.8 55886.7 26259.3 35131.3 42805.8 5143.46 3490.98 3350.5 8093.82 18383.1 14038.4 23995.6 46111.2 28484.7 13758 32129.1 21446.9 4082.24 3775.47 4884.64 17626.4 469.522 9761.48 1275.47 15950.7 4293.95 14810.6 10376.3 3762.84 3323.4 1998.98 4031.73 2844.23 1664.54 1444.75 1187.5 3669.62 9679.47 27995.2 5721.53 31240.7 19305.4 2867.79 19180.6 1179.69 514.644 17156.9 1161.96 624.326
internal_count=2167624 1188864 978760 388995 377148 811716 291452 97543 589765 65019 195898 9311 486743 88232 87304 393867 185065 247591 301678 36249 24603 23613 57042 129557 98937 169111 324973 200749 96961 226433 151149 28770 26608 34425 124224 3309 68795 8989 112414 30262 104379 73128 26519 23422 14088 28414 20045 11731 10182 8369 25862 68217 197299 40323 220172 136057 20211 135177 8314 3627 120915 8189 4400
is_linear=0
shrinkage=1


Tree=1
num_leaves=64
num_cat=0
split_feature=5 5 5 5 5 2 5 5 2 0 0 5 5 2 5 5 2 0 2 5 3 0 5 5 5 5 0 3 5 0 5 2 3 3 4 5 4 2 5 0 0 5 4 4 0 5 5 5 5 2 5 4 2 4 5 3 5 4 3 0 5 5 4
split_gain=40317.1 9110.3 8591.23 2998.73 1384.66 1229.59 1200.89 1006.85 974.006 739.692 713.769 701.465 669.809 401.476 366.659 331.657 312.328 244.575 232.658 227.388 222.823 230.11 211.082 205.364 193.682 186.404 182.312 181.063 287.485 159.643 158.174 146.219 129.329 124.2 118.498 114.936 106.551 100.2 97.5862 97.4431 161.365 118.728 98.4829 92.7138 87.7188 85.2422 83.4348 82.364 82.8732 79.6914 78.7409 78.7395 78.7252 77.8059 76.3567 74.6724 74.3225 71.6679 69.9867 68.3368 65.5539 63.8437 63.8285
threshold=0.1734059012951796 0.10545361875637106 0.23557506755670193 0.28998106060606066 0.13733481133715877 1.0000000180025095e-35 0.065105791760370194 0.3888951873476561 1.0000000180025095e-35 9.5000000000000018 9.5000000000000018 0.19630136657135111 0.2486331368188405 1.5000000000000002 0.68333333333333346 0.15785169141209512 1.0000000180025095e-35 9.5000000000000018 1.0000000180025095e-35 0.31000207992172468 2.5000000000000004 9.5000000000000018 0.24433218919327335 0.20058960704242784 0.034437462424746552 0.19157265579338564 13.500000000000002 2.5000000000000004 0.24406118648324623 9.5000000000000018 0.086927458730527804 1.0000000180025095e-35 2.5000000000000004 2.5000000000000004 772445.50000000012 0.15649216208222425 952617.50000000012 6.0000000000000009 0.36818343827967215 3.5000000000000004 6.5000000000000009 0.44320844171416979 331891.00000000006 952617.50000000012 9.5000000000000018 0.15776611160892864 0.14581007607706942 0.28635145073663737 0.25251596474730104 1.0000000180025095e-35 0.20491309585269321 819455.50000000012 1.0000000180025095e-35 208206.00000000003 0.26298920377867752 1.0000000180025095e-35 0.42206477732793529 314551.50000000006 1.0000000180025095e-35 9.5000000000000018 0.25195610135396901 0.24433218919327335 497841.00000000006
decision_type=2 2 2 2 2 2 2 2 2 2 2 2 2 2 2 2 2 2 2 2 2 2 2 2 2 2 2 2 2 2 2 2 2 2 2 2 2 2 2 2 2 2 2 2 2 2 2 2 2 2 2 2 2 2 2 2 2 2 2 2 2 2 2
left_child=1 6 8 5 20 17 24 13 10 15 23 32 22 16 26 18 19 61 46 -5 21 31 27 -2 -1 -12 39 28 -7 47 -8 -3 59 43 57 52 54 -22 -21 42 56 62 -9 50 49 -20 -6 48 60 -32 -13 -50 -11 -52 -19 -25 -41 -18 -27 -10 -14 -4 -42
right_child=2 4 3 7 9 12 30 14 11 35 25 33 29 -15 -16 -17 34 36 45 38 37 -23 -24 55 -26 58 -28 -29 -30 -31 44 -33 -34 -35 -36 -37 -38 -39 -40 40 41 -43 -44 -45 -46 -47 -48 -49 51 -51 53 -53 -54 -55 -56 -57 -58 -59 -60 -61 -62 -63 -64
leaf_value=-0.031574812290218968 -0.00016765793688232713 -0.012659576342944347 0.0097555820745576539 0.021949722625064831 -0.011256237733896793 0.020920917338805391 -0.019520601984677446 0.0088328479691841665 0.0043665396961349717 -0.0026861216464581159 0.0034938816499594351 0.011269965084794626 0.033402398117746646 -0.022575581938017251 0.1361349778957345 -0.0023736759214069616 0.019172829437525712 0.0152255528947857 -0.0042950588353551297 0.030517015445133695 -0.019656302726410547 -0.0059515931967109364 0.010190458634747523 0.010573807318993371 -0.025046520935807143 0.0044294415200013624 0.080694207817856717 -0.010762198373087731 0.045515625574970277 0.044083092803473105 -0.017362439627037856 -0.0064081340973561694 -0.01514781857125358 -0.018318444067278151 0.051867308895168787 0.0031593312070179202 0.028755777170495669 0.091463857066203955 0.050147326219877129 0.038874655509419299 0.024148303901621215 0.068021458938093346 0.051161208679794859 0.019748752611100522 -0.010759307309125962 0.0074992210297551891 -0.0075358987082703383 0.054486740285108283 0.022652158327938248 -0.0087147941748393076 0.027444999653701244 0.036019150417570353 0.0019181594255174993 0.015450951316169227 0.021253056739322488 0.0034205542847893676 0.074604303433998764 0.037506453674952617 0.010887844082291175 0.0092710808791845681 0.053781394245311059 0.013162917225733617 0.04760332466674895
leaf_weight=6318.6973724812269 25839.786639496684 19202.460687622428 7380.4723346531391 3832.6598852425814 8726.5440611690283 3048.2965191155672 16469.985089421272 100.85908831655979 7377.0575370341539 8894.8612780421972 5146.5529678612947 3887.5353615432978 622.50493773818016 130.2464714050293 50.413098514080048 20205.00744895637 212.36355009675026 7547.1773491352797 10744.272339865565 5858.2769690752029 2463.6181111633778 9182.6668375432491 1663.9888986647129 1424.1607210040092 11731.18592685461 1715.6762863099575 193.6507363319397 136.48936079442501 498.62371332943439 1263.0993886142969 9351.8976970463991 4092.4138071089983 264.07013016939163 93.721592545509338 513.12572218477726 10689.180512711406 714.70780861377716 7.0059013664722434 239.25089472532272 65.786046460270882 229.03576242923737 129.53587624430656 98.244000062346458 4340.704970985651 3166.956919953227 580.55386021733284 14433.966734260321 131.82772475481033 1339.3572965711355 1074.6605639904737 590.71685039997101 570.97477929294109 5351.4454445391893 2852.8967672586441 2542.7613854408264 17092.898604109883 309.22814767062664 2344.6769115924835 12950.991598978639 3924.3945353478193 188.30648276209831 15230.669578492641 197.61916063725948
leaf_count=45481 181857 136387 51604 26597 61829 21182 117582 685 51790 62970 36257 27229 4276 932 322 142459 1463 52746 75838 40446 17588 65157 11646 9964 84076 12019 1315 969 3405 8683 66612 28938 1880 669 3491 75384 4971 50 1631 449 1556 871 669 30181 22546 4091 102118 894 9263 7621 4113 3919 37769 19864 17720 119973 2098 16116 90982 27551 1277 106257 1346
internal_value=-9.65093e-06 -0.0102598 0.0114998 0.0205207 -0.00565916 0.0165314 -0.021215 0.0323126 0.00558366 -0.00347405 0.0036749 0.010833 0.0260787 0.0297527 0.0567511 -0.00542649 0.0302781 0.0138271 -0.00721484 0.0276874 -0.0106374 -0.00997593 0.0190708 0.00156002 -0.0273329 0.00840905 0.0536914 0.0230789 0.0243845 0.0351787 -0.0175413 -0.0115618 0.00558499 0.0159908 0.0386512 0.00080782 0.0175421 -0.0193265 0.0312912 0.049037 0.0531275 0.0427847 0.0298097 0.0162675 -0.0151422 -0.00368946 -0.00893818 0.031229 0.0300931 -0.0164723 0.0142044 0.0266571 -0.000955946 0.0175132 0.016746 0.00397136 0.0683966 0.0359898 0.0101331 0.00607062 0.0381645 0.0120513 0.0350592
internal_weight=307573 162687 144885 57384.2 114574 42879.3 48113.4 14505 87501.2 79625.8 64170.1 23331.1 9463.47 13130.6 1374.37 54690.3 13000.4 33415.8 34485.3 9930.19 34948.2 32477.5 5347.4 44356.8 18049.9 19813.2 1323.96 3683.41 3546.92 4116.07 30063.5 23294.9 11565.5 11765.6 3070.17 24935.5 10804.6 2470.62 6097.53 1130.31 931.205 556.191 199.103 11671.9 13593.5 11324.8 23160.5 2852.97 2721.14 10426.6 7331.15 1910.33 14246.3 3443.61 10089.9 18517.1 375.014 2557.04 14666.7 11301.5 810.811 22611.1 426.655
internal_count=2167624 1154496 1013128 398799 810578 298812 343918 99987 614329 562458 451052 163277 65514 90676 9311 386335 89744 233298 243876 68674 248120 230482 37202 311794 129557 139258 8989 25556 24587 28312 214361 165325 81221 82056 21070 176123 75437 17638 42077 7674 6320 3773 1354 81387 96779 79929 163947 19629 18735 74233 51206 13182 100739 23977 70466 129937 2547 17579 103001 79341 5553 157861 2902
is_linear=0
shrinkage=0.03


Tree=2
num_leaves=64
num_cat=0
split_feature=5 5 5 5 5 5 2 2 5 0 0 5 5 2 7 5 5 0 7 5 6 0 5 4 5 7 4 0 2 0 7 5 5 6 5 4 5 2 0 0 0 7 4 5 5 0 4 2 5 7 2 5 5 4 7 5 6 0 6 4 5 7 5
split_gain=37905.4 8791.43 7884.16 2696.01 1320.37 1184.35 1114.62 904.176 877.895 699.784 670.835 645.948 598.028 368.823 326.766 315.24 307.613 223.549 223.013 220.688 215.427 220.566 206.302 193.238 163.398 159.923 280.901 159.713 140.451 139.627 135.146 135.012 125.274 115.849 107.927 96.1381 92.5779 91.415 89.4655 141.067 88.5811 86.9485 84.3717 80.5539 80.4571 77.0869 75.5907 74.159 73.165 83.2259 72.6027 71.8928 73.2845 73.5005 71.5586 69.4382 68.1946 64.1738 63.4663 66.879 158.341 62.6237 62.328
threshold=0.1734059012951796 0.10545361875637106 0.23557506755670193 0.28998106060606066 0.13733481133715877 0.056724360447642459 1.0000000180025095e-35 1.0000000180025095e-35 0.3888951873476561 9.5000000000000018 10.500000000000002 0.19630136657135111 0.2486331368188405 1.5000000000000002 97698.000000000015 0.15785169141209512 0.57518796992481214 9.5000000000000018 92868.500000000015 0.20058960704242784 0.12667468950438265 9.5000000000000018 0.084024986683453595 942673.00000000012 0.31353026058908418 71767.500000000015 926171.50000000012 13.500000000000002 1.0000000180025095e-35 9.5000000000000018 71767.500000000015 0.034437462424746552 0.19157265579338564 0.12667468950438265 0.15649216208222425 952617.50000000012 0.36818343827967215 6.0000000000000009 3.5000000000000004 6.5000000000000009 9.5000000000000018 97698.000000000015 952617.50000000012 0.15776611160892864 0.14581007607706942 9.5000000000000018 772445.50000000012 1.0000000180025095e-35 0.44320844171416979 97698.000000000015 1.0000000180025095e-35 0.28635145073663737 0.25251596474730104 607547.50000000012 71767.500000000015 0.25251596474730104 0.20134983813500515 9.5000000000000018 0.12667468950438265 642399.00000000012 0.14581007607706942 71767.500000000015 0.21870444606413997
decision_type=2 2 2 2 2 2 2 2 2 2 2 2 2 2 2 2 2 2 2 2 2 2 2 2 2 2 2 2 2 2 2 2 2 2 2 2 2 2 2 2 2 2 2 2 2 2 2 2 2 2 2 2 2 2 2 2 2 2 2 2 2 2 2
left_child=1 5 7 6 20 31 17 10 13 15 19 30 23 14 46 18 27 -4 43 -2 37 28 -7 25 -16 -8 -27 38 -22 51 -9 -1 -12 -13 47 55 -26 -3 41 61 50 -10 45 -6 -20 -35 -5 -11 49 -41 -24 52 -14 -54 -36 -19 -34 -32 -49 60 -60 -40 -21
right_child=2 4 3 8 9 22 12 11 16 34 32 33 29 -15 24 -17 -18 35 44 62 21 -23 40 -25 36 26 -28 -29 -30 -31 57 -33 56 42 54 -37 -38 -39 39 48 -42 -43 -44 -45 -46 -47 -48 58 -50 -51 -52 -53 53 -55 -56 -57 -58 -59 59 -61 -62 -63 -64
leaf_value=-0.031293454216624904 0.00011454838068515701 -0.019321725860173177 0.011596872723108385 0.033569336889602411 -0.0041969885960935569 -0.019782926870286349 -0.010685940316457514 -0.014866527324285691 0.013283778320978101 -0.0026102350334996399 0.0043901347550034551 -0.017991299561874622 0.036115828298230117 -0.022236597496810308 0.021517055040529028 -0.0023061213572791233 0.10488541030487113 0.014225368592340104 -0.011043736902486575 0.0033498457463100248 -0.012384850196700667 -0.005796170548677794 -0.017110949371304154 0.0068245325755216454 0.028858402457553268 0.019225333000257576 0.042938018554444721 0.074070068438228817 -0.0062426523170634853 0.041553056596081196 0.0042622452546842576 -0.025474029313768839 0.011381783779902592 0.011450828939986784 -0.0078965530650040531 0.027371033896353564 0.051838045684712418 0.083829118110495551 0.069341565537223246 0.024240715992440015 -0.010672840610254782 0.057615321903101611 0.018908675933996779 0.0072381064862437755 -0.0073636000158902679 0.017934023204094745 0.044291532824616682 -0.015763470085213428 0.060631774389585127 0.052569927607196774 -0.0091086411771837423 0.051042283064925364 0.018416135208846482 0.030320948628285282 0.0036071958859064755 0.019415969126112518 0.0041265408651786168 0.0090095150233668129 0.015193667018289147 -0.0025411124273899397 0.00091462743796062328 0.039850179943942264 0.0074258643012530649
leaf_weight=6186.2533199936152 28397.850978553295 2431.5845500528812 22789.422465607524 3944.8897438645363 10867.813658863306 18324.46424689889 137.5763286203146 288.32111120223999 138.44990955293179 8879.1081178486347 3995.3131915032864 92.585806921124458 830.80621871352196 128.29929107427597 4666.7715751826763 20173.468361377716 96.446103274822235 6588.5321209281683 8574.5774561315775 16065.779334455729 19042.034456372261 9146.5942463576794 9784.0350751578808 1068.8050156533718 3770.4129299074411 3694.6036653220654 512.85417419672012 200.46908396482468 4075.1437023878098 1299.2491854727268 7382.1950836777687 8666.2204772830009 10263.139972090721 4892.1764505654573 510.30386433005333 728.14370630681515 166.03397370874882 7.4349674433469763 297.44473847746849 298.35601776838303 3330.4513731151819 56.222861379384995 4396.6842590719461 583.41898757219315 14295.650119543076 2507.1067039966583 708.01618230342865 177.41292086243629 112.03332555294037 137.92135602235794 1146.1414640694857 136.44843202829361 802.91661569476128 1140.4874608069658 10201.10217051208 3612.0248205661774 1320.5150090157986 3937.3903263509274 958.82705396413803 1639.579204455018 2582.3839805424213 86.914710745215416 4282.2938492447138
leaf_count=45481 199795 17588 157861 26547 76933 132692 983 2068 930 62970 28082 669 5553 932 31896 142459 592 45607 61206 112421 136387 65157 70515 7425 25517 25392 3402 1294 28938 8683 51678 63158 71588 33858 3597 4971 1091 50 1928 1992 23891 370 30181 4091 101646 17348 4693 1259 722 910 8181 894 5491 7691 71787 24859 9224 27475 6712 11579 18219 573 29942
internal_value=-1.15173e-05 -0.0100218 0.0110693 0.0196375 -0.00551057 -0.0208766 0.0158611 0.00539578 0.0306892 -0.00337787 0.00355579 0.0104325 0.0248674 0.0283038 0.0287941 -0.00528299 0.0530891 0.0132901 -0.00703244 0.00182356 -0.0103925 -0.00974189 -0.0176752 0.0182672 0.0253244 0.0210792 0.0221207 0.0492972 -0.0113026 0.0333509 0.00539721 -0.0278991 0.00897513 0.015348 0.000783096 0.0168196 0.0298338 -0.0189933 0.0448654 0.0487416 -0.014966 0.0262022 0.0156109 -0.00361343 -0.00874389 0.0136494 0.0352056 -0.000927893 0.0388889 0.0332471 -0.0162729 0.0296826 0.0286234 0.0254107 0.0030581 0.0160648 0.0105556 0.00591452 0.00185824 0.00246429 0.00478436 0.0627324 0.00420819
internal_weight=307556 161584 145972 58150.6 114146 47437.6 43341.9 87821.4 14808.7 79443.6 64324.9 23496.5 9623.75 13384.4 13256.1 54494.9 1424.26 33718.1 34321.5 48745.9 34702.8 32263.8 32585.1 5413.84 8603.22 4345.03 4207.46 1327.81 23117.2 4209.91 11607.9 14852.5 15579 11888.6 24948.7 10928.7 3936.45 2439.02 1127.34 932.67 14260.6 194.673 11796 11451.2 22870.2 7399.28 4652.91 14237.3 548.311 436.277 10930.2 2910.66 2774.21 1943.4 10711.4 10200.6 11583.7 11319.6 5358.2 5180.79 3541.21 384.359 20348.1
internal_count=2167624 1154496 1013128 398799 810578 343918 298812 614329 99987 562458 451052 163277 65514 90676 89744 386335 9311 233298 243876 342158 248120 230482 235279 37202 58504 29777 28794 8719 165325 28312 81221 108639 108894 82056 176123 75437 26608 17638 7425 6125 102587 1300 81387 81024 162852 51206 31240 100739 3624 2902 78696 19629 18735 13182 75384 70466 80812 79153 37769 36510 24931 2501 142363
is_linear=0
shrinkage=0.03


Tree=3
num_leaves=64
num_cat=0
split_feature=5 5 5 5 5 5 7 0 5 7 5 5 0 7 7 0 7 5 5 5 3 0 7 5 0 5 4 4 7 0 5 5 3 5 7 5 4 4 7 5 5 0 0 5 7 7 7 5 5 7 7 3 7 4 4 5 0 0 5 5 4 7 3
split_gain=35792.5 8337.46 7434.66 2499.57 1163.87 958.481 856.8 847.553 720.066 662.049 671.835 568.052 513.631 507.135 326.71 313.773 308.118 269.751 233.812 210.119 200.963 195 194.368 183.851 153.766 149.684 134.732 190.502 218.917 133.249 130.939 122.522 121.801 118.484 114.518 237.334 113.558 107.225 105.039 104.275 98.7359 92.6114 158.335 191.675 91.9631 111.966 91.1239 90.3444 114.203 86.8131 78.0672 75.2034 74.0756 72.5316 111.159 70.7542 68.2875 63.994 58.3415 55.8317 55.2863 54.1949 53.8139
threshold=0.16905179016980262 0.2320710612435718 0.10545361875637106 0.29883357502252111 0.058578431372549027 0.13144036771754325 97698.000000000015 10.500000000000002 0.42206477732793529 92868.500000000015 0.1997756302084315 0.2486331368188405 9.5000000000000018 71767.500000000015 92868.500000000015 9.5000000000000018 13863.000000000002 0.19574275362318844 0.20058960704242784 0.68333333333333346 2.5000000000000004 3.5000000000000004 92868.500000000015 0.091229193341869422 9.5000000000000018 0.034437462424746552 942673.00000000012 926171.50000000012 71767.500000000015 8.5000000000000018 0.14581007607706942 0.14976418667762861 2.5000000000000004 0.17302494802494806 92868.500000000015 0.36818343827967215 952617.50000000012 962301.00000000012 92868.500000000015 0.26522152902611829 0.48706800445930887 13.500000000000002 7.5000000000000009 0.44320844171416979 71767.500000000015 92868.500000000015 31794.500000000004 0.28635145073663737 0.25251596474730104 71767.500000000015 31794.500000000004 2.5000000000000004 92868.500000000015 519284.50000000006 186481.00000000003 0.25251596474730104 9.5000000000000018 9.5000000000000018 0.25195610135396901 0.13733481133715877 651488.50000000012 30069.000000000004 2.5000000000000004
decision_type=2 2 2 2 2 2 2 2 2 2 2 2 2 2 2 2 2 2 2 2 2 2 2 2 2 2 2 2 2 2 2 2 2 2 2 2 2 2 2 2 2 2 2 2 2 2 2 2 2 2 2 2 2 2 2 2 2 2 2 2 2 2 2
left_child=2 7 4 6 25 20 11 9 16 10 32 26 14 61 31 39 -5 49 -11 21 22 40 -4 -6 47 -1 27 -3 -29 -24 -16 -7 33 60 -18 -36 62 55 -25 -8 -10 42 -23 46 -19 -46 -44 48 58 -9 -22 52 53 54 -14 -17 -40 -20 -15 -56 -2 -13 -12
right_child=1 3 5 8 23 12 15 17 19 18 36 13 51 24 30 37 34 44 57 -21 50 41 29 38 -26 -27 -28 28 -30 -31 -32 -33 -34 -35 35 -37 -38 -39 56 -41 -42 -43 43 -45 45 -47 -48 -49 -50 -51 -52 -53 -54 -55 59 -57 -58 -59 -60 -61 -62 -63 -64
leaf_value=-0.031098027369930486 -0.0025324203064150397 0.016024946800722157 -0.0048846662812033091 -0.020839119983410089 -0.019076173665059728 -0.0045632867564740845 0.0098607021536606786 -0.0027560785624377786 0.0041606748262916268 -0.00057466545075719343 0.011039331519732323 0.016645109469425538 0.00051782172487955689 0.032404558888676306 -0.01053260681008098 0.014096469881991262 0.032574901046871156 0.0036073697800958864 0.0031350233009953773 0.11020575019637721 0.07659225191207121 0.063063713565954888 -0.012617114607196561 -0.0062660542521471678 0.041307908607362297 -0.025002251717871609 0.0060961908033413158 -0.0093641960499257267 0.040719395896831892 -0.0078451011998774862 -0.0063196323636482161 0.00069007147644263112 -0.01462790688784049 0.0048705461547226278 0.025007954004490102 0.04890779957615668 0.017675632225201382 0.028279728640094766 -0.016636666142603666 0.015597225861966813 0.065198487584638962 0.075819036026013198 0.0017097863891168807 0.061293264008307626 0.017608921663936534 0.011140310171746754 0.068105800671285438 0.042209927546828098 0.02356774877761077 0.0066817201506221046 -0.019166174511344003 -0.016549608347662944 -0.0014269785001326655 -0.00097134199151752761 -0.015240445172515191 0.019509494112337329 -0.010763948317289895 0.009620581172682819 0.051275997646662339 0.010967992758590433 0.012891339788385291 -0.012035793216610548 -0.018913086820783475
leaf_weight=6038.5313845127821 3172.4039641469717 6817.5267896652222 5931.8028784841299 113.32450343668461 19868.425853654742 10093.044272586703 19220.558382660151 952.36048753559589 108.16810740530491 32920.215998530388 6155.5925135016441 2185.8229157179594 2491.4139041751623 646.74762254953384 9963.1989465355873 5496.1227985918522 4417.6917589306831 1052.9930199533701 16580.796399906278 57.142946898937225 7.3618168830871573 409.38039161264896 15278.840020254254 1297.7137027382851 1461.6015027612448 9193.4958045482635 1073.3206311911345 91.671789050102234 532.87194572389126 8059.6855723559856 19980.443781226873 6609.1825416833162 344.66039219498634 11366.291171550751 6562.5705708563328 397.58901181817055 3296.0592054277658 722.41177690029144 8068.5799533724785 3357.925924256444 30.457219749689102 176.04236663877964 132.64249040186405 124.04969416558743 3285.2442168742418 9113.9853951781988 21.402546748518944 442.03641538321972 1963.8789015561342 10900.74948297441 2346.5599906742573 250.03510783612728 12791.863388940692 3532.987383633852 75.470325082540512 3629.0960293114185 2303.3652479797602 1494.1975972950459 195.71255725622177 1949.7954320758581 223.49458505213261 60.377909541130066 53.982140570878983
leaf_count=45349 22394 46539 42331 835 145643 71687 132222 6697 719 231822 42363 14948 17567 4249 71675 37712 29033 7344 115813 318 47 2564 110354 9316 9510 68144 7423 660 3443 57807 142426 46665 2484 79375 43852 2531 22352 4847 58787 22878 194 1086 873 767 22444 63108 139 2846 13103 76136 17197 1792 90664 24902 538 24633 16637 10386 1254 13606 1578 409 395
internal_value=9.24147e-06 0.00974956 -0.0107461 0.0185605 -0.0206091 -0.00610343 0.0154372 0.00447158 0.0304789 0.00288081 0.00692166 0.0212469 -0.00408993 0.0276091 -0.00584655 0.0126647 0.0282941 0.00922406 0.000930313 0.0541565 -0.0104159 0.0509195 -0.00973687 -0.0173191 0.0332049 -0.02742 0.0160478 0.0174816 0.0333527 -0.0109697 -0.00772181 -0.00248398 0.0029891 0.00340132 0.0287848 0.0263765 0.0131703 0.017135 -0.0143263 0.0107144 0.0177478 0.0562263 0.0511652 0.0335681 0.0121322 0.0128553 0.0111074 0.0295528 0.0275516 0.00592261 -0.0188531 -0.000204534 -7.77522e-06 0.00224636 0.00476516 0.0162508 -0.0153337 0.00367181 0.036816 0.0099848 -0.00151364 0.0158687 0.0107766
internal_weight=307493 161361 146132 60448.1 46770.1 99361.7 47897.7 100913 12550.5 75607.7 24612.5 15471.6 67737.4 6956.18 46645.9 32426.1 11491.2 25305.3 50995.2 1059.29 31624.3 1002.14 29270.3 31538.1 4709.98 15232 8515.39 7442.07 624.544 23338.5 29943.6 16702.2 15106.9 14762.2 11377.9 6960.16 9505.63 9847.63 11669.7 22578.5 138.625 863.517 687.475 278.095 13452.2 12399.2 154.045 3248.38 2806.34 11853.1 2353.92 21091.6 20841.5 8049.67 4516.68 9125.22 10371.9 18075 842.46 2025.27 3395.9 2246.2 6209.57
internal_count=2167412 1114278 1053134 409587 343876 709258 326676 704691 82911 528962 170941 104384 481522 46319 332453 222292 76251 175729 358021 6660 227736 6342 210492 230383 30962 113493 58065 50642 4103 168161 214101 118352 105831 103347 75416 46383 65110 67192 84740 155100 913 5429 4343 1779 92896 85552 1012 21452 18606 82833 17244 149069 147277 56613 31711 62345 75424 126199 5503 14144 23972 15357 42758
is_linear=0
shrinkage=0.03


Tree=4
num_leaves=64
num_cat=0
split_feature=7 3 0 4 4 2 4 4 4 4 4 4 4 4 4 4 0 4 4 4 4 4 4 4 4 4 4 4 4 4 4 4 4 4 4 4 4 4 4 4 4 4 4 4 0 4 4 4 4 4 4 4 4 4 4 4 4 2 0 4 4 4 4
split_gain=5385.03 2969.57 2250.57 1482.15 567.257 902.862 534.624 503.177 463.425 1241.41 453.675 416.262 393.185 415.213 387.316 297.84 283.619 275.199 389.747 316.813 238.264 259.358 317.257 232.978 595.111 365.203 249.574 257.849 220.534 217.255 344.891 206.024 198.51 331.838 189.183 180.566 427.607 419.264 328.432 198.877 184.964 179.576 667.04 288.502 238.93 183.685 174.045 173.093 170.449 161.867 143.69 142.135 137.868 137.156 134.434 127.625 126.985 125.999 191.145 117.361 114.699 143.923 235.682
threshold=92868.500000000015 2.5000000000000004 10.500000000000002 583917.50000000012 583917.50000000012 1.0000000180025095e-35 988945.50000000012 614098.00000000012 696172.50000000012 695843.00000000012 926171.50000000012 821996.00000000012 471234.50000000006 456427.50000000006 642399.00000000012 473105.00000000006 9.5000000000000018 371385.00000000006 292314.00000000006 179394.00000000003 950756.50000000012 948800.50000000012 926520.50000000012 708860.50000000012 694207.00000000012 742541.50000000012 621662.00000000012 614098.00000000012 985842.50000000012 696172.50000000012 695843.00000000012 640220.50000000012 772445.50000000012 773718.50000000012 642399.00000000012 948800.50000000012 967780.00000000012 936637.50000000012 926171.50000000012 912635.00000000012 950756.50000000012 352309.00000000006 299114.00000000006 300904.50000000006 3.5000000000000004 351483.00000000006 926520.50000000012 381205.50000000006 952617.50000000012 37883.000000000007 989641.50000000012 989641.50000000012 907220.50000000012 967780.00000000012 805649.00000000012 832241.00000000012 856328.00000000012 6.0000000000000009 7.5000000000000009 926171.50000000012 160086.50000000003 37883.000000000007 51639.000000000007
decision_type=2 2 2 2 2 2 2 2 2 2 2 2 2 2 2 2 2 2 2 2 2 2 2 2 2 2 2 2 2 2 2 2 2 2 2 2 2 2 2 2 2 2 2 2 2 2 2 2 2 2 2 2 2 2 2 2 2 2 2 2 2 2 2
left_child=1 4 3 12 5 41 8 -4 9 14 11 32 13 17 31 -14 49 18 19 60 21 22 -12 24 26 -25 27 -6 29 30 34 -5 -10 -34 -9 37 40 38 39 52 -37 42 -1 44 -44 -45 -40 -19 -22 -7 -8 -30 54 -50 -27 -13 -57 -3 -59 -31 61 -2 -63
right_child=2 57 7 6 23 16 50 28 10 -11 20 55 15 -15 -16 -17 -18 47 -20 -21 48 -23 -24 25 -26 35 -28 -29 51 59 -32 -33 33 -35 -36 36 -38 -39 46 -41 -42 -43 43 45 -46 -47 -48 -49 53 -51 -52 -53 -54 -55 -56 56 -58 58 -60 -61 -62 62 -64
leaf_value=0.0099340099299772555 -0.0014426705861611427 -0.017940524494963257 0.00041908569235717168 0.0011256849098882696 0.011039874576940271 0.010884582893212416 0.01660545044995819 0.01134321042163715 -0.0061530117496552865 0.024380277871725267 0.0079028526429204757 -0.017454108654741427 -0.024486045286359216 0.0053026410260072487 -0.0068400106738975928 -0.0097601395930161285 0.0068659077188812732 -0.02260851802294735 -0.00073824470840863523 -0.010619802415811702 -0.0099999811447876175 0.011437549475140037 -0.0085245855671639628 -0.0007547353595280694 0.027951549801949832 0.01397909459326528 0.0076523342498521791 0.032449536013925952 0.027993869648915849 0.00090346243131837387 0.029365577244618496 0.013944067411440461 0.017666019902360032 -0.0018616689162639964 -0.0008144025840859944 0.033839786928064851 0.003715176195346068 -0.0051248833644392273 0.038176559788095775 -0.0029343363109785607 0.016339680812216213 0.0071557958030558696 -0.002203886459911947 0.0062042762386312874 0.051895726032558799 0.029323078802919234 0.0054122317381799694 -0.0095277135125546846 -1.4574833641354943e-05 0.0012933316985607819 -0.006517075661824235 -0.010426217449997232 0.032240749078934171 -0.0095625700529635115 0.0059361156298770035 0.00054540227103676189 -0.010768544394002414 -0.021510076975532571 0.10432649160832108 0.0065227816471859585 0.00017506716365258765 -0.017603582617965532 -0.0059728621398003326
leaf_weight=4916.4536652863026 5655.287031263113 4581.3835612386465 28070.256947189569 16007.729653894901 1301.8561215251684 1677.0794511288404 1873.3730942606926 4139.4522997885942 7404.7196563333273 2000.0022301226854 2093.1516036987305 2184.6770661324263 1339.3259036242962 2867.0377946048975 5964.6752351969481 16179.443635985255 15100.462318614125 1004.5854585915804 12120.005842283368 13692.218110129237 2273.966974824667 2747.0961415618658 2138.9157802015543 3290.4589837193489 2152.6482696980238 3431.3053955882788 6960.8833935856819 830.73084178566933 633.48117886483669 6473.3479633033276 768.64631563425064 1214.0341428816319 930.3603802472353 4939.9570296555758 1594.1417255699635 614.21822027862072 2703.3971130996943 1930.9351389110088 542.35112370550632 1170.9936386793852 4814.8007097840309 2874.2579808533192 82.809090957045555 447.07855680584908 628.3653734177351 1012.7416201382875 200.65456177294254 9839.9864396452904 11788.323363482952 28447.266260787845 276.96638117730618 99.857319101691246 249.98992320895195 1529.7363110184669 4125.5347428172827 1034.2815086841583 6458.0347271561623 24.705399870872498 18.857569217681885 6931.0258619785309 3204.4389089941978 1677.6978250145912 24161.725857138634
leaf_count=33704 39797 33691 198806 112378 8947 11548 12645 28444 53053 13083 14330 16115 10070 19815 42750 117024 104934 7520 85454 99195 16529 18734 15452 23130 14080 23328 48097 5406 4151 45665 5028 8178 6232 34930 11249 3974 18769 13723 3417 8329 32395 19908 553 3099 3842 6561 1387 71061 82824 199734 1996 715 1647 11090 28621 7275 46731 189 128 48051 22561 12406 172934
internal_value=7.05564e-06 0.0059839 -0.00263042 -0.00430675 0.00719521 0.00531141 -0.0011122 0.00303403 -0.00156048 0.00170444 -0.00336704 -0.00633695 -0.00684371 -0.00588924 -0.000251426 -0.0108869 0.00351018 -0.00633907 -0.00555 -0.00675495 -0.000346576 0.0042599 -0.000397576 0.0102239 0.0137659 0.00849714 0.010406 0.0193874 0.00658984 0.00599381 0.0104944 0.00203006 -0.0028865 0.0012324 0.00796153 0.0100363 0.0134685 0.00763981 0.0101764 0.00858796 0.018323 0.0134875 0.0160536 0.0299048 0.0455854 0.0222517 0.0293462 -0.0107409 -0.0024091 0.0018277 0.0136226 0.0227479 0.0103175 -0.00111214 0.00958976 -0.0110692 -0.00920554 -0.0174557 0.0330979 0.00380981 -0.00522954 -0.00577972 -0.00672856
internal_weight=307444 94132.2 213312 164602 89507.3 55186.5 72860 48710.2 70709.7 25186.4 45523.2 22952 91741.8 74223 23186.4 17518.8 45224.8 71355.9 60511.4 48391.4 22571.2 6979.16 4232.07 34320.8 11246.1 23074.6 9093.47 2132.59 20640 19906.6 6502.24 17221.8 13275 5870.32 5733.59 19784.2 8132.42 11651.8 9720.83 8977.82 5429.02 9961.71 7087.45 2170.99 711.174 1459.82 743.006 10844.6 15592 30124.3 2150.34 733.338 7806.83 13318.1 7556.84 9676.99 7492.32 4624.95 43.563 13404.4 34699.1 31494.7 25839.4
internal_count=2167412 653141 1514271 1172162 619133 383883 514325 342109 499684 176389 323295 164336 657837 530743 163306 127094 316216 510928 432347 346893 158959 48516 29782 235250 76530 158720 62450 14353 143303 138437 44721 120556 94215 41162 39693 135590 55138 80452 66729 61925 36369 67667 47759 14055 4395 9660 4804 78581 110443 211282 14641 4866 53596 93914 51949 70121 54006 34008 317 93716 247698 225137 185340
is_linear=0
shrinkage=0.03


Tree=5
num_leaves=64
num_cat=0
split_feature=5 5 5 5 5 2 0 5 5 7 5 5 0 5 2 7 0 5 7 0 5 4 2 0 5 0 3 4 2 4 3 2 5 5 5 0 4 4 3 4 5 3 5 2 5 5 3 5 5 7 4 4 0 4 4 0 2 5 5 3 2 5 5
split_gain=32969.5 8283.95 6369.99 2199.96 1122.81 926.507 755.495 718.019 671.494 511.886 585.643 503.434 458.759 424.896 275.602 284.53 240.473 238.952 238.142 202.884 187.738 160.162 138.127 143.076 137.588 131.727 130.601 155.074 121.898 119.458 100.398 207.715 109.22 233.871 97.271 95.531 92.6986 90.6033 88.427 101.292 84.4413 80.6956 78.0578 77.7781 77.3655 75.1639 74.1144 73.3353 67.7199 65.6582 65.4499 116.092 61.479 61.3596 60.3244 65.6905 60.2268 63.4065 87.71 59.0183 58.8997 60.3775 58.5269
threshold=0.16374573702159911 0.22620396137181978 0.094392033542976955 0.28998106060606066 0.12896973010910937 1.0000000180025095e-35 9.5000000000000018 0.056724360447642459 0.36818343827967215 92868.500000000015 0.19630136657135111 0.2486331368188405 9.5000000000000018 0.19574275362318844 1.5000000000000002 97698.000000000015 9.5000000000000018 0.57518796992481214 92868.500000000015 9.5000000000000018 0.18738584086851359 959698.00000000012 1.0000000180025095e-35 3.5000000000000004 0.031662489557226406 9.5000000000000018 2.5000000000000004 921573.00000000012 1.0000000180025095e-35 958086.00000000012 2.5000000000000004 1.0000000180025095e-35 0.1143132778466867 0.11444596249949519 0.14581007607706942 1.5000000000000002 968350.00000000012 772445.50000000012 2.5000000000000004 13811.000000000002 0.31000207992172468 2.5000000000000004 0.25251596474730104 1.0000000180025095e-35 0.28635145073663737 0.17302494802494806 2.5000000000000004 0.24433218919327335 0.14976418667762861 71767.500000000015 621662.00000000012 186481.00000000003 13.500000000000002 331891.00000000006 884734.00000000012 3.5000000000000004 1.0000000180025095e-35 0.11636332604074541 0.11100755928342136 2.5000000000000004 1.0000000180025095e-35 0.071703429019861445 0.17823025625401986
decision_type=2 2 2 2 2 2 2 2 2 2 2 2 2 2 2 2 2 2 2 2 2 2 2 2 2 2 2 2 2 2 2 2 2 2 2 2 2 2 2 2 2 2 2 2 2 2 2 2 2 2 2 2 2 2 2 2 2 2 2 2 2 2 2
left_child=2 6 7 5 19 16 9 24 14 10 38 21 18 59 15 37 47 22 48 30 35 26 23 53 -1 42 27 -7 -15 -12 31 32 -4 -34 -20 -11 -18 -5 45 -40 -17 56 -13 -14 -44 -2 50 -3 -6 -39 51 -45 -25 -10 55 -22 -21 58 -58 62 61 -9 -8
right_child=1 3 4 8 12 11 13 60 17 20 29 25 43 28 -16 40 36 -19 34 41 54 -23 -24 52 -26 -27 -28 -29 -30 -31 -32 -33 33 -35 -36 -37 -38 49 39 -41 -42 -43 44 46 -46 -47 -48 -49 -50 -51 -52 -53 -54 -55 -56 -57 57 -59 -60 -61 -62 -63 -64
leaf_value=-0.031359583556198757 -0.00026686206838388556 0.0079997959765361407 -0.014989459508316941 0.029277605030304563 -0.0043796587356536073 0.017180704455273615 0.002800705130726814 -0.021825955760773681 0.0068539621727936933 0.0035036827002154895 0.0091038174267466104 0.033562100846079031 -0.0021420614572806129 0.0092782453248989906 -0.020533534127494878 0.018527835167148395 0.014573025098004313 0.087640865462330353 -0.010219739993293878 -0.0080164600937322143 0.0052349710661206148 0.0056334691386293063 0.018059683093197519 0.044765376357846443 -0.025113509168643629 0.037189895294334335 -0.010669006588756014 0.031810666354556309 0.015250259312105524 0.016451066668994454 -0.020232092828974934 -0.005804442327213678 0.013196186908857113 -0.011688405168569881 -0.0065237846432147925 -0.0028893386906784749 0.025443136212373697 0.022942835598361289 0.052746456000354026 -0.016176553146519692 0.024500630004908767 -0.016510644453584394 0.021413490595415439 0.00015845146507940009 0.044418129853516924 0.0040057333109183241 -0.01421901636887362 0.011359513717248582 0.00051554445741964876 0.045551425701890594 -0.0017243943451282439 0.010076004153920022 0.061845505754535214 0.041146230262771893 -0.00016993823006634422 0.0014682605045439267 -0.0045893886999342371 -0.0063409121491060242 0.016473402220629652 -0.011471954440006669 -0.014349464434120072 -0.018064689550079852 0.0062004834286828372
leaf_weight=4833.8800151646137 6178.001656845212 9380.5413879901171 12946.005261301994 4050.6153217703104 10405.988465383649 4911.9566365778446 10109.440483316779 5426.1510147750378 120.9539288431406 2392.7555029541254 6099.7178685963154 878.73450070619583 11706.325902238488 12369.827649369836 119.57288058102131 3791.8898345530033 11361.732717379928 106.15188290178776 10929.497747704387 8087.9971215873957 6077.1782174855471 1039.4205431491137 206.7256780564785 1136.0672924220562 9398.6104492247105 1379.9436863064766 134.9484134465456 754.39895008504391 4105.2303295880556 2966.8928138315678 1428.2519414424896 4066.6293754279613 351.61751599609852 9741.4687979370356 15563.490251466632 17333.63527944684 755.8682736903429 148.56324502825737 19.945063978433609 354.84134884178638 4940.0613672584295 852.667589366436 2035.291833460331 2334.4982830137014 141.59425285458565 9245.4737768024206 246.43189930915833 15655.929068252444 3361.8751145899296 569.49775230884552 2160.0102361291647 1951.8304978013039 235.01845817267895 77.457162365317345 10527.443433761597 13290.802209123969 391.26369588077068 1183.3382774442434 325.21717077493668 214.44711725413799 2652.1494830101728 13530.75749540329 8321.1685929149389
leaf_count=37288 43584 64399 95441 25800 74166 32964 70651 40657 793 16973 41657 5557 83217 85031 890 25132 76776 585 79666 58357 42595 7146 1330 6931 71293 8677 985 4749 27602 19692 10724 29062 2557 71245 112116 122947 4908 958 140 2605 32122 6388 13267 16394 876 64241 1812 106436 23659 3535 15263 13497 1368 481 73909 93141 2801 8438 2302 1567 19588 100786 57695
internal_value=6.01514e-06 0.00863515 -0.0111796 0.0172173 -0.00722265 0.0140682 0.0036291 -0.0220024 0.0270541 0.00191869 0.00543194 0.0216012 -0.00459196 0.00725645 0.0247304 0.0251324 0.0117816 0.0438563 -0.00638546 -0.0111416 0.000158035 0.0164927 0.0412202 0.044261 -0.0272362 0.0294761 0.0184364 0.0191317 0.0107671 0.0115095 -0.0124695 -0.0120599 -0.0131635 -0.0108202 -0.00804896 -0.00211339 0.0152524 0.0310317 0.00194329 -0.0124454 0.0219087 -0.00764526 0.0259863 -0.00066688 0.0229199 0.00229375 0.00191199 0.0101012 -0.0031837 0.0408979 0.00253068 0.00467702 0.0477125 0.0203284 0.00165713 0.00265069 -0.00688704 -0.00207356 0.00496154 0.00415374 -0.0185545 -0.0191421 0.00433622
internal_weight=307416 173540 133876 63932.9 98034.4 48430.4 109607 35841.5 15502.6 74486.7 24864.9 11276.3 58659.9 35120.1 13620.2 13500.6 37154.1 1882.37 40260.9 39374.5 49621.8 6840.72 1776.22 1569.5 14232.5 4435.56 5801.3 5666.36 16475.1 9066.61 28534 27105.7 23039.1 10093.1 26493 19726.4 12117.6 4768.68 15798.3 374.786 8731.95 10840.5 3055.62 18399.1 2176.89 15423.5 6692.77 25036.5 13767.9 718.061 6446.34 4286.33 1371.09 198.411 29895.4 19368 9987.82 1899.82 716.481 18645.1 21609.1 18956.9 18430.6
internal_count=2167412 1190695 976717 426665 707105 326740 764030 269612 99925 521484 171919 74221 419790 242546 88437 87547 252519 11488 289607 287315 349565 45844 10903 9573 108581 28377 38698 37713 112633 61349 209029 198305 169243 73802 191782 139920 81684 30293 110570 2745 57254 78286 19700 130183 14143 107825 46966 170835 97825 4493 45154 29891 8299 1274 209645 135736 71898 13541 5103 129913 161031 141443 128346
is_linear=0
shrinkage=0.03


Tree=6
num_leaves=64
num_cat=0
split_feature=5 5 5 5 5 0 5 2 5 7 5 0 5 5 7 2 5 0 0 5 7 4 2 5 4 0 3 4 5 0 0 5 3 2 3 2 5 5 3 4 5 7 5 2 4 5 7 7 5 5 4 5 3 2 5 5 5 0 2 0 4 4 0
split_gain=31075.8 7885.67 5999.11 2055.25 1048.85 758.563 708.695 678.553 582.677 459.128 533.527 422.673 389.654 354.076 278.593 333.138 251.274 223.385 198.097 191.495 169.257 144.415 140.879 135.145 125.112 115.651 110.573 133.162 105.414 92.9063 91.988 90.497 89.334 96.3463 86.7108 217.718 90.9661 273.852 86.4133 84.1648 83.3048 77.8967 70.9675 69.2149 67.9132 66.6011 64.2932 69.1376 73.9503 105.537 60.6203 60.4561 60.1663 58.627 57.4077 56.2605 55.3314 52.6377 62.2669 62.3391 72.1343 102.181 65.9863
threshold=0.16254440473507412 0.22554159880413202 0.094392033542976955 0.28152948106892312 0.12824918495021589 9.5000000000000018 0.056724360447642459 1.0000000180025095e-35 0.34712240474560807 92868.500000000015 0.19630136657135111 9.5000000000000018 0.19574275362318844 0.2486331368188405 97698.000000000015 1.5000000000000002 0.50581395348837221 9.5000000000000018 9.5000000000000018 0.18738584086851359 92868.500000000015 959698.00000000012 1.0000000180025095e-35 0.031662489557226406 958086.00000000012 13.500000000000002 2.5000000000000004 926171.50000000012 0.31000207992172468 1.5000000000000002 9.5000000000000018 0.14581007607706942 2.5000000000000004 1.0000000180025095e-35 2.5000000000000004 1.0000000180025095e-35 0.1143132778466867 0.11444596249949519 2.5000000000000004 13811.000000000002 0.14988287150914073 71767.500000000015 0.25251596474730104 1.0000000180025095e-35 968350.00000000012 0.17302494802494806 71767.500000000015 92868.500000000015 0.13990414096785062 0.14125402576489535 82796.500000000015 0.07444568029325703 2.5000000000000004 6.0000000000000009 0.26298920377867752 0.26430272685136508 0.18106842248167257 3.5000000000000004 1.0000000180025095e-35 6.5000000000000009 149614.50000000003 300904.50000000006 7.5000000000000009
decision_type=2 2 2 2 2 2 2 2 2 2 2 2 2 2 2 2 2 2 2 2 2 2 2 2 2 2 2 2 2 2 2 2 2 2 2 2 2 2 2 2 2 2 2 2 2 2 2 2 2 2 2 2 2 2 2 2 2 2 2 2 2 2 2
left_child=2 5 6 7 18 9 23 17 14 10 38 20 41 21 15 52 25 -3 34 29 40 26 -14 -1 -12 57 27 -9 50 -11 42 -22 33 -20 35 36 -4 -38 45 -40 -6 -7 -15 51 54 -2 -13 48 -48 -50 -16 -8 -5 -34 -19 -44 -43 -10 59 -59 -61 62 -62
right_child=1 3 4 8 11 12 43 13 16 19 24 46 22 30 28 -17 -18 44 32 -21 31 -23 -24 -25 -26 -27 -28 -29 -30 -31 -32 -33 53 -35 -36 -37 37 -39 39 -41 -42 56 55 -45 -46 -47 47 -49 49 -51 -52 -53 -54 -55 -56 -57 -58 58 -60 60 61 -63 -64
leaf_value=-0.03103553413965459 -0.00024689866643933607 0.0096277903124379755 -0.014777340110521295 0.029946126171301504 -0.0047913144988973562 -0.0028358472379144896 -0.021143918098590585 0.016341386798446302 0.024257487107095729 0.0032005183943921408 0.0082623429187851094 -0.011225622093884184 0.0087315412075641974 0.030778815778125412 0.0059741876917805484 -0.0198618150827524 0.076064455422458668 0.012963694506004755 -0.008019220525374144 0.0014896730222938369 -0.0098420633318998529 0.0053774842842425931 0.01516665824542562 -0.024786003282829591 0.01577112957743006 0.055392409267206684 -0.0092356832369944169 0.029820919152110145 0.023259973993795036 -0.0030441487832288793 0.03365048419762718 -0.0062802665005825533 -0.017559219715326962 0.00025083179664717029 -0.019696808847827027 -0.0049935720731256678 0.014809195138973578 -0.011907252729733571 0.047920241179021474 -0.015940877197622411 0.0013246678754072032 0.0032105660645911057 0.015410156163521911 -0.013651369486854758 0.023283130049568831 0.0036658602767040489 -0.0049920221116448033 -0.0020254755203789657 0.016312959762385226 0.0019702678343427858 0.01802835503333693 -0.017573479365699245 -0.00619123545463225 0.066872230505147151 0.018386785976932545 0.025788725951788265 0.0066053800614093499 0.047997136867142583 0.022123021017353528 0.05235485524745033 0.04134191218222049 0.039340752600097298 0.005795681105045674
leaf_weight=4739.6638385653496 6772.9372145086527 24718.895408302546 12829.366832688451 5298.3054374456406 11326.062278226018 1370.6750067174435 6713.4544331133366 5149.0944760143757 403.01718033850193 2434.4664044678211 5990.8419343978167 527.91197073459625 12199.82125775516 894.60027132928371 411.31224092841148 124.68218649923801 156.15606310963631 8991.7784398496151 7757.8403047174215 29439.934594064951 11327.550497621298 1047.0230666548014 4096.7580055147409 9233.619640275836 3004.5296596884727 260.61002060770988 135.87608833611012 759.25135716795921 4834.4050771296024 17896.706921860576 1238.1776631176472 14884.989399015903 846.32336775958538 1512.9621423482895 1411.0068928748369 3421.4138968884945 358.20656019449234 9213.0132355839014 19.253161862492561 353.76513564586639 2432.5834901183844 10743.004807636142 972.14212375879288 2642.0851995199919 766.71021136641502 9265.6590052247047 1168.4974086135626 11309.652187809348 510.05809369683266 4879.6136728823185 4657.6241488158703 11984.292119309306 41.282175183296204 7.1358721554279319 2199.4362619072199 927.00919164717197 7249.4277181774378 467.18579494953156 230.27207162976265 156.43167021870613 62.46730537712574 378.15986110270023 190.9882530272007
leaf_count=37370 47778 167704 95547 33083 80962 9621 50970 34193 2574 17235 40681 3819 83362 5544 2765 939 850 60410 56280 206236 83153 7172 27278 71266 19737 1481 999 4688 30955 127233 7613 107719 6426 10789 10743 24536 2582 67915 131 2625 17096 74929 6302 19706 4901 64214 8306 80576 3473 34162 30650 90377 270 42 14573 5909 50044 2721 1458 955 375 2301 1180
internal_value=-1.96244e-05 0.0082042 -0.0110848 0.0164592 -0.00718592 0.0033278 -0.0216533 0.0132267 0.0252012 0.00161834 0.00489969 -0.00467332 0.00693141 0.0197184 0.0230891 0.028532 0.0392723 0.0112575 -0.0111113 -5.65448e-05 -0.00640525 0.0156781 0.0103501 -0.0269071 0.0107718 0.0365845 0.0174606 0.0180765 0.0200842 -0.00229593 0.0268204 -0.00781991 -0.0075257 -0.00666864 -0.0124439 -0.012047 -0.0131238 -0.010906 0.00168044 -0.0125847 -0.00370932 0.0040536 0.0237868 -0.0182125 0.0146253 0.00201301 -0.000909545 -0.000604065 0.00184579 0.00333011 0.0170524 -0.0188563 0.0296647 -0.0168195 0.0140308 0.0204841 0.00457898 0.0339759 0.0366011 0.039244 0.034027 0.0294509 0.0146305
internal_weight=307348 176311 131037 65472.9 95724.2 110838 35313.1 47800 17672.9 75178.1 25407 58366.9 35659.7 11123.2 15367.6 5464.27 2305.29 36676.8 37357.3 49771.1 39971.2 7091.24 16296.6 13973.3 8995.37 2149.13 6044.22 5908.35 9903.34 20331.2 4031.93 26212.5 10124.3 9270.8 27233 25822 22400.6 9571.22 16411.6 373.018 13758.6 19363.1 2793.75 21339.8 11957.9 16038.6 18395.7 17867.8 6558.17 5389.67 5068.94 18697.7 5339.59 853.459 11191.2 1899.15 17992.4 1888.52 1485.5 1255.23 788.047 631.615 253.456
internal_count=2167484 1203669 963815 432565 694126 771104 269689 320008 112557 525870 175166 419266 245234 72420 98662 34292 13895 247588 274860 350704 288930 47052 110640 108636 60418 13045 39880 38881 64370 144468 25368 190872 73537 67069 201323 190580 166044 70497 114748 2756 98058 134594 17755 161053 79884 111992 130336 126517 45941 37635 33415 141347 33353 6468 74983 12211 124973 11564 8990 7532 4811 3856 1555
is_linear=0
shrinkage=0.03


Tree=7
num_leaves=64
num_cat=0
split_feature=7 3 0 4 4 4 2 4 4 4 4 4 4 4 4 4 4 4 4 0 4 4 4 4 4 4 4 4 4 4 4 4 4 4 4 4 4 4 4 4 4 4 0 4 4 4 4 4 4 2 0 4 4 4 4 4 4 4 4 4 4 4 4
split_gain=4387.95 2534.45 1972.91 1290.35 437.075 427.285 742.649 413.852 376.584 1026.78 402.363 336.285 359.366 328.087 318.761 279.571 249.361 352.993 286.5 240.498 192.716 482.761 299.965 332.66 228.018 330.949 192.677 193.803 246.002 190.681 172.61 169.884 168.743 164.738 261.543 163.479 188.195 140.391 139.038 137.513 445.1 173.29 170.248 146.645 132.519 131.675 129.753 133.326 115.198 115.072 158.642 114.588 110.601 110.395 108.707 108.263 107.921 167.426 104.633 160.224 106.752 102.348 98.3222
threshold=92868.500000000015 2.5000000000000004 10.500000000000002 583917.50000000012 988945.50000000012 583917.50000000012 1.0000000180025095e-35 566413.50000000012 696172.50000000012 695843.00000000012 926171.50000000012 471234.50000000006 456427.50000000006 642399.00000000012 821996.00000000012 473105.00000000006 371385.00000000006 292314.00000000006 179394.00000000003 9.5000000000000018 708860.50000000012 694207.00000000012 948800.50000000012 967780.00000000012 936637.50000000012 926171.50000000012 950756.50000000012 948800.50000000012 926520.50000000012 640220.50000000012 742541.50000000012 912635.00000000012 471234.50000000006 772445.50000000012 773718.50000000012 621662.00000000012 614098.00000000012 985842.50000000012 381205.50000000006 352309.00000000006 299114.00000000006 300904.50000000006 3.5000000000000004 351483.00000000006 950756.50000000012 37883.000000000007 952617.50000000012 967780.00000000012 832241.00000000012 6.0000000000000009 7.5000000000000009 856328.00000000012 989641.50000000012 926520.50000000012 907220.50000000012 989641.50000000012 149614.50000000003 138912.00000000003 264268.00000000006 199724.00000000003 275574.00000000006 30026.500000000004 299114.00000000006
decision_type=2 2 2 2 2 2 2 2 2 2 2 2 2 2 2 2 2 2 2 2 2 2 2 2 2 2 2 2 2 2 2 2 2 2 2 2 2 2 2 2 2 2 2 2 2 2 2 2 2 2 2 2 2 2 2 2 2 2 2 2 2 2 2
left_child=1 5 3 11 8 6 39 32 9 13 14 12 16 29 33 -13 17 18 -2 45 21 35 24 44 25 30 27 28 -12 -5 -22 54 62 -10 -35 36 -7 -9 -18 40 -1 42 -42 -43 -24 -8 -28 -48 -16 -3 -51 -50 -39 -27 -32 -6 57 -47 59 -20 -60 -21 -4
right_child=2 49 7 4 55 20 19 37 10 -11 26 15 -14 -15 48 -17 38 -19 58 61 22 -23 23 -25 -26 53 46 -29 -30 -31 31 -33 -34 34 -36 -37 -38 52 -40 -41 41 43 -44 -45 -46 56 47 -49 51 50 -52 -53 -54 -55 -56 -57 -58 -59 60 -61 -62 -63 -64
leaf_value=0.0093232155432868904 -0.0048944008786649456 -0.017090391802391382 -0.00022355595773796365 0.00087119172657220128 0.014636987358474445 0.0092211082261917064 0.0097015468880805311 0.0053556337556413709 -0.0058939229979339926 0.021604315264405788 0.0070311813662696822 -0.023722561223932678 0.0048150696557050293 -0.0064439441146162532 -0.016298366773215583 -0.0090957848644926485 -0.02106923028897623 -0.00060959653831101231 -0.01423649951100437 0.018735869715773408 -0.00074046932040466331 0.024617437298308752 0.028902065387596865 0.0034023353521082582 -0.0047451045005424087 0.032135311793612231 -0.0087782289601295634 0.010018929175752294 -0.0074610308087911673 0.012989318251213987 0.0082013853834749413 -0.0034202783222036215 -0.0059437402895832639 0.015183505334563689 -0.0019405458796495573 0.0069420999481226344 0.027176424740203521 0.02285571424446101 -0.00909292234668772 0.0065720995776310867 -0.0034384130967518652 0.0050008557455318873 0.042062905661309158 0.025495521915840726 0.014517846055179976 0.0022186493118991819 9.1814055861017132e-05 -0.0094054046222400781 0.00089961007617872567 -0.020122051793734493 0.095999163403626048 -0.0098443358499669259 -0.011034172431255486 0.0061643317490973374 0.027927921815770983 -0.0054724196996904029 0.0024406013979099742 -0.0056866845062827015 -0.023723856975167198 -0.0065531535505206923 -0.0098644685762484252 0.0057354122946716418 0.0039689336746499453
leaf_weight=5026.2520896047354 34345.0362726897 4465.8102337047458 14747.408874489367 16057.773739367723 1928.6901841908693 1335.9716047346592 1704.3987672477961 22271.57002530992 7312.2715568989515 2094.6273498535156 2120.481819704175 1271.1934557408094 2910.8460131883621 5887.0584983080626 2102.8496044874191 15852.046665742993 960.62237267196178 12099.116569854319 3553.279674731195 566.42579111456871 3287.0308698862791 2264.4021199941635 654.27096077799797 2715.6136240661144 1912.9725907966495 570.60784819722176 2243.6793281584978 2790.8839023411274 2095.6994689702988 1260.3172383159399 7663.6993510276079 1163.2207472622395 3424.0376806855202 958.61603270471096 4926.362992182374 7083.6441685110331 868.59252013266087 664.36378172039986 9652.4187707453966 2894.4429933130741 82.685382679104805 446.99972426891327 673.40578684210777 1068.3667868077755 4957.0945026576519 5186.3259218782187 11799.651607014239 1498.8430133312941 1038.2183746993542 23.009671464562416 19.035564109683037 6336.994807690382 99.099762111902237 199.98438042402267 260.14967811107635 274.47725756466389 18842.010184139013 4504.0657284855843 945.41793482750654 7845.6812211349607 1070.2613710612059 14737.469359412789 7640.6991264820099
leaf_count=33829 247650 33910 104817 112472 12670 9008 11535 153771 53072 13110 14275 10032 19877 42724 16041 116875 7526 85432 26698 3781 23104 14131 4021 18707 13672 3390 16674 18648 15425 8256 51793 8318 24708 6228 34982 48282 5365 4147 70960 19782 542 3064 3805 6563 32384 36112 82822 11098 7293 185 121 46794 721 1366 1638 2012 131594 32222 7419 57209 7922 101321 53579
internal_value=-2.0669e-05 0.00533087 -0.00242239 -0.00400526 -0.00102961 0.00642252 0.00479157 0.00286692 -0.00144081 0.00148991 -0.00308053 -0.00639628 -0.00551262 -0.000325595 -0.00590236 -0.0101826 -0.00593935 -0.00518758 -0.00634713 0.00315297 0.00902394 0.0121953 0.00745669 0.0120264 0.0049288 0.00633743 -0.000242482 0.00388705 -0.000170217 0.00175381 0.00514825 0.0072793 0.000257949 -0.00288693 0.000847928 0.00916517 0.0163023 0.00579 -0.0101784 0.012112 0.0143077 0.0253305 0.0370756 0.0194582 0.0161981 0.00160155 -0.00210487 -0.000978107 -0.0100999 -0.0166233 0.0325458 -0.0083307 0.0184423 0.025412 0.0088512 0.0121272 0.00111728 -0.00145486 -0.0100656 -0.0089493 -0.016372 0.00621753 0.0012069
internal_weight=307259 95178 212081 163233 72727.5 90670.1 55732.8 48847.2 70524.3 25299.8 45224.6 90505.9 73382.7 23205.1 22675.3 17123.2 70471.8 59858.8 47759.7 45540.7 34937.3 11552.6 23384.6 8326.98 15057.7 13144.7 22549.2 7007.07 4216.18 17318.1 12374.1 9087.07 25812.1 13197.3 5884.98 9288.21 2204.56 23035 10613 10192.2 7297.71 2271.46 756.091 1515.37 5611.37 30236.8 15542.2 13298.5 9478.06 4507.86 42.0452 7375.21 763.464 770.592 7923.85 2203.17 28532.4 9690.39 13414.6 11399 2015.68 15303.9 22388.1
internal_count=2167484 653545 1513939 1172196 514596 619329 384150 341743 499914 176562 323352 657600 530693 163452 164410 126907 510816 432330 346898 316565 235179 76786 158393 55112 103281 89609 158942 48348 29700 120728 84853 61749 183104 94282 41210 62655 14373 158639 78486 67585 47803 13974 4347 9627 36405 211463 110594 93920 70128 34216 306 54087 4868 4756 53431 14682 199928 68334 99248 83907 15341 105102 158396
is_linear=0
shrinkage=0.03


Tree=8
num_leaves=64
num_cat=0
split_feature=5 5 5 5 5 5 0 5 7 0 7 5 5 5 7 7 5 0 7 0 5 7 5 4 4 3 0 5 5 7 4 0 0 3 4 7 7 7 5 5 5 3 5 7 5 5 7 5 7 7 7 7 5 7 0 4 4 4 4 5 5 5 7
split_gain=28666.4 7067.28 5793.29 1781.44 997.293 699.985 671.85 508.91 469.883 391.127 383.725 474.822 352.129 233.446 230.299 284.522 226.957 226.92 214.498 178.744 172.926 170.952 134.718 104.729 101.59 96.5523 93.002 90.803 90.2507 89.3998 104.115 87.8245 77.7097 75.3886 79.1583 73.1575 67.9832 108.672 66.4231 65.2228 63.966 100.825 274.926 82.9947 61.9926 61.2261 58.6903 58.3826 58.3377 81.5292 58.2541 56.2633 68.8272 53.2152 52.3136 51.9719 51.6903 98.5378 51.4312 52.0924 51.2062 49.8914 49.5948
threshold=0.16254440473507412 0.22554159880413202 0.094392033542976955 0.28152948106892312 0.12896973010910937 0.056724360447642459 9.5000000000000018 0.34712240474560807 97698.000000000015 9.5000000000000018 92868.500000000015 0.19630136657135111 0.19574275362318844 0.2486331368188405 13863.000000000002 97698.000000000015 0.50581395348837221 9.5000000000000018 71767.500000000015 6.5000000000000009 0.18738584086851359 92868.500000000015 0.031662489557226406 958086.00000000012 959698.00000000012 2.5000000000000004 13.500000000000002 0.14581007607706942 0.31000207992172468 71767.500000000015 926171.50000000012 1.5000000000000002 9.5000000000000018 2.5000000000000004 13811.000000000002 71767.500000000015 71767.500000000015 92868.500000000015 0.11174675690392315 0.14988287150914073 0.1143132778466867 2.5000000000000004 0.11444596249949519 97698.000000000015 0.25251596474730104 0.17302494802494806 92868.500000000015 0.07444568029325703 71767.500000000015 92868.500000000015 31794.500000000004 71767.500000000015 0.31353026058908418 30069.000000000004 3.5000000000000004 82796.500000000015 642399.00000000012 515179.00000000006 968350.00000000012 0.25251596474730104 0.18106842248167257 0.25195610135396901 31794.500000000004
decision_type=2 2 2 2 2 2 2 2 2 2 2 2 2 2 2 2 2 2 2 2 2 2 2 2 2 2 2 2 2 2 2 2 2 2 2 2 2 2 2 2 2 2 2 2 2 2 2 2 2 2 2 2 2 2 2 2 2 2 2 2 2 2 2
left_child=2 6 5 8 19 22 10 14 13 21 11 33 35 24 -5 51 26 -10 -15 40 31 39 -1 -13 29 38 -9 -23 55 50 -31 -12 44 45 -35 -8 -14 -38 -21 -6 43 42 -42 -4 61 -2 -7 -48 -11 56 -3 53 -53 54 -16 -17 57 -50 59 -19 -37 -20 -27
right_child=1 3 4 7 9 46 12 16 17 48 20 23 36 18 15 28 -18 58 32 25 -22 27 -24 -25 -26 62 -28 -29 -30 30 -32 -33 -34 34 -36 60 37 -39 -40 -41 41 -43 -44 -45 -46 -47 47 -49 49 -51 -52 52 -54 -55 -56 -57 -58 -59 -60 -61 -62 -63 -64
leaf_value=-0.030717554652847451 -0.0003404875143029417 0.011504184573268544 -0.0062984250512754941 -0.020832976327795259 -0.0042852899954020822 -0.013738570544184056 -0.0028485527191519969 0.031690082039392539 0.0088015031035230239 -0.010667140382676835 0.0032474638746732565 0.0077634383287921238 0.0032423135897462828 0.013369620300047087 0.014120474276390205 0.0058960034295939667 0.070825792915836849 0.012133771888525071 0.025088559728347434 -0.010289564004650862 0.0015046851049556177 -0.0095914677825228029 -0.024398434193373075 0.014581089157586487 0.0050840674467647669 0.056981718067264403 0.050507099312757771 -0.0059622206523764106 0.021852304370518265 0.015494187646506395 0.027243413904677913 -0.0028285111210764897 0.031548032011204881 0.046100962755372184 -0.015303046755330613 0.003020441531681837 0.014528525889243152 0.0088070007797193747 -0.0064485347373304178 0.0011494454592983643 0.020420279752697845 -0.020019463186796864 -0.01069972317781622 -0.015044818039591075 0.019467901955217189 0.0034046932629296441 -0.020706587589412934 -0.017150378973871328 0.0021849529870429487 -0.0019260327773593826 -0.0087708114502168238 0.034360876426857832 0.026057156288787468 -0.0074584069619333063 0.026726529290917053 0.017046702879405011 -0.0016029947423161655 0.01444426173510273 0.021694261397671343 0.017093787830552654 0.0062777481716017403 0.041811544218972978 -0.017390634675956178
leaf_weight=4610.7402218878269 6786.9053288400173 2685.7805350124836 1091.3608449846506 113.64714765548706 10622.355019986629 2792.9122550785542 1370.9440471082926 1939.4924873411655 22439.18790705502 510.74356347322464 2432.1035885065794 6045.4006178081036 1316.4718621373177 2021.8067875057459 388.00935840606689 411.91573564708233 162.39516180753708 6401.7348077297211 697.59393551945686 6558.2476004362106 29430.416461259127 10736.498867973685 9040.4794320389628 3061.3676983863115 1052.967007085681 7.7866478562355033 272.41711726784706 14762.873427227139 4929.6673927158117 5210.019855722785 783.93982127308846 17805.68804846704 1260.9565701335669 19.634698271751404 345.86995096504688 10784.522850856185 4109.8703241944313 11029.723814770579 10676.949880927801 2441.6465453654528 263.06082156300545 958.16093641519547 8385.4235146790743 9631.8461344093084 1915.9401045739651 9314.3831342607737 6533.0546549707651 11674.548724353313 3486.0291661322117 11040.80777862668 133.17878885567188 1563.1162545979023 2176.3401953727007 49.654304981231689 1319.9344134479761 4727.5555726885796 1990.2196977436543 710.80010338127613 775.46984188258648 2737.9235972464085 7294.4562281668186 212.93610374629498 1150.0634387135506
leaf_count=37370 47778 17829 7891 870 76281 21017 9621 11564 151320 3732 17235 40681 8963 13342 2371 2765 850 42696 4219 48506 206236 79768 71266 19737 7172 42 1481 107719 30955 34142 4685 127233 7524 131 2625 74929 26916 74761 77843 17096 1876 7495 62167 72863 12059 64214 50554 89482 24209 78786 997 9428 13170 334 8119 30650 14089 4808 4827 17925 50044 1271 8955
internal_value=-2.07235e-05 0.00781147 -0.0107433 0.0155566 -0.00691402 -0.0212439 0.00318552 0.0235979 0.0125524 -0.00436491 0.0015741 0.00455978 0.00656197 0.0167632 0.0216357 0.0219468 0.0365481 0.0104729 0.021375 -0.0106201 3.66161e-05 -0.00606079 -0.026534 0.0100567 0.0139059 -0.0084754 0.0340182 -0.00749076 0.0189458 0.0149587 0.0170336 -0.00209784 0.0253312 0.0015191 -0.0119448 0.00382841 0.00979217 0.010361 -0.00791078 -0.00326885 -0.0125598 -0.0107771 -0.00975143 -0.0141557 0.0225516 0.00182551 -0.0178043 -0.0184272 -0.000677546 -0.000380688 0.0105423 0.0274407 0.029533 0.0229796 0.0238709 0.0161551 0.00237549 0.00426429 0.0142541 0.0136211 0.00433527 0.0290218 -0.0168681
internal_weight=307208 177531 129677 66383.6 95024.9 34651.7 111148 18054.1 48329.4 56302 75241.8 25573.6 35906 15975.1 15679.8 15566.2 2374.3 32354.3 6109.23 38722.9 49668.2 38563.4 13651.2 9106.77 9865.89 18393 2211.91 25499.4 10069.1 8812.92 5993.96 20237.8 4087.43 16466.8 365.505 19449.9 16456.1 15139.6 17235.2 13064 20329.9 9606.65 8648.48 10723.2 2826.47 16101.3 21000.5 18207.6 17738.6 17227.9 2818.96 5497.05 3739.46 1757.6 1707.94 5139.47 6187.05 4196.83 9915.13 9139.66 18079 910.53 1157.85
internal_count=2167484 1203669 963815 432565 694126 269689 771104 112557 320008 406488 525870 175166 245234 103240 98662 97792 13895 216768 38415 287638 350704 280864 108636 60418 64825 135346 13045 187487 64370 57653 38827 144468 25073 114748 2756 134594 110640 101677 126349 93377 152292 71538 64043 80754 17549 111992 161053 140036 125624 121892 18826 33422 22598 10824 10490 33415 43106 29017 65448 60621 124973 5490 8997
is_linear=0
shrinkage=0.03


Tree=9
num_leaves=64
num_cat=0
split_feature=5 5 5 5 5 5 0 2 5 5 2 0 5 5 2 2 5 5 0 2 0 5 5 5 5 3 3 2 2 0 5 5 4 5 5 5 3 5 0 5 2 5 0 2 2 3 5 3 2 0 4 5 4 4 5 0 2 2 5 5 0 4 4
split_gain=26962.6 6532.94 5569.1 1690.95 950.351 690.589 659.443 540.691 514.193 464.755 384.756 380.697 272.122 251.179 209.805 265.313 206.855 194.082 191.42 164.643 160.159 135.601 135.508 118.721 100.544 105.481 84.9175 165.182 82.3555 80.2887 76.191 75.106 92.2264 77.772 73.4841 208.543 72.0308 67.2191 63.775 60.4763 59.8417 56.7964 56.3653 59.2009 55.2547 54.605 52.5487 52.2938 52.2179 60.8356 51.831 50.9777 50.8013 93.8186 50.7107 50.0289 47.6987 47.5877 59.0468 77.4415 47.4431 63.4982 57.2215
threshold=0.16145324209840342 0.22554159880413202 0.094392033542976955 0.27832022885725544 0.12896973010910937 0.056724360447642459 10.500000000000002 1.0000000180025095e-35 0.34712240474560807 0.18326851893922777 1.0000000180025095e-35 9.5000000000000018 0.2486331368188405 0.19574275362318844 1.5000000000000002 1.0000000180025095e-35 0.20024877133700417 0.57518796992481214 9.5000000000000018 1.0000000180025095e-35 9.5000000000000018 0.031662489557226406 0.24433218919327335 0.31000207992172468 0.241896178902717 2.5000000000000004 2.5000000000000004 1.0000000180025095e-35 1.0000000180025095e-35 13.500000000000002 0.14581007607706942 0.25251596474730104 614098.00000000012 0.25195610135396901 0.1143132778466867 0.11444596249949519 2.5000000000000004 0.20058960704242784 9.5000000000000018 0.14976418667762861 1.0000000180025095e-35 0.17036404501180163 1.5000000000000002 1.0000000180025095e-35 1.0000000180025095e-35 2.5000000000000004 0.071703429019861445 2.5000000000000004 1.0000000180025095e-35 3.5000000000000004 72835.000000000015 0.24433218919327335 642399.00000000012 186481.00000000003 0.13935683512731253 9.5000000000000018 6.0000000000000009 1.0000000180025095e-35 0.11636332604074541 0.11100755928342136 8.5000000000000018 77794.000000000015 907220.50000000012
decision_type=2 2 2 2 2 2 2 2 2 2 2 2 2 2 2 2 2 2 2 2 2 2 2 2 2 2 2 2 2 2 2 2 2 2 2 2 2 2 2 2 2 2 2 2 2 2 2 2 2 2 2 2 2 2 2 2 2 2 2 2 2 2 2
left_child=2 6 5 7 18 21 9 20 14 42 37 19 22 41 15 23 -12 29 26 30 51 -1 24 55 -9 -26 27 34 -15 48 -6 33 -33 -14 -4 -36 57 -11 -34 -21 46 -8 -2 -44 -13 52 -7 -18 49 -10 -17 -3 53 -46 -55 60 -38 -20 59 -59 -5 -62 -63
right_child=1 3 4 8 11 40 13 12 17 10 16 44 31 28 -16 50 47 -19 36 39 -22 -23 -24 -25 25 -27 -28 -29 -30 -31 -32 32 38 -35 35 -37 56 -39 -40 -41 -42 -43 43 -45 45 -47 -48 -49 -50 -51 -52 -53 -54 54 -56 -57 -58 58 -60 -61 61 62 -64
leaf_value=-0.030464766082577904 0.0026722533220802343 0.0071131511929800164 -0.013844007777865651 0.015075806458135842 -0.0092092920321539193 -0.020644232484776689 0.0017474533798848711 0.013957228605785223 0.022002673419905014 0.0007804733189159562 0.0037177099716957777 -0.0018385219572533398 0.025623321070312292 0.0087050083499030633 -0.019384092893768166 0.039923714627120514 0.011405936237295973 0.072716719964801876 -0.0072652442921871483 -0.0040923520823293053 0.012989705230947142 -0.024054496858977731 0.0068606481805426342 0.021635625154172004 0.025045670986258359 -0.0071325666536684804 -0.019034263357816588 -0.0057065809061934572 0.014194015537699474 0.048319709467523168 -0.0058856687786775618 0.013956681362227889 0.021566241785758097 0.04241645887797333 0.011850082555992042 -0.011229658187187071 -0.016273250598441487 0.003305941690914855 0.034953540411814386 0.0012555225380358468 -0.013179747995901655 0.0056736535000788462 -0.0025269378756619808 0.00028306358087353028 8.0674184552458433e-05 -0.012353101301414284 -0.01705421114513208 -0.020119036085545435 0.020192138286761384 0.036248212172424091 0.026662687921478419 0.009898685860326422 -0.0017508086613455328 -0.0063551121942168982 0.010753003566404351 0.019758457456078436 0.05487678482452478 -0.0042481543650072133 -0.0061187872419348277 0.015378337101865616 -0.014542828605900757 0.016276332644803444 -0.014932464702967489
leaf_weight=4500.2283210754395 3245.6809347718954 10002.196083888412 12501.052096515894 3731.6697109788656 10810.145784124732 5175.750712223351 4859.0074279010296 3981.2360866814852 342.85250151157379 20099.095039471984 5987.4971882998943 11076.313921004534 1104.9463615566492 9768.1641012281179 116.80676916241646 290.30313554406166 7424.1283526271582 119.30288641154766 7947.7714795917273 10111.900138065219 12063.491426602006 8877.0317730307579 1735.7821048498154 6284.8346986919641 1441.8647852689028 97.326482683420181 1349.4684559255838 4024.1432222276926 3300.449029609561 288.14423654973507 14652.810687839985 1050.2435343116522 1111.2667126357555 324.45339357852936 365.31384582817554 9497.6440407782793 807.86602784693241 17982.189230933785 456.80798897147179 2341.2198356091976 2583.7500512301922 10496.160028040409 18376.659638792276 10654.426877602935 2318.3293976932764 240.02893540263176 13003.800156652927 47.193710535764694 325.99497778713703 1369.5622520148754 3691.0202823728323 14602.361144632101 1965.3736096471548 171.11828695237637 1669.0926818102598 1945.5742686241865 8.2281887680292112 394.2091461867094 1185.6068376898766 333.23579323291779 113.06241063773632 314.6177279651165 63.003238782286644
leaf_count=37285 22920 67585 95426 24079 80795 40726 33792 25844 2113 141233 41073 79150 6537 65660 901 1708 48477 589 58248 72854 78910 71195 11597 38673 8887 734 10677 29052 21432 1528 107312 6573 6813 1896 2586 71349 6360 124552 2658 16417 19626 72032 131244 74445 16179 1829 100869 352 2002 7802 22000 97153 13929 1203 11295 12476 43 2836 8502 2334 759 2022 409
internal_value=7.74542e-07 0.00751048 -0.0105206 0.0149259 -0.00674328 -0.0208949 0.00308595 0.0119255 0.0225018 0.0017467 0.00351456 -0.00422706 0.017663 0.00703478 0.0206024 0.0208875 0.0078748 0.0353471 -0.0103689 -0.00591438 0.0101564 -0.0262123 0.0141824 0.018729 0.0164824 0.0230041 -0.0116833 -0.0113068 0.0100922 0.0334179 -0.00729714 0.0238988 0.0208621 0.0294495 -0.012314 -0.0103736 -0.00695314 0.00197327 0.0254779 -0.00308621 -0.0174683 0.00443189 -0.00107598 -0.00149536 -0.000558197 0.00166875 -0.0180771 0.0112048 0.0313002 0.0334056 0.0276348 0.00876678 0.00222039 0.00409938 0.00915648 0.0157649 -0.015525 -0.00624236 -0.00198762 0.00473283 0.0139214 0.00511997 0.0110378
internal_weight=307121 179209 127911 66968.7 93770.9 34140.6 112241 47972 18996.7 83816.9 51540.1 55356.3 11303.9 28423.8 16550.9 16434.1 13458.8 2445.86 38414.5 37916.1 36668 13377.3 7256.21 12452.8 5520.43 1539.19 27737.6 26388.2 13068.6 2326.55 25463 4047.72 2618.32 1429.4 22364 9862.96 10676.9 38081.3 1568.07 12453.1 20763.3 15355.2 32276.8 29031.1 17440.3 6363.94 18179.6 7471.32 2038.41 1712.41 3981.32 24604.6 6123.91 4158.54 1840.21 6167.93 816.094 9860.82 1913.05 727.445 4222.35 490.683 377.621
internal_count=2167537 1209460 958077 432248 688376 269701 777212 315187 117061 584296 355687 400963 71539 192916 103027 102126 89902 14034 287413 277378 243648 108480 47062 78418 35465 9621 209090 198413 87092 13445 188107 24477 16044 8433 169361 73935 78323 265785 9471 89271 161221 105824 228609 205689 123585 44435 141595 48829 11917 9915 23708 164738 42606 28677 12498 39745 6403 71920 13672 5170 27269 3190 2431
is_linear=0
shrinkage=0.03


Tree=10
num_leaves=64
num_cat=0
split_feature=5 5 5 5 5 5 0 2 5 5 7 0 5 5 2 2 0 5 5 7 0 5 5 5 5 7 7 2 0 5 7 7 0 5 5 7 0 2 5 5 3 7 5 5 5 5 2 3 5 5 3 5 5 5 2 0 7 5 5 0 5 0 0
split_gain=25432 6051.92 5387.02 1547.24 907.749 681.857 615.708 497.172 465.633 436.086 385.156 360.829 248.245 233.112 194.903 240.668 184.535 184.521 173.126 157.739 147.727 135.676 124.613 108.237 91.7355 98.0372 85.5579 75.9226 71.9518 71.6503 70.1115 69.2962 68.0685 62.5753 83.123 59.0337 64.1626 58.3387 57.1073 60.0076 56.7445 128.066 57.6778 193.629 56.3889 55.7943 52.0026 51.6938 51.5047 51.47 50.8948 57.3578 48.4703 47.1832 46.9878 54.6249 59.1758 46.3928 57.8695 45.6426 45.5688 56.4882 54.3981
threshold=0.16145324209840342 0.22554159880413202 0.094392033542976955 0.27832022885725544 0.12896973010910937 0.056724360447642459 10.500000000000002 1.0000000180025095e-35 0.34712240474560807 0.18326851893922777 92868.500000000015 9.5000000000000018 0.2486331368188405 0.19574275362318844 1.5000000000000002 1.0000000180025095e-35 6.5000000000000009 0.20024877133700417 0.57518796992481214 92868.500000000015 9.5000000000000018 0.031662489557226406 0.24433218919327335 0.31000207992172468 0.241896178902717 71767.500000000015 71767.500000000015 1.0000000180025095e-35 13.500000000000002 0.14581007607706942 71767.500000000015 92868.500000000015 9.5000000000000018 0.11636332604074541 0.11315509474050778 92868.500000000015 3.5000000000000004 1.0000000180025095e-35 0.25251596474730104 0.25195610135396901 2.5000000000000004 97698.000000000015 0.1143132778466867 0.11444596249949519 0.14623438802591227 0.20058960704242784 1.0000000180025095e-35 2.5000000000000004 0.071703429019861445 0.17079972463801632 2.5000000000000004 0.17302494802494806 0.20058960704242784 0.24433218919327335 1.0000000180025095e-35 3.5000000000000004 97698.000000000015 0.31353026058908418 0.28635145073663737 9.5000000000000018 0.19630136657135111 3.5000000000000004 2.5000000000000004
decision_type=2 2 2 2 2 2 2 2 2 2 2 2 2 2 2 2 2 2 2 2 2 2 2 2 2 2 2 2 2 2 2 2 2 2 2 2 2 2 2 2 2 2 2 2 2 2 2 2 2 2 2 2 2 2 2 2 2 2 2 2 2 2 2
left_child=2 6 5 7 16 21 9 20 14 35 17 19 22 30 15 23 40 -11 28 44 53 -1 24 59 -9 -26 -18 -15 54 -21 -8 33 38 34 -28 50 -37 48 39 -14 41 -4 -43 -44 -6 60 -13 -48 -7 -32 51 -2 -19 -3 55 56 -10 58 -17 -5 61 -12 -62
right_child=1 3 4 8 11 37 13 12 18 10 45 46 32 27 -16 57 26 52 -20 29 -22 -23 -24 -25 25 -27 31 -29 -30 -31 49 -33 -34 -35 -36 36 -38 -39 -40 -41 -42 42 43 -45 -46 -47 47 -49 -50 -51 -52 -53 -54 -55 -56 -57 -58 -59 -60 -61 62 -63 -64
leaf_value=-0.030218924575965318 -0.000655190178801595 0.0068680597711648986 -0.0057010391470537153 0.013386780660110358 -0.0041161025826329809 -0.020322505600404734 -0.0029708590921038746 0.013420640317014711 0.0051266640936605762 0.0036829741004534341 0.0055623939462428927 -0.0017855784746493033 0.022046626294349031 0.0083965997816873618 -0.0190626998539946 0.019929285021098402 -0.014864426266882103 0.013750579725560354 0.068406741407968027 -0.0090191014683904218 0.012497228044941825 -0.023741530266460649 0.0066256224759881103 0.020717354280703402 -0.0068620887947119218 0.023964882700082634 -0.0043541648063455951 0.013646278025382607 0.045772503433288744 -0.0057673419884164507 0.0023167613155107639 -0.008306182788171192 0.028634329263087985 -0.0067670953221234918 0.011061841907596305 0.00068258341770075946 -0.0031356257290538056 -0.012902923320642495 0.017183467375951399 0.039921054672805004 -0.019048418665185415 -0.014283715129565893 0.015307858704590347 -0.011635849874151583 0.00066129129303148042 0.0028892309493292593 0.0021503860830160838 -0.012087078412658424 -0.016743777335389662 0.0061323329225791475 -0.011383965909355495 0.0036322709006067306 0.0087381235263607401 0.0095411233233662889 0.019352900158324932 0.034472928155478817 0.030744535690321598 0.023499093414483852 0.032950078130090689 0.018932625724968635 -0.0048700298950535648 0.00045971817265576725 0.00037043208923531761
leaf_weight=4402.2215703800321 7905.8751016408205 10047.662016138434 2704.0437655448914 4258.5650925934315 9850.0685656368732 5101.1012447476387 1109.9755683094263 4015.6775422245264 131.75473929941654 7525.2692036479712 2758.3866850882769 11062.806201025844 732.54239782691002 9822.3108525872231 115.24177257716656 402.58109486103058 1479.6944045722485 2352.1927332878113 122.97494453191757 10586.832381099463 12161.199037253857 8726.5240643322468 1743.3267890065908 6365.2535040229559 98.544320449233055 1461.4778531342745 816.91396214067936 3329.4945130050182 294.96232709288597 14459.912140548229 4801.6982288956642 13320.309842288494 1276.5789466053247 2063.8973633348942 511.40923237800598 5489.2914339452982 14192.985942855477 2560.3722888231277 1871.2278408110142 223.02007409930229 1015.8146677315235 9421.3755600005388 248.63126054406166 6559.6168002635241 2867.7765517383814 16439.259460300207 6132.5378761440516 237.99021716415882 12849.906079873443 9487.5050020366907 312.63973887264729 4352.8710713386536 6752.0438033044338 14693.699641615152 329.88000637292862 1396.4797137081623 215.55916227400303 2259.2802791744471 1382.3889975249767 1969.1698098182678 2427.0619493126869 6697.9661203026772 6703.3148066699505
leaf_count=37285 55544 67585 19633 27269 71179 40726 7788 25844 819 51515 19441 79150 4306 65660 901 2424 11541 14930 589 79670 78910 71195 11597 38673 745 8876 5893 21432 1528 106364 33291 99492 7374 14903 3607 39160 101629 19626 11526 1271 8148 72709 1737 49750 20165 113960 42606 1829 100869 64745 2364 29912 44486 97153 2002 7802 1294 13272 8012 12476 17062 47267 47026
internal_value=-5.96857e-07 0.00725094 -0.0102817 0.0143471 -0.00657198 -0.0205746 0.00298728 0.0114818 0.0215415 0.00169229 0.00340129 -0.00411238 0.0169523 0.00679279 0.0197399 0.0200095 -0.0101312 0.00716096 0.0336478 -0.0057604 0.00978814 -0.0259148 0.0136367 0.0179616 0.0158268 0.0220109 -0.00794431 0.00972657 0.0318309 -0.00714226 0.00428644 -0.00733083 0.0228627 -0.00349783 0.00157544 -0.00104447 -0.00207029 -0.0171557 0.0202502 0.026239 -0.0121248 -0.0117526 -0.0127601 -0.0106499 -0.00303814 0.00161598 -0.000541844 0.00161655 -0.0177616 0.00485087 0.000560892 0.000866531 0.0100346 0.00845603 0.0298372 0.0318117 0.021065 0.0263824 0.0300223 0.0151426 0.000489326 0.00194923 -0.00102173
internal_weight=307009 180029 126980 67569 93339.6 33640.1 112460 48325 19244.1 83909.2 51655.5 55197.9 11422.4 28551 16752.5 16637.2 38141.7 16629.5 2491.61 37764.6 36902.6 13128.7 7319.03 12593 5575.7 1560.02 18192.2 13151.8 2368.64 25046.7 15399.2 16712.5 4103.37 3392.22 1328.32 32253.7 19682.3 20511.4 2826.79 955.562 19949.5 18933.7 16229.6 6808.25 12717.8 35026 17433.3 6370.53 17951 14289.2 12571.4 12258.7 9104.24 24741.4 2073.67 1743.79 347.314 4044.25 1784.97 6227.73 18586.7 9456.35 9130.38
internal_count=2167537 1209460 958077 432248 688376 269701 777212 315187 117061 584296 355687 400963 71539 192916 103027 102126 287413 110931 14034 277378 243648 108480 47062 78418 35465 9621 135436 87092 13445 186034 105824 123895 24477 24403 9500 228609 140789 161221 17103 5577 151977 143829 124196 51487 91344 244756 123585 44435 141595 98036 87820 85456 59416 164738 11917 9915 2113 23708 10436 39745 130796 66708 64088
is_linear=0
shrinkage=0.03


Tree=11
num_leaves=64
num_cat=0
split_feature=5 5 5 5 5 5 5 2 5 2 5 5 2 7 2 5 5 3 2 5 5 5 3 5 7 5 5 5 3 2 5 5 4 5 3 4 4 7 5 2 2 5 4 5 5 4 4 5 4 5 2 7 5 4 5 4 4 5 4 4 5 5 4
split_gain=23994.8 5949.33 4893.34 1418.21 775.489 682.886 648.626 457.733 423.126 361.671 262.807 226.881 175.118 213.01 162.838 150.967 135.766 128.541 211.948 124.153 256.623 114.726 87.0091 83.8583 90.1497 82.4278 82.0077 79.5593 71.7777 93.911 100.626 82.0002 77.2575 77.1314 68.4148 71.7427 200.86 66.0112 65.1147 62.1529 59.848 59.203 72.8002 62.326 56.4127 55.111 96.478 76.6663 55.8256 50.9553 47.5425 46.5368 45.8586 45.4898 43.2372 54.9108 42.4697 82.9411 56.9508 41.3076 44.6696 47.5506 55.082
threshold=0.15776611160892864 0.22554159880413202 0.092588218828181051 0.27832022885725544 0.12896973010910937 0.18402821798344191 0.056724360447642459 1.0000000180025095e-35 0.35758377425044097 1.0000000180025095e-35 0.19630136657135111 0.2486331368188405 1.5000000000000002 97698.000000000015 1.0000000180025095e-35 0.57518796992481214 0.031662489557226406 2.5000000000000004 1.0000000180025095e-35 0.1143132778466867 0.11444596249949519 0.24433218919327335 2.5000000000000004 0.241896178902717 71767.500000000015 0.20058960704242784 0.30935269384961384 0.19157265579338564 2.5000000000000004 1.0000000180025095e-35 0.17302494802494806 0.16639754067587859 13811.000000000002 0.15785169141209512 2.5000000000000004 642399.00000000012 497841.00000000006 71767.500000000015 0.14125402576489535 1.0000000180025095e-35 1.0000000180025095e-35 0.25251596474730104 614098.00000000012 0.25195610135396901 0.12123717994980236 729200.00000000012 208206.00000000003 0.20491309585269321 202233.00000000003 0.24433218919327335 6.0000000000000009 71767.500000000015 0.071703429019861445 174628.00000000003 0.11315509474050778 202233.00000000003 186481.00000000003 0.14528038011017336 261756.50000000003 72835.000000000015 0.29530161018985829 0.29603311161265178 772445.50000000012
decision_type=2 2 2 2 2 2 2 2 2 2 2 2 2 2 2 2 2 2 2 2 2 2 2 2 2 2 2 2 2 2 2 2 2 2 2 2 2 2 2 2 2 2 2 2 2 2 2 2 2 2 2 2 2 2 2 2 2 2 2 2 2 2 2
left_child=2 5 6 7 17 28 16 49 12 25 27 21 13 59 38 39 -1 18 19 -4 -21 23 45 -9 -25 -7 -15 53 29 31 33 -2 -30 -31 35 36 56 -13 -6 -10 52 43 -43 -39 54 46 47 48 -12 -3 -19 -29 -8 -11 -20 -56 -16 -58 -59 -5 -61 -62 -63
right_child=1 3 4 8 14 9 40 11 15 10 22 37 -14 26 34 -17 -18 50 44 20 -22 -23 -24 24 -26 -27 -28 51 32 30 -32 -33 -34 -35 -36 -37 -38 41 -40 -41 -42 42 -44 -45 -46 -47 -48 -49 -50 -51 -52 -53 -54 -55 55 -57 57 58 -60 60 61 62 -64
leaf_value=-0.029976250155589926 -0.0031656964169191281 0.0081136518740169122 -0.012297599472973805 0.033715684871781955 -0.0077162214387972265 0.0021352090537429059 -0.020003313561296074 0.01290976920809591 0.032930648537855073 0.017023629916134535 0.0059865137469020399 -0.014418270619599168 -0.017725334877967704 0.013709726238824474 -0.0032078428094135885 0.064600609619896832 -0.023430653601859214 -0.017417252795210912 -0.0051357978165803278 0.01238052986698621 -0.0092475108084472298 0.0063997023254135929 -0.019056261439631253 -0.0066886886235622131 0.022921668736900231 0.0045729229628561152 0.01896327677873353 -0.019245895308708759 0.04317593795520705 0.0095175566282864783 0.0052589515968685992 0.00014761645313880186 -0.013588723424014081 -0.0003039600082761341 -0.011763828953544123 -0.0045354571210077625 0.0086040240999865261 0.02373260054225565 -0.0046960674867179246 0.018756777002163258 -0.012565481039581614 0.013419835123693684 0.023622937410430648 0.038544968621144871 -0.0075833699650249796 0.013486984492332986 0.0072782139102670652 0.025071565422965628 0.032197859648162325 0.010373874184510056 0.052730915205821093 0.0022098313615453767 -0.016579787747949874 0.006260614133806919 -0.0099891235539683286 0.0043455573300256768 -0.0078007232340712484 0.0089654870971626385 -0.0016859777718695272 0.016315691141858563 0.03715971496698639 0.022148418331535458 0.031331890851417542
leaf_weight=4306.1817867606878 9545.0918915271759 15416.319973796606 16615.956855684519 363.39880572259426 8905.4053905308247 26185.308274760842 5028.1423576101661 4048.844765484333 1870.257424980402 480.7803859859705 529.98142726719379 44.099004805088043 115.54870815575123 4575.940643966198 7077.5794745385647 126.27854113280773 8579.2832791358232 2118.8031063750386 1649.6876400411129 512.20204962790012 13285.451011866331 1750.620729252696 85.071623131632805 98.080986976623535 1481.8471716791391 23896.508822917938 6515.4011450111866 92.23670357465744 22.206685990095139 769.83824713528156 5499.7630474567413 22716.191906303167 494.87490081787109 10960.610569119453 611.97483080625534 5037.233746856451 1923.541212618351 1126.9348450750113 23217.981933102012 332.60950808227062 2464.0748275071383 1048.9611672610044 1600.8200849294662 335.78258243203163 2686.1418612152338 5417.6297712028027 4554.2104720175266 552.64987917244434 84.922974586486816 21712.506018772721 8.3861322402954084 5177.6531002372503 12147.306574501097 1354.8911253660917 292.94152194261551 1332.4231308400631 660.61004611849785 1093.5580134987831 767.41080601513386 746.28606998920441 246.96740151941776 3885.4449293017387 702.02097098529339
leaf_count=37285 68977 102241 128000 2077 66469 181787 40726 25844 10230 3270 3506 284 914 29157 50654 589 71195 17145 11975 3632 100316 11597 627 745 8876 163309 39582 692 147 5307 37516 160604 3755 76565 4644 36179 13364 6479 170562 1988 19072 6422 9414 1878 19536 34269 29788 3570 563 141407 43 35132 96530 9215 2124 9535 4704 7643 5357 4522 1419 22609 3974
internal_value=-1.89946e-06 0.00673478 -0.0104475 0.0137969 -0.00676501 0.00267077 -0.0203875 0.0110582 0.0206379 0.00461853 0.00822439 0.0162791 0.0190067 0.0192567 -0.00427288 0.0326421 -0.0256195 -0.00995546 -0.00953557 -0.0105496 -0.00844372 0.0131175 0.0110828 0.0152048 0.0210769 0.00329856 0.0167971 0.00370743 6.02271e-06 0.000122409 0.00191072 -0.000832429 -0.0111099 0.00034006 -0.00191374 -0.00154898 -0.00024255 0.0218885 -0.00553367 0.0307975 -0.016954 0.0222811 0.0195892 0.0271463 -0.00436016 0.0113143 0.00925497 0.016954 0.00963507 0.00943572 -0.0171291 0.00183152 -0.0175829 0.00908678 -0.00171334 0.0017551 -0.00201643 0.00132403 0.00456873 0.0238435 0.0231973 0.0242567 0.0235577
internal_weight=306888 186565 120322 68145 87797.3 118420 32525 48664.8 19480.2 68411.8 18330 11536 17151 17035.5 49295.3 2329.15 12885.5 38502 36374.8 30413.6 13797.7 7379.39 11224.5 5628.77 1579.93 50081.8 11091.3 7105.56 50008.6 49491.5 17230.2 32261.3 517.082 11730.4 17171.9 16559.9 11522.7 4156.6 32123.4 2202.87 19639.5 4112.5 2649.78 1462.72 5961.19 11139.4 5721.76 1167.55 614.904 37128.8 2127.19 5269.89 17175.4 1835.67 3275.05 1625.36 9599.16 2521.58 1860.97 5944.12 5580.72 4834.43 4587.47
internal_count=2167537 1250847 916690 432248 651882 818599 264808 315187 117061 465728 120632 71539 104254 103340 359576 12807 108480 292306 275118 231948 103948 47062 72323 35465 9621 345096 68739 48309 352871 348969 119388 229581 3902 81872 122545 117901 81722 24477 237031 12218 156328 24193 15836 8357 43170 71696 37427 7639 4069 243648 17188 35824 137256 12485 23634 11659 68358 17704 13000 34601 32524 28002 26583
is_linear=0
shrinkage=0.03


Tree=12
num_leaves=64
num_cat=0
split_feature=5 5 5 5 5 5 0 2 5 5 7 0 5 5 7 2 0 0 4 5 5 7 5 6 5 7 5 0 6 2 7 5 7 5 5 7 5 4 6 7 7 5 2 5 0 5 4 4 4 5 0 0 2 0 4 2 4 5 0 6 4 0 5
split_gain=22540.5 5538.26 4776.98 1335.71 700.214 675.866 594.431 402.21 355.691 340.611 329.733 304.596 283.277 207.726 171.234 208.486 161.935 157.431 152.746 147.345 129.892 124.898 106.668 89.4863 111.554 89.4341 83.8375 82.4802 75.1834 134.638 74.6267 72.6846 71.549 68.7606 181.873 67.944 60.9954 76.0137 59.9462 58.829 57.6026 57.4991 56.9369 54.9283 54.8727 54.5953 51.0713 78.9561 50.9072 49.6609 48.8718 46.7717 44.4212 44.1885 94.5191 44.0929 43.978 43.6826 43.6759 43.4241 83.2621 42.5392 42.406
threshold=0.15776611160892864 0.22554159880413202 0.095726775445322376 0.27448711731466652 0.056724360447642459 0.12896973010910937 9.5000000000000018 1.0000000180025095e-35 0.18547897829891694 0.34712240474560807 92868.500000000015 9.5000000000000018 0.19574275362318844 0.2486331368188405 13863.000000000002 1.0000000180025095e-35 9.5000000000000018 10.500000000000002 958086.00000000012 0.44320844171416979 0.024540800963565194 97698.000000000015 0.24433218919327335 0.12667468950438265 0.241896178902717 97698.000000000015 0.31000207992172468 1.5000000000000002 0.12667468950438265 1.0000000180025095e-35 71767.500000000015 0.14581007607706942 71767.500000000015 0.1143132778466867 0.11444596249949519 71767.500000000015 0.25251596474730104 614098.00000000012 0.12667468950438265 92868.500000000015 71767.500000000015 0.15785169141209512 1.0000000180025095e-35 0.07444568029325703 13.500000000000002 0.68333333333333346 134943.00000000003 233301.50000000003 208206.00000000003 0.25195610135396901 9.5000000000000018 9.5000000000000018 1.0000000180025095e-35 3.5000000000000004 640220.50000000012 6.0000000000000009 72835.000000000015 0.18106842248167257 6.5000000000000009 0.12667468950438265 13811.000000000002 7.5000000000000009 0.10864971588840777
decision_type=2 2 2 2 2 2 2 2 2 2 2 2 2 2 2 2 2 2 2 2 2 2 2 2 2 2 2 2 2 2 2 2 2 2 2 2 2 2 2 2 2 2 2 2 2 2 2 2 2 2 2 2 2 2 2 2 2 2 2 2 2 2 2
left_child=2 6 4 7 20 16 8 17 25 14 18 21 35 22 -5 26 28 -3 38 44 -1 -7 23 -9 -25 59 -16 -27 -4 33 55 58 -14 -30 -35 -8 49 -38 -10 48 -17 -29 43 -6 -11 -21 -40 -48 -34 -15 -45 -39 -13 54 -12 -18 -44 -37 -23 60 -2 -24 -32
right_child=1 3 5 9 42 11 12 13 10 19 53 52 32 36 15 40 30 -19 -20 45 -22 31 61 24 -26 27 -28 41 29 -31 62 -33 39 34 -36 57 37 51 46 -41 -42 -43 56 50 -46 -47 47 -49 -50 -51 -52 -53 -54 -55 -56 -57 -58 -59 -60 -61 -62 -63 -64
leaf_value=-0.030860941872906458 0.053037173623841992 0.0078459119054547655 -0.017858127044935883 -0.019830662250285607 -0.019335512179320016 -0.0032475209556162088 -0.0028524690008745815 -0.0096670866754790634 -0.017780548187667829 0.025139209113076853 0.005228888436338763 -0.0019493552081224432 0.0018762383108723382 0.022659415776061547 0.014248484703437782 -0.0071260771625485213 -0.014607500805529423 0.012290557172962622 0.011986547700820891 0.041922327176749603 -0.023691461503436276 -0.010235727873677058 0.0013398820271323276 0.012420294132735824 0.022001442404405352 0.0025766608319817423 0.019034667800210965 -0.0079976913252416265 -0.012906991010358346 -0.0052928425927474074 -0.0083999984709684367 -0.0054581500812817124 0.020790009678927114 0.011084444490639962 -0.010303064992573751 0.0027269078865082659 0.011696331763593712 0.018892913532189415 0.0016510494010150859 0.0079760729576045068 0.024626148116915797 -0.002527238985666618 -0.022630093283063247 -0.016938413021059313 0.039251631780097815 0.072115532515594494 0.015475791225032037 0.0053002745059104539 0.010874916995416052 0.035691213120837798 -0.012457762881996397 0.030341955966366529 0.0013492453332050061 0.00027701651955091617 -0.00053125574832505189 0.053689370472005712 -0.010841057408732474 0.0056351844646745242 -0.0060616994105826688 0.0010450297018254867 -0.013350965214532421 0.010683124342747215 -0.0040760056748929043
leaf_weight=2994.5680521428585 17.613932996988297 27211.345084413886 1289.1240819990635 105.23281100392342 6206.9185078814626 11507.497558876872 1483.8991945981979 134.62454873323441 104.29440641403198 1915.3986476659775 5779.6723294705153 9815.8986624926329 1337.8680067658424 1146.9205554574728 6716.5117816179991 51.490747973322868 1016.5880639031529 9756.5145991742611 3528.7711512297392 297.14845888316631 9674.9416753575206 7162.9309573024511 887.53200387954712 4032.2312769293785 1507.3402721881866 2639.5909877717495 6527.5817949175835 1924.9337105453014 11683.047391839325 3905.5697041898966 3047.1855463087559 11500.297986119986 536.51184216141701 371.56010736525059 9274.995804131031 12664.373114034534 1028.5370339900255 1129.8978408575058 2948.3085576593876 11197.684724330902 4217.8203334957361 17176.361103981733 326.94836687296629 9025.4252159669995 289.21515741944313 68.058230146765709 760.6994427293539 7118.8694548159838 3694.7132038623095 347.80537465214729 2924.2537480443716 456.48850980401039 5869.0944135636091 20774.042226523161 4602.9933838546276 8.2372350394725782 2314.0556263998151 7364.3962294608355 3315.8207406550646 12583.802928328514 321.30905151367188 871.69590002298355 6235.2641542851925
leaf_count=26524 110 178777 10604 850 50789 83199 10453 1016 801 10713 40154 70654 8981 6515 42177 336 8107 62415 22274 1548 82145 54477 5871 25499 8913 18769 38741 14297 91611 28474 22840 85177 3416 2576 71184 87736 6258 6681 20026 74619 24047 123550 2549 72667 1445 300 5073 47389 23443 1908 23181 2531 40973 144938 32178 41 18003 49922 25223 87614 2479 5738 45910
internal_value=-2.79131e-05 0.00646785 -0.0102096 0.0132455 -0.0198261 -0.00646723 0.00254046 0.0105464 0.0010735 0.0197304 0.00281424 -0.00416517 0.00561679 0.0154362 0.0182403 0.0184699 -0.00954026 0.00901927 0.00655812 0.02994 -0.0253874 -0.00578117 0.0124398 0.014442 0.01503 -0.00121708 0.0166085 -0.002392 -0.0107808 -0.0104187 -0.00634678 -0.00710723 0.00854036 -0.0113568 -0.00947802 0.00333767 0.0208523 0.0180727 0.00480478 0.00911759 0.0242406 -0.00307911 -0.0164375 -0.0170377 0.0269997 0.0476282 0.00502364 0.00628432 0.0121356 0.0257043 -0.015843 0.0221982 -0.000714491 0.00107623 0.00267441 -0.0140342 -0.0123063 0.00379677 -0.008916 0.000758884 -0.00983037 0.0059756 -0.00549665
internal_weight=306730 187260 119470 68699.4 33467.1 86003.1 118561 48510.9 80281.3 20188.5 45617.7 49171.5 38279.4 11543.1 17618.6 17513.4 36831.6 36967.9 14460.9 2569.82 12669.5 33486.5 7433.42 5674.2 5539.57 34663.6 13244.1 21740.9 26524.3 25235.2 10307.3 21979 16766.8 21329.6 9646.56 21512.7 4109.65 2614.92 10932.2 15428.9 4269.31 19101.3 20797.6 18156.6 2204.61 365.207 10827.9 7879.57 4231.23 1494.73 11949.7 1586.39 15685 31156.7 10382.7 1024.83 2641 20028.8 10478.8 12922.7 338.923 1759.23 9282.45
internal_count=2167409 1250501 916908 432279 275858 641050 818222 312122 559652 120157 312833 359703 258570 70930 106151 105301 281347 241192 95563 14006 108669 248076 47037 35428 34412 246819 80918 156616 204449 193845 76898 164877 110459 165371 73760 148111 23893 15470 73289 101478 24383 137847 167189 146637 12158 1848 72488 52462 26859 8423 95848 9212 111627 217270 72332 8148 20552 137658 79700 90203 2589 11609 68750
is_linear=0
shrinkage=0.03


Tree=13
num_leaves=64
num_cat=0
split_feature=5 5 5 5 5 5 0 2 5 7 5 0 5 5 7 2 5 0 0 5 5 7 7 5 5 0 5 3 2 7 3 5 5 5 7 7 0 5 2 7 5 2 5 5 0 0 5 7 7 5 5 5 2 0 2 5 5 5 0 0 0 0 3
split_gain=21274 5146.71 4618.29 1297.35 690.831 645.195 544.944 376.078 315.782 307.794 334.931 288.733 242.958 198.978 159.088 196.445 157.843 155.321 148.677 133.522 130.118 118.865 97.5001 105.205 108.161 93.0056 79.8814 72.8377 129.191 71.5686 70.0306 69.4441 66.2915 172.182 66.1233 63.7537 60.5407 56.952 55.4317 53.7875 53.7422 50.6486 50.1357 48.6182 47.5334 45.2675 58.2625 45.1507 44.4456 43.4859 42.5632 42.3147 41.8339 41.826 41.1981 40.7759 40.4694 40.4437 40.0219 38.5854 37.4266 37.2669 36.9197
threshold=0.15776611160892864 0.21870444606413997 0.095726775445322376 0.27263412816691507 0.056724360447642459 0.12896973010910937 9.5000000000000018 1.0000000180025095e-35 0.34712240474560807 92868.500000000015 0.20024877133700417 9.5000000000000018 0.19574275362318844 0.2486331368188405 13863.000000000002 1.0000000180025095e-35 0.18135124316700738 9.5000000000000018 10.500000000000002 0.44320844171416979 0.024540800963565194 97698.000000000015 43043.000000000007 0.24433218919327335 0.241896178902717 1.5000000000000002 0.31000207992172468 2.5000000000000004 1.0000000180025095e-35 71767.500000000015 2.5000000000000004 0.14581007607706942 0.1143132778466867 0.11444596249949519 71767.500000000015 71767.500000000015 9.5000000000000018 0.17302494802494806 1.0000000180025095e-35 71767.500000000015 0.07444568029325703 1.0000000180025095e-35 0.68333333333333346 0.20058960704242784 9.5000000000000018 3.5000000000000004 0.42206477732793529 92868.500000000015 43043.000000000007 0.15785169141209512 0.15785169141209512 0.25251596474730104 1.0000000180025095e-35 6.5000000000000009 6.0000000000000009 0.18106842248167257 0.24433218919327335 0.11100755928342136 2.5000000000000004 7.5000000000000009 3.5000000000000004 8.5000000000000018 2.5000000000000004
decision_type=2 2 2 2 2 2 2 2 2 2 2 2 2 2 2 2 2 2 2 2 2 2 2 2 2 2 2 2 2 2 2 2 2 2 2 2 2 2 2 2 2 2 2 2 2 2 2 2 2 2 2 2 2 2 2 2 2 2 2 2 2 2 2
left_child=2 6 4 7 20 17 9 18 14 10 30 21 35 22 -5 26 25 27 56 41 -1 -7 -9 24 61 -11 -16 28 32 54 37 53 58 -34 -14 -8 48 50 40 -17 -6 45 -21 -12 -42 46 -10 -36 -15 -27 -2 -50 -13 -23 -19 -37 -3 -31 -4 -25 -18 -24 -54
right_child=1 3 5 8 38 11 12 13 19 16 43 52 34 36 15 39 60 29 -20 42 -22 31 23 59 -26 49 -28 -29 -30 57 -32 -33 33 -35 47 55 -38 -39 -40 -41 44 -43 -44 -45 -46 -47 -48 -49 51 -51 -52 -53 62 -55 -56 -57 -58 -59 -60 -61 -62 -63 -64
leaf_value=-0.03064112470239384 0.0077855491909791536 0.0061880663858333122 -0.01590644568862367 -0.019514713628955276 -0.019021429122748516 -0.0031570516770401285 -0.0027721835584640997 -0.010743616971824346 0.026043336789133165 0.0032116047536567363 0.012763448629078852 -0.0018933738766231164 0.00063311168884802734 -0.020176058472267992 0.013664634179502115 -0.0071151762686674858 0.0021353811001285036 -0.014318735878636444 0.011613118702177011 0.03986410527273964 -0.023387757198062142 -0.010000109833564081 0.0095557208626818376 0.0014073961107237737 0.021106155216896509 -0.0078007730761205755 0.018262268677627376 -0.017549733895007174 -0.0051526582525914851 -0.0080837276545256045 -0.010941384734704972 -0.005314369033056281 0.010674017107229492 -0.0100667307758246 0.011355218953980093 0.0026403493300999588 0.025397152242738214 0.0031748473396537484 -0.012042080801597806 0.023537056279484419 -0.016632538332199819 0.014797319544619297 0.068508962101491419 0.0073988051780952101 -0.01219235453574696 0.029840897107352982 -0.00079622070546374432 0.0076192937775793812 0.022871268040653113 -0.0029660566322616926 -0.00074390192954886122 0.015091093672243967 0.0017696155439557188 -0.005904865154688653 0.050963976149674635 0.0054461761888451449 0.0084488869875862186 -0.0039066103155362989 -0.011676307902243487 0.010298289854690335 3.3206148999474461e-05 0.014896601025702973 -0.010963215196275593
leaf_weight=2926.6006544232368 565.04416497051716 13073.195099696517 2621.8820135742426 103.75586830824614 6121.4350999221206 11482.534649774432 1481.1200737655163 167.6375494748354 230.58824464678764 2064.1920902132988 2175.5739067941904 9803.1480625271797 994.60020740330219 27.468749508261681 7091.511865735054 51.561259329319 11443.432997584343 1006.142903752625 10390.955837637186 303.03815442323685 9509.0874513760209 7112.5305411815643 2679.3987348973751 885.74237930774689 1524.2561824172735 1914.4878400266171 6598.459076449275 1272.6803831085563 3891.6928756386042 3197.5885476619005 401.69053836166859 11457.760781213641 374.24135895073414 9208.9810791760683 4013.6189359128475 12686.825014919043 1276.9925471693277 10507.965299338102 2618.4118999019265 4350.2951806634665 8917.3204417303205 324.94834230840206 69.484754964709282 5118.8455239981413 2898.6716681048274 1574.1714694648981 105.34472973644733 10770.776797354221 986.32245334982872 13521.173178568482 7663.5510754585266 1789.6879372745752 5662.0689419060946 3301.9933919012547 8.4303824007511121 7390.9751680642366 15805.75696156919 6050.244104847312 8955.8594947904348 876.7888622879982 22852.649367362261 2123.6325393021107 212.19530834257603
leaf_count=26524 3891 86827 20786 850 50789 83199 10453 1256 1328 14713 13487 70654 6668 178 44223 338 79766 8107 66171 1548 82145 54477 16906 5854 8901 14297 38741 10604 28474 24087 3098 85177 2576 71184 25304 87736 7084 71540 20552 24486 72667 1900 300 33217 23181 8291 639 71409 5511 97659 53906 10679 39316 25223 41 49922 102477 44663 70825 5733 159916 13298 1657
internal_value=-2.82745e-05 0.00624907 -0.00997678 0.0125202 -0.0195133 -0.00630197 0.00231963 0.00997025 0.0188454 0.000896255 0.00353045 -0.004052 0.00530153 0.0145403 0.0174444 0.0176572 -0.000447877 -0.00931691 0.00853411 0.0286155 -0.0250962 -0.00563032 0.0118586 0.0123285 0.0141351 -0.00276637 0.0158817 -0.0105378 -0.0101811 -0.00618385 0.001445 -0.00692826 -0.0111053 -0.00925552 0.00813058 0.00323044 0.0199635 0.0017112 -0.016135 0.0231755 -0.0167318 0.0258279 0.045282 0.00900051 -0.0155444 0.0276971 0.0176068 0.00863433 0.0174828 -0.00356643 -0.000156842 0.0178608 -0.000693405 -0.00870276 -0.0137525 0.00367374 0.00742582 -0.00535211 -0.0126354 0.00583637 0.000734905 0.0119198 0.0013076
