tree
version=v4
num_class=1
num_tree_per_iteration=1
label_index=0
max_feature_idx=10
objective=binary sigmoid:1
feature_names=hour_of_day day_of_week banner_pos device_type device_model_hash device_model_ctr device_type_ctr banner_x_device_hash site_id_count app_id_count hour_avg_click
feature_infos=[0:15] none [0:7] [0:5] [8:999475] [0:1] [0.081516201345017317:0.23304397179634576] [12409:99412] [1:1040959] [1:1959041] [0.14884460694698354:0.20195143055571368]
tree_sizes=6932 7122 7144 7163 7144 7166 7158 7155 7158 7158 7147 7162 7158 7176 7184 7207 7194 7198 7181 7172 7168 7178 7204 7174 7182 7187 7185 7213 7189 7193 7179 7209 7205 7211 7197 7210 7186 7210 7208 7215 7203 7206 7182 7186 7188 7211 7228 7203 7206 7232 7228 7198 7186 7217 7202 7216 7191 7214 7233 7209 7181 7184 7219 7193 7154 7234 7176 7216 7214 7194 7208 7205 7173 7215 7146 7232 7225 7207 7217 7230 7230 7181 7244 7190 7183 7201 7206 7139 7210 7225 7207 7214 7208 7237 7218 7211 7132 7227 7236 7201 7228 7218 7203 7224 7145 7177 7172 7182 7172 7202 7260 7184 7242 7165 7174 7196 7151 7202 7191 7180 7187 7176 7174 7177 7167 7245 7155 7201 7214 7227 7226 7192 7179 7157 7130 7176 7164 7180 7162 7222 7217 7152 7165 7102 7160 7147 7181 7196 7139 7222 7104 7189 7152 7158 7182 7144 7194 7194 7121 7120 7176 7180 7193 7201 7208 7256 7163 7245 7132 7131 7112 7138 7192 7143 7149 7178 7153 7131 7105 7208 7159 7159 7107 7006 7129 7100 7126 7200 7140 7130 7130 7188 7149 7197 7152 7202 7120 7175 7163 7103 7117 7129 7206 7134 7132 7140 7118 7211 7206 7191 7136 7002 7164 7131 7185 7118 7183 7196 7188 7148 7100 7094 7041 7030 7029 7026 7113 6954 7082 7132 7137 7089 7176 7162 7150 7175 7129 7162 7147 7150 7156 7110 7054 7105 7052 7000 7218 7156 7201 7123 7190 7100 7052 7160 7097 7150 7125 7141 7130 7113 7111 7068 7049 7073 7204 7182 7160 7156 7088 7068 7170 7174 7120 7089 7132 7089 7046 7082 7092 7116 7160 7059 7113 7150 7148 7051 6993 7067 7136 7170 7184 7135 7106 7109 7164 7035 7032 7068 7081 7057 7118 7135 7115 7050 7229 7125

Tree=0
num_leaves=64
num_cat=0
split_feature=5 5 5 8 8 9 9 8 8 8 8 8 5 8 5 2 8 5 9 9 8 8 8 8 8 8 0 8 5 5 2 5 5 5 9 9 2 8 8 9 3 3 9 3 8 8 8 2 8 8 8 8 0 3 0 8 8 8 8 8 5 8 8
split_gain=42892.3 9897.87 8834.77 5694.15 17127.3 4904.87 3936.82 9153.73 12389.8 3449.15 9517.95 3995.6 2824.38 2119.3 1449.26 1213.62 1094.25 1039.71 1004.92 950.071 914.921 2195.57 935.211 1510.94 902.616 1329.62 837.663 738.718 719.628 687.894 667.604 661.204 590.951 759.095 529.94 531.161 521.05 1276.06 484.086 472.63 486.151 460.339 441.969 440.7 1038.11 446.089 1923.93 818.021 934.425 2011.12 442.387 424.832 413.673 404.956 373.014 369.644 359.477 1131.3 1178.01 653.467 350.337 380.951 346.322
threshold=0.17556565626207651 0.10864971588840777 0.23647370063643106 57834.000000000007 131852.50000000003 36268.000000000007 15714.000000000002 57834.000000000007 131852.50000000003 351250.50000000006 57834.000000000007 131852.50000000003 0.31000207992172468 351250.50000000006 0.065105791760370194 1.0000000180025095e-35 88355.000000000015 0.33452380952380956 16272.000000000002 36268.000000000007 43116.500000000007 31737.500000000004 17565.000000000004 25539.000000000004 6210.5000000000009 12353.000000000002 8.5000000000000018 88355.000000000015 0.36818343827967215 0.14976418667762861 1.0000000180025095e-35 0.44320844171416979 0.14988287150914073 0.14581007607706942 15714.000000000002 16272.000000000002 1.0000000180025095e-35 88355.000000000015 799124.50000000012 36268.000000000007 1.0000000180025095e-35 1.0000000180025095e-35 76807.500000000015 1.0000000180025095e-35 4138.5000000000009 10736.500000000002 11410.500000000002 1.0000000180025095e-35 43116.500000000007 31737.500000000004 22398.500000000004 4912.0000000000009 3.5000000000000004 1.0000000180025095e-35 8.5000000000000018 4268.0000000000009 15874.500000000002 799124.50000000012 57834.000000000007 131852.50000000003 0.14581007607706942 799124.50000000012 4138.5000000000009
decision_type=2 2 2 2 2 2 2 2 2 2 2 2 2 2 2 2 2 2 2 2 2 2 2 2 2 2 2 2 2 2 2 2 2 2 2 2 2 2 2 2 2 2 2 2 2 2 2 2 2 2 2 2 2 2 2 2 2 2 2 2 2 2 2
left_child=1 14 3 43 36 26 -3 20 16 10 12 15 -4 -10 -1 27 -9 39 -15 -20 21 22 55 -24 31 28 53 -12 -26 60 -18 -14 33 -32 41 -36 37 -5 -7 40 -11 -28 -40 44 -2 -45 -47 -48 49 50 -49 -46 -30 -6 -42 62 -16 58 -58 -60 61 -21 -8
right_child=2 6 9 4 5 38 7 8 13 17 11 -13 24 18 56 -17 30 -19 19 29 -22 -23 23 -25 25 -27 34 -29 52 -31 32 -33 -34 -35 35 -37 -38 -39 42 -41 54 -43 -44 45 51 46 47 48 -50 -51 -52 -53 -54 -55 -56 -57 57 -59 59 -61 -62 -63 -64
leaf_value=-1.6047865310557468 -1.5768365934189019 -1.5937150196514414 -1.5702435638657704 -1.5065968429417849 -1.5591301876052317 -1.5612750381176212 -1.5881240967227244 -1.502563618070671 -1.5587181045342711 -1.5556390669891302 -1.5172727147186686 -1.5523651675786683 -1.5669618586409588 -1.5450894497630325 -1.6007428189656421 -1.5024244697952902 -1.5588913303096792 -1.5282216607943004 -1.5900613911285826 -1.5669766560632963 -1.5987231983450689 -1.5581220297403515 -1.5714774079594105 -1.5965700732488184 -1.5308376684003084 -1.5793028050953619 -1.5556848989060774 -1.545380845557627 -1.5599922646954023 -1.5705801807545812 -1.509957625332857 -1.4808792453501436 -1.5104040151707747 -1.556662692764045 -1.5360990201961631 -1.5721833624401598 -1.503934646183126 -1.5496837723702681 -1.5620993020705916 -1.5617841490563882 -1.5841421226197412 -1.5848250721277204 -1.578559851534675 -1.5854946497400353 -1.5013376921597825 -1.5237524169799159 -1.5903932375348429 -1.5814029864996086 -1.588055236527109 -1.5268905992265052 -1.5625377066247426 -1.5561810002513206 -1.4783044777942891 -1.5913646283934642 -1.5668108753028409 -1.5945478730865312 -1.5950137219119247 -1.5952364054400847 -1.529078458297076 -1.5707126098845645 -1.5845017738948237 -1.5805740296224782 -1.5102275228419473
leaf_weight=18383.148311004043 4214.3449445813894 22143.012030795217 11873.552572727203 1642.9716209322214 365.08903883397579 23048.569063767791 14523.108585998416 1485.8967798948288 5922.1613734215498 1351.3828238844872 2606.136951521039 3735.0325570255518 1252.4838498979807 806.94184370338917 6530.0282379239798 3786.1138061434031 733.29970955848694 757.27951817214489 5744.512140378356 2825.7863227277994 6995.1513896137476 2242.0411591976881 6066.8915792554617 3352.9164351522923 1804.0194480121136 435.89332580566406 553.52209113538265 1247.0919402688742 64.986700266599655 10435.61541005969 491.65702275931835 85.561092272400856 1143.2267337292433 865.40149547159672 503.57598088681698 1356.0652717202902 2640.1911175996065 994.38164949417114 2742.353615835309 21285.556507408619 2425.5079789459705 4093.1688702851534 3156.9630878418684 14591.07502579689 229.29805159568787 563.7383409589529 4747.0088589936495 3500.2007034420967 3252.3147528618574 905.27324825525284 1643.6810827255249 286.90634921193123 412.7648713439703 8652.4541387706995 2072.054113522172 15110.826735571027 1781.742347702384 24902.818406745791 440.57577364146709 1476.1062071472406 8844.5763923972845 5392.0515214651823 51.223141476511955
leaf_count=129557 29701 156055 83680 11579 2573 162437 102353 10472 41737 9524 18367 26323 8827 5687 46021 26683 5168 5337 40485 19915 49299 15801 42757 23630 12714 3072 3901 8789 458 73546 3465 603 8057 6099 3549 9557 18607 7008 19327 150012 17094 28847 22249 102832 1616 3973 33455 24668 22921 6380 11584 2022 2909 60979 14603 106495 12557 175505 3105 10403 62333 38001 361
internal_value=-1.57713 -1.5873 -1.56479 -1.57093 -1.56447 -1.57053 -1.58235 -1.57964 -1.56985 -1.55547 -1.54789 -1.52693 -1.56286 -1.57528 -1.59796 -1.5145 -1.52389 -1.56289 -1.57816 -1.57897 -1.58869 -1.58699 -1.58865 -1.58041 -1.54125 -1.53131 -1.58414 -1.52636 -1.52214 -1.57665 -1.53369 -1.56143 -1.52631 -1.53972 -1.57594 -1.5624 -1.51337 -1.52283 -1.56324 -1.56386 -1.57142 -1.58135 -1.57091 -1.58041 -1.57191 -1.58178 -1.57808 -1.58026 -1.57509 -1.56812 -1.57538 -1.53177 -1.48938 -1.59006 -1.57616 -1.59126 -1.59439 -1.59294 -1.57745 -1.56113 -1.58036 -1.5759 -1.58785
internal_weight=307569 168691 138879 83683.1 49749.3 44471.8 115176 93033.3 44691.1 55195.4 27303.6 11374.4 15929.3 39971.6 53514.4 7639.34 4719.48 27891.8 34049.5 33242.5 48342.2 41347 39105 9419.81 4055.71 2717.66 15523.9 3853.23 2281.77 27498 3233.58 1338.04 2500.29 1357.06 6506.33 1859.64 5277.54 2637.35 28947.9 27134.5 5848.94 4646.69 5899.32 33933.8 4730.55 29203.3 14612.2 14048.5 9301.47 6049.16 5143.88 516.204 477.752 9017.54 4497.56 29685.2 35131.3 28601.2 3698.42 1916.68 17062.4 8217.84 14574.3
internal_count=2167624 1188864 978760 589765 350613 313419 811716 655661 314965 388995 192425 80162 112263 281704 377148 53839 33261 196570 239967 234280 340696 291397 275596 66387 28583 19153 109406 27156 16081 193795 22789 9430 17621 9564 45854 13106 37194 18587 204013 191233 41221 32748 41576 239152 33339 205813 102981 99008 65553 42632 36252 3638 3367 63552 31697 209209 247591 201570 26065 13508 120249 57916 102714
is_linear=0
shrinkage=1


Tree=1
num_leaves=64
num_cat=0
split_feature=9 8 8 3 8 3 4 8 9 4 2 8 8 8 10 4 8 8 8 8 8 8 8 8 8 8 8 8 8 8 8 9 9 9 9 8 8 8 8 4 10 9 8 0 9 2 8 8 9 9 8 8 8 0 8 8 8 8 9 9 9 9 9
split_gain=25611.6 36901.9 36514.4 4119.58 4914.62 3776.8 2940.89 2619.21 1293.09 1213.87 1483.35 2850.56 1195.91 4913.68 1143.62 1078.81 966.726 5196.54 3249.86 2830 5087.95 1610.17 1451.1 1683.34 765.67 1127.52 710.36 9290.72 989.657 3311.56 664.95 648.436 1947.77 553.867 2962.56 525.822 490.863 372.523 382.574 352.113 350.314 338.876 324.008 277.376 292.289 251.468 240.419 237.884 223.435 436.743 223.42 298.165 668.885 195.712 255.754 187.922 180.203 176.554 167.891 638.299 347.97 413.425 281.603
threshold=49374.500000000007 57834.000000000007 131852.50000000003 1.0000000180025095e-35 4138.5000000000009 1.0000000180025095e-35 37690.000000000007 799124.50000000012 76807.500000000015 29273.500000000004 1.0000000180025095e-35 88355.000000000015 43116.500000000007 31737.500000000004 0.18943643900012166 29273.500000000004 10736.500000000002 11410.500000000002 15874.500000000002 11187.500000000002 10967.500000000002 25539.000000000004 22398.500000000004 19685.500000000004 17565.000000000004 16697.000000000004 6251.0000000000009 6210.5000000000009 4015.5000000000005 3907.5000000000005 351250.50000000006 15714.000000000002 16272.000000000002 36268.000000000007 42545.000000000007 88355.000000000015 55454.000000000007 6527.5000000000009 6639.0000000000009 538725.00000000012 0.16977175171376738 74.500000000000014 4912.0000000000009 8.5000000000000018 2192.5000000000005 6.0000000000000009 681.50000000000011 351250.50000000006 42545.000000000007 28712.000000000004 6774.0000000000009 8791.5000000000018 7988.5000000000009 3.5000000000000004 11816.000000000002 6018.5000000000009 28377.500000000004 3972.5000000000005 17770.000000000004 17365.500000000004 15714.000000000002 16272.000000000002 16848.500000000004
decision_type=2 2 2 2 2 2 2 2 2 2 2 2 2 2 2 2 2 2 2 2 2 2 2 2 2 2 2 2 2 2 2 2 2 2 2 2 2 2 2 2 2 2 2 2 2 2 2 2 2 2 2 2 2 2 2 2 2 2 2 2 2 2 2
left_child=5 3 9 4 46 -1 47 30 -9 35 11 -11 13 16 33 -15 26 19 -19 20 -18 22 23 24 25 -20 27 28 29 -5 -8 45 -33 41 -35 -3 -14 -28 -39 42 -10 -7 -6 -43 -45 -16 -2 -4 49 -34 -40 52 -52 -41 -55 -30 -23 -48 59 60 -46 -62 -63
right_child=1 2 6 12 39 14 7 8 40 10 -12 -13 36 15 31 -17 17 18 21 -21 -22 56 -24 -25 -26 -27 37 -29 55 -31 -32 32 48 34 -36 -37 -38 38 50 53 -42 43 -44 44 58 -47 57 -49 -50 -51 51 -53 -54 54 -56 -57 -58 -59 -60 -61 61 62 -64
leaf_value=0.019878763242316775 -0.00314416126274234 0.0786624051575847 0.010308864671513493 -0.0099531393777485943 0.071376012472683256 -0.00638519989306373 0.020246838681765491 0.012679234790355721 -0.010790166579831619 0.061056100335547606 0.066910271187291676 0.024713745892411605 -0.024279505237439096 -0.00013787330150537565 -0.011883303293287463 0.03807405084792783 0.0546974872080681 -0.02989925191499131 0.012812414412499451 0.067573196771419722 -0.034861012185746318 -0.02412448457441576 0.013700577221416666 -0.021019548491601685 0.0086721035509133831 -0.017090676652254368 -0.029467999684134775 0.10396416548329485 -0.018164379921405363 0.076384108886096022 0.012900944899412625 0.03348680474394021 -0.014599824091264009 0.012884307759452691 -0.025969780646943347 0.020481045452683144 -0.011735087943618387 0.0065161515674696021 -0.033262697221861863 0.029833804500086811 0.00047335526576270423 -0.018589438122114506 0.035102739454242582 -0.021291106768964077 -0.012675065603181913 0.10493356029989012 0.0094253619970861308 -0.0074579397980213792 -0.024149687617359687 0.0082498152871917155 -0.01792594535038243 -0.020847473249741368 0.0047511034056246914 0.0534594310936801 0.091395520722961629 -0.029077544330032873 -0.013481405470540409 -0.011523619903454853 -0.0058341771902288547 -0.030640131820417856 0.030107683850237536 -0.026962049126845349 0.014815132142002167
leaf_weight=2957.3745803683996 5575.4279300570488 159.69937194883823 736.56716957688332 27044.610322490335 272.74364601075649 2626.0254012942314 14307.27154712379 5326.2724541574717 5411.4370020478964 6094.2328413426876 8637.7601794451475 2853.4911581426859 5424.4456719309092 904.91718566417694 8836.1160482168198 2502.3273908942938 1153.1034622341394 5450.1578944921494 1692.9397736936808 1180.9472368955612 1130.1138990372419 2654.722580358386 4947.8544799387455 4253.302385956049 5815.4240729063749 3439.6619435548782 1953.700130417943 639.88735656440258 5904.5828320086002 405.51391915977001 49438.505115032196 1299.0721013396978 1898.2897868603468 3263.7899490892887 3847.9987359642982 1120.8753310889006 5829.6144424378872 680.05858844518661 684.77851144969463 110.31886412203312 4592.6635225713253 46444.910238295794 1204.553087323904 3919.9215525239706 7275.5778754204512 16.303727895021439 3040.3632931262255 8476.839427486062 712.52136068046093 1246.7681144326925 3647.0666949003935 4977.0782012939453 1722.9695651233196 309.88957472145557 338.69974136352539 1876.8124368339777 3125.2723390161991 410.38969086110592 3093.8323730826378 1690.4196956008673 394.09710547327995 346.70666022598743 249.16329275071621
leaf_count=20591 39307 1074 5130 191813 1860 18718 99626 37409 38152 41172 58113 19744 38672 6298 62867 17306 7990 38836 12002 8194 8051 18910 34693 30098 41036 24428 13875 4489 42019 2855 345340 8985 13497 23053 27446 7793 41521 4785 4880 765 32350 331033 8285 27928 51736 116 21430 60017 5081 8800 25926 35397 12214 2141 2240 13360 22254 2895 21940 12133 2726 2470 1759
internal_value=-1.24194e-05 0.00556044 0.0180989 -0.00662006 0.0105722 -0.01346 0.0100034 0.0118724 0.000738221 0.055983 0.0580372 0.0494685 -0.00857516 -0.00739462 -0.0145913 0.0279237 -0.00882096 -0.0049917 -0.00884141 0.0298752 0.0103664 -0.00441454 -0.000409959 -0.00500354 0.00121825 -0.0072255 -0.0115142 -0.00929612 -0.0113543 -0.00867655 0.0145499 -0.0067375 0.00171757 -0.0160952 -0.00813754 0.0277605 -0.0177828 -0.0173354 -0.01531 0.0503841 -0.00561857 -0.016952 0.0418189 -0.0173894 -0.0141041 -0.0116636 0.000706558 -0.0060363 -0.00898043 -0.00553895 -0.0166565 -0.0155557 -0.0106485 0.0670222 0.073317 -0.0207987 -0.0183723 0.00693056 -0.0119442 -0.0138417 -0.0104041 0.00627528 -0.00947914
internal_weight=307579 217460 107156 110304 11262.4 90118.9 88289.6 79076.1 15330.4 18866.1 17585.5 8947.72 99041.9 87787.8 87161.5 3407.24 84380.6 34843.5 31379.3 3464.16 2283.22 25929.2 20149.2 15201.3 10948 5132.6 49537.1 35871.4 35231.5 27450.1 63745.8 14009.1 5156.65 73152.4 7111.79 1280.57 11254.1 13665.7 11712 2236.2 10004.1 66040.7 1477.3 63414.6 16969.7 8852.42 9026.18 9213.41 3857.58 3145.06 11031.9 10347.1 5370.04 758.908 648.589 7781.4 5779.99 3450.75 13049.8 9955.96 8265.54 989.967 595.87
internal_count=2167624 1526745 745920 780825 78923 640879 618024 552877 107911 127896 119029 60916 701902 621709 620288 23604 598105 246492 222257 24235 16041 183421 142257 107564 77466 36430 351613 254536 250047 194668 444966 99346 36363 520942 50499 8867 80193 97077 83202 15291 70502 470443 10145 451725 120692 62983 63632 65147 27378 22297 78417 73537 38140 5146 4381 55379 41164 24325 92764 70824 58691 6955 4229
is_linear=0
shrinkage=0.03


Tree=2
num_leaves=64
num_cat=0
split_feature=5 8 8 5 5 9 9 8 8 3 8 5 5 2 8 0 4 5 8 9 8 8 2 8 8 5 8 4 2 8 8 9 5 8 8 8 8 3 8 4 8 8 8 8 3 8 0 9 9 8 5 8 8 8 8 8 5 8 9 8 8 0 3
split_gain=38582.4 8935.05 28962.7 8267.26 5101.66 4724.56 3265.96 7841.29 7837.32 1942.34 1545.43 1505.26 1198.14 1154.54 1479.86 1152.26 875.513 810.136 800.181 767.302 723.332 1829.78 1405.3 686.419 851.559 648.218 617.123 603.06 785.958 584.5 488.845 549.332 452.555 385.691 1930.26 372.613 535.027 372.029 658.254 369.26 358.693 777.34 1452.92 688.358 963.9 392.849 346.619 693.027 428.346 333.411 332.217 327.916 319.131 932.641 994.042 492.983 306.863 302.666 283.092 280.435 350.108 272.006 266.831
threshold=0.17079972463801632 57834.000000000007 131852.50000000003 0.10545361875637106 0.29883357502252111 36268.000000000007 36268.000000000007 57834.000000000007 131852.50000000003 1.0000000180025095e-35 351250.50000000006 0.21470611891080352 0.056724360447642459 1.0000000180025095e-35 88355.000000000015 9.5000000000000018 94851.500000000015 0.36818343827967215 88355.000000000015 13372.000000000002 43116.500000000007 17565.000000000004 1.0000000180025095e-35 6210.5000000000009 12353.000000000002 0.33050177718514273 19685.500000000004 170546.00000000003 1.0000000180025095e-35 351250.50000000006 799124.50000000012 76807.500000000015 0.28998106060606066 43116.500000000007 31737.500000000004 22398.500000000004 20817.500000000004 1.0000000180025095e-35 4138.5000000000009 52047.500000000007 3907.5000000000005 6251.0000000000009 6210.5000000000009 3972.5000000000005 1.0000000180025095e-35 4138.5000000000009 9.5000000000000018 15714.000000000002 16272.000000000002 2107.0000000000005 0.10864971588840777 6527.5000000000009 15874.500000000002 799124.50000000012 57834.000000000007 131852.50000000003 0.1873505117780358 4268.0000000000009 76807.500000000015 6251.0000000000009 10736.500000000002 10.500000000000002 1.0000000180025095e-35
decision_type=2 2 2 2 2 2 2 2 2 2 2 2 2 2 2 2 2 2 2 2 2 2 2 2 2 2 2 2 2 2 2 2 2 2 2 2 2 2 2 2 2 2 2 2 2 2 2 2 2 2 2 2 2 2 2 2 2 2 2 2 2 2 2
left_child=3 4 13 12 11 9 46 20 18 -4 -10 33 -1 14 -3 25 -12 23 -9 -17 21 57 26 -6 59 -11 -23 -20 -29 -7 -18 50 56 34 37 36 -24 38 -2 -37 62 42 43 -42 45 -45 -5 -48 -49 -19 -32 -43 -14 54 -54 -56 -31 -8 -34 -25 -61 -39 -13
right_child=1 2 5 6 17 29 7 8 10 15 16 40 52 -15 -16 19 30 49 27 -21 -22 22 35 24 -26 -27 -28 28 -30 32 31 -33 58 -35 -36 39 -38 61 -40 -41 41 51 -44 44 -46 -47 47 48 -50 -51 -52 -53 53 -55 55 -57 -58 -59 -60 60 -62 -63 -64
leaf_value=-0.028023672744298282 -0.00097929938884965635 0.055959853785877922 0.021927515117470868 -0.016697793996949681 0.0044843346072586839 0.020667912097089944 -0.010766160816068578 0.064090058327382918 0.017398789180908949 -0.010969637101757043 -0.0082011202376038855 0.0068900411708724234 -0.023764832208559655 0.063345154189279843 0.027079239715459426 -0.0040321970441084213 0.0082862828995076913 0.028148634836045447 0.019741527784410975 0.015588147156799431 -0.021144426989181793 0.0044227900016551866 0.013103005143755807 0.10996817091698501 -0.0030401458302006545 0.037359849457881233 -0.01916281458405102 0.011684870755837511 0.05807179357891433 0.0056993985566065764 -0.013811300667364912 -0.010715985358213304 0.062127596976659677 -0.014217996568371903 0.034390373537312641 0.0039589891041529844 -0.022175972819473755 -0.0085201501735550945 0.040629209606780431 0.022086559560831671 0.07093650375003567 -0.026685922845752406 0.092183386705755641 -0.008475413423665 -0.014410425409270684 0.050818424921823327 -0.014040776920847865 0.02528338062282498 -0.0044440299911056511 0.064993049828225874 0.0089248804162714388 0.0066978089822254836 -0.018029694002168507 -0.018581238842601641 0.040848560785803775 0.0045237866752428808 0.012704336895362994 -0.017198627233193431 0.020926153323242481 0.00041503718243824386 0.043566034304180254 -0.0011655091904334233 -0.0049949813146919382
leaf_weight=14963.144481688738 3377.0771941840649 4871.04798412323 2709.2541529089212 20419.387495130301 1102.8867513239384 9404.050848916173 12936.111206158996 1382.3740873485804 5129.6693901866674 13705.709478482604 8961.0417115241289 3208.2034574151039 6432.5673043429852 7399.8922057896852 2379.1000703573227 4058.4499493986368 8793.4833296835423 316.50431060791016 1179.5189304947853 3213.8041686713696 5906.8784465938807 1465.5671810358763 908.44720697402954 52.139112666249275 480.54651953279972 254.03850184381008 3127.8210416585207 429.58152955770493 1409.7690011113882 6572.7127442210913 689.56541383266449 3562.5076127499342 156.94160370528698 3830.9877771139145 1127.9432681947947 1643.6748084425926 673.33484746515751 20108.356487646699 380.43363352119923 2634.7769093513489 180.56190909445286 274.27590218186378 266.05416092276573 129.3569605499506 730.01379528641701 446.48089690506458 6570.6034636646509 697.35330152511597 1163.0475667715073 746.09645168483257 3573.1153341680765 7382.4594973027706 1816.848662301898 22598.253882184625 441.77368780970573 1408.2997770309448 39410.043192327023 13436.598601281643 3466.9165771454573 187.23581920564175 1801.5877416580915 5844.24428576231 3615.704315379262
leaf_count=108639 23804 31679 18573 147130 7750 64574 92355 8928 35284 98444 63794 22524 46611 47685 16186 28924 61164 2198 8076 22426 42736 10234 6343 337 3405 1759 22569 2943 9131 45721 4956 25232 1070 27563 7550 11440 4795 143330 2521 18148 1207 1965 1750 915 5207 3000 47216 4719 8304 4840 24996 51840 13056 162902 2918 9792 273166 96855 24017 1294 11980 41553 25601
internal_value=-1.73585e-05 0.0106487 0.0161165 -0.010603 0.00104813 0.00924851 -0.00596249 -0.00276697 0.00773713 -0.00199151 0.0023708 -0.00170957 -0.020991 0.0550033 0.0464856 -0.00504433 -0.000642685 0.0309976 0.0451756 0.00463761 -0.0113976 -0.00983381 0.000786852 0.0242362 0.0328703 -0.0100887 -0.0116358 0.036506 0.0472467 0.0138088 0.00343247 -0.00202091 0.0125083 -0.00523981 -0.00412404 0.0105257 -0.00191026 -0.00558687 0.00323392 0.0151253 0.00582938 0.00962706 0.0276504 0.0160773 0.00847043 0.0374855 -0.0145842 -0.00946372 0.00669645 0.0540381 0.00524407 0.00549978 -0.0177722 -0.016304 -0.00226721 0.0132078 0.0117033 -0.0140439 0.022718 0.0413291 0.0395088 -0.00686434 0.000591402
internal_weight=307546 153191 97602 154355 55589.2 82951.9 106694 77843.8 35110.6 23941.3 30709.4 50902.2 47660.9 14650 7250.15 21232 25579.7 4687 4401.24 7272.25 42733.2 36826.3 10453.6 3624.4 2521.51 13959.7 4593.39 3018.87 1839.35 59010.7 16618.7 7825.19 49606.6 34669 30838.1 5860.23 1581.78 29710.1 3757.51 4278.45 16233.1 9409.2 1752.47 1486.41 1305.85 575.838 28850.4 8431 1860.4 1062.6 4262.68 7656.74 32697.7 26265.2 3666.92 1850.07 45982.8 26372.7 3623.86 2040.96 1988.82 25952.6 6823.91
internal_count=2167624 1066358 674224 1101266 392134 578674 757348 549979 244504 170126 215426 360330 343918 95550 47865 151553 180142 31804 29078 51350 305475 262739 73529 24766 17016 100203 32803 20150 12074 408548 116348 55184 343974 246321 218758 40726 11138 211208 26325 29588 114009 65884 12079 10329 9122 3915 207369 60239 13023 7038 29952 53805 235279 188668 25766 12710 318887 189210 25087 13611 13274 184883 48125
is_linear=0
shrinkage=0.03


Tree=3
num_leaves=64
num_cat=0
split_feature=5 8 8 5 5 8 8 8 8 5 4 5 0 2 8 5 5 8 8 8 8 8 8 8 8 8 5 3 8 8 8 4 2 4 8 8 3 8 8 8 0 8 8 2 8 8 8 8 8 8 8 8 8 3 8 8 8 8 8 5 8 2 8
split_gain=36468.5 10261.1 27579.9 6975.67 5041.72 4642.59 2118.69 7535.46 5193.1 1701.34 1653.47 1577.02 1437.72 1020.26 1364.56 822.761 744.302 688.668 587.454 753.516 551.758 1339.91 696.184 622.405 578.652 1492.56 538.939 528.91 515.066 2246.13 513.645 478.709 648.32 450.254 439.714 421.82 404.046 706.472 378.025 475.998 363.43 336.712 1833.67 719.219 500.35 381.035 722.281 325.137 638.979 313.907 743.665 1255.32 598.391 855.432 375.811 307.152 573.421 1043.08 360.938 304.887 285.592 281.335 269.385
threshold=0.16504544797628437 57834.000000000007 131852.50000000003 0.097180339906183619 0.29883357502252111 799124.50000000012 799124.50000000012 57834.000000000007 131852.50000000003 0.33452380952380956 94851.500000000015 0.2128048040741862 8.5000000000000018 1.0000000180025095e-35 88355.000000000015 0.058578431372549027 0.36818343827967215 88355.000000000015 6210.5000000000009 12353.000000000002 15874.500000000002 43116.500000000007 31737.500000000004 25539.000000000004 11410.500000000002 11187.500000000002 0.21678289827500735 1.0000000180025095e-35 43116.500000000007 31737.500000000004 22398.500000000004 170546.00000000003 1.0000000180025095e-35 37690.000000000007 351250.50000000006 19685.500000000004 1.0000000180025095e-35 4138.5000000000009 17565.000000000004 16697.000000000004 7.5000000000000009 10736.500000000002 11410.500000000002 1.0000000180025095e-35 22398.500000000004 4015.5000000000005 3907.5000000000005 19685.500000000004 17565.000000000004 3907.5000000000005 6251.0000000000009 6210.5000000000009 3972.5000000000005 1.0000000180025095e-35 4138.5000000000009 7537.5000000000009 11410.500000000002 10736.500000000002 15874.500000000002 0.18650749194790647 2772.5000000000005 1.0000000180025095e-35 13534.000000000002
decision_type=2 2 2 2 2 2 2 2 2 2 2 2 2 2 2 2 2 2 2 2 2 2 2 2 2 2 2 2 2 2 2 2 2 2 2 2 2 2 2 2 2 2 2 2 2 2 2 2 2 2 2 2 2 2 2 2 2 2 2 2 2 2 2
left_child=3 4 13 15 11 34 7 20 17 12 -10 28 27 14 -3 -1 18 -9 -6 -20 24 22 23 30 25 -5 -14 -7 29 36 35 -19 -33 -24 -4 38 37 -2 39 -22 -8 45 -43 47 62 46 -38 48 -44 -13 51 52 -51 54 -54 -52 57 -57 -58 -36 -18 -12 -45
right_child=1 2 5 6 16 9 40 8 10 -11 61 49 26 -15 -16 -17 60 31 19 -21 21 -23 33 -25 -26 -27 -28 -29 -30 -31 -32 32 -34 -35 59 -37 41 -39 -40 -41 -42 42 43 44 -46 -47 -48 -49 -50 50 55 -53 53 -55 -56 56 58 -59 -60 -61 -62 -63 -64
leaf_value=-0.027542919519711096 -0.0013552883195027529 0.052463257780216474 0.019865525908732078 -0.014418158730300454 0.0047290526880471384 0.016673952184531896 -0.014912868818310469 0.059543154042800105 -0.006346548108751327 0.04373357148375303 0.0075521663009610876 0.00028777102726712994 0.0022714781313598787 0.059008027435565262 0.025546622176919109 -0.018610400189078415 0.028757215955528808 0.018635193495871109 0.038702588662050778 -0.0031066336982950478 0.01282509169216709 -0.020783204791009667 -0.00063781562206905763 -0.018484200036227898 -0.029985435546319508 0.072459991187530742 0.014160772202454323 -0.0070982589792949208 -0.015245089996939527 0.033502676650052896 0.012066127203671376 0.0091047437373363242 0.05546460548755712 0.028834541024649857 0.0073059593187867651 -0.023725457072017158 -0.0068144661390738106 0.03990089242349322 0.0071671124175810962 -0.020295012597437188 -0.0091335808958839578 0.046158853373357414 -0.023690234619559668 -0.031749359961384831 0.013865381382043695 -0.014674221837996217 0.072377336699802911 -0.019655416967796588 0.0074688507702650574 0.064977027199467755 -0.011725982639505252 0.083799863967597601 -0.0087240530948723468 -0.013592391810575291 0.047765877608116555 0.00068246701572126063 -0.024781326266625655 0.05008609998927939 0.0044223548155856744 0.014081650150770373 0.061716064351866419 0.017658102292264392 -0.0024926957643854582
leaf_weight=15344.28297445178 3642.4522542506456 5260.1724992841482 10261.826018095016 18272.441876962781 1105.7767822593451 881.41275644302368 23436.200466319919 1252.845077469945 8682.7550554424524 795.00640958547592 6704.8603022247553 7017.8965089768171 10463.748790234327 8117.2951318323612 2504.8033013045788 23526.524900197983 349.66186587512493 1215.5384121388197 2080.6288531422615 476.33703023195267 537.90287330746651 5033.8734311908484 903.57476116716862 2453.34172976017 2160.6065226793289 179.39794778823853 5107.2628031075001 18774.558237448335 4589.4749076366425 1342.2218395769596 1968.3518530726433 360.27231457829475 1109.1023065149784 962.8760184943676 7179.5298087000847 974.9561931937933 10810.556981563568 415.90824769437313 2079.4279211759567 1421.1398141235113 16845.847988829017 638.55330945551395 1000.9203014969826 306.53652632236481 1927.0642102211714 8005.4613605290651 104.34207031130791 3335.3836911320686 1449.5318522006273 189.64881886541843 910.56121402978897 284.50833152234554 137.35203379392624 735.6573258638382 458.96330726146698 857.08259777724743 411.23784004151821 698.02826851606369 5106.0321174860001 35893.876384913921 745.47187937796116 3939.3314514309168 3702.4151867926121
leaf_count=113493 25717 33042 69548 132364 7747 5977 170071 7795 61896 5315 46385 49493 73674 50359 16761 171415 2375 8216 13526 3382 3846 36932 6274 17958 15919 1238 35395 134428 33405 8822 13571 2443 6944 6452 49629 7053 77567 2695 14461 10366 121154 4294 7309 2227 13368 57761 707 24178 10244 1213 6474 1771 977 5298 2987 6040 2943 4682 35796 246159 4637 26794 26450
internal_value=1.77161e-06 0.00941041 0.0151381 -0.011345 -0.000182439 0.00866321 -0.0071706 -0.00360753 0.00976671 0.000342241 0.00336817 -0.00261489 -0.000637128 0.0515659 0.043783 -0.0221369 0.0295061 0.0411665 0.0230102 0.030911 -0.012029 -0.00790953 -0.00217422 -0.00548667 -0.0152932 -0.0135718 0.00617192 -0.00603157 -0.00576968 -0.00458378 -0.000917548 0.0325825 0.044108 0.0145639 0.0142829 -0.00601736 -0.00603088 0.00287314 -0.00173865 -0.0111959 -0.0124963 -0.00718639 -0.00333428 -0.00603232 0.00130283 -0.00970235 -0.00605463 -0.0135591 -0.00525617 0.00513136 0.00860275 0.0259861 0.0151559 0.00804251 0.0347414 0.00466784 0.00678021 0.022869 0.00224276 0.0129525 0.0512117 0.0112935 -0.0047342
internal_weight=307441 168075 105239 139365 62835.7 89357.2 100495 60212.6 23264.7 36022 19326.9 58077.8 35227 15882.3 7764.98 38870.8 4757.88 3937.76 3662.74 2556.97 36947.9 16335.4 11301.6 9435.12 20612.4 18451.8 15571 19656 41270.8 36681.3 6981.78 2684.91 1469.37 1866.45 53335.2 5013.43 35339.1 4058.36 4038.47 1959.04 40282 31280.8 12360.4 11721.9 5936.02 18920.4 10914.9 5785.84 2450.45 16807 9789.07 1806.13 1521.62 1331.97 596.315 7982.94 7072.38 1555.11 5517.27 43073.4 1095.13 10644.2 4008.95
internal_count=2167412 1164372 720287 1003040 444085 620125 718132 426907 160473 254789 135075 412418 249474 100162 49803 284908 31667 25398 24655 16908 266434 116913 79981 67255 149521 133602 109069 140405 294744 261339 49297 17603 9387 12726 365336 35726 252517 28412 28673 14212 291225 224105 88070 83776 42045 136035 78274 41731 17553 117674 68181 12246 10475 9262 3964 55935 49461 10722 38739 295788 7012 73179 28677
is_linear=0
shrinkage=0.03


Tree=4
num_leaves=64
num_cat=0
split_feature=9 8 8 3 8 3 4 8 9 10 8 8 8 8 8 8 8 8 8 8 4 4 2 8 8 8 8 8 8 8 9 9 9 9 8 8 8 8 8 8 9 4 10 0 8 0 9 9 9 9 9 9 9 2 8 8 8 8 9 9 9 9 9
split_gain=21926.3 30143.8 26164.8 3525.08 3725.85 3348.37 2422.98 2085.84 1149.7 1116.28 1063.21 4073.21 838.844 4439.38 2947.94 2170.5 4316.78 1429.27 1245.04 1556.25 822.857 808.348 956.293 1839.24 668.048 7452.07 894.276 2555.63 654.132 1046.44 615.992 1669.44 519.711 2697.69 518.122 474.691 393.149 381.735 356.401 352.468 331.881 288.616 282.493 281.716 304.014 267.754 309.935 448.607 453.702 352.547 267.221 289.385 252.669 239.228 226.986 216.194 283.642 649.443 212.587 415.535 200.921 254.095 249.88
threshold=49374.500000000007 57834.000000000007 131852.50000000003 1.0000000180025095e-35 4138.5000000000009 1.0000000180025095e-35 29273.500000000004 799124.50000000012 76807.500000000015 0.18943643900012166 43116.500000000007 31737.500000000004 10736.500000000002 11410.500000000002 15874.500000000002 11187.500000000002 10967.500000000002 25539.000000000004 22398.500000000004 19685.500000000004 29273.500000000004 29273.500000000004 1.0000000180025095e-35 88355.000000000015 6251.0000000000009 6210.5000000000009 4015.5000000000005 3907.5000000000005 17565.000000000004 16697.000000000004 15714.000000000002 16272.000000000002 36268.000000000007 42545.000000000007 351250.50000000006 55454.000000000007 88355.000000000015 6527.5000000000009 6639.0000000000009 4912.0000000000009 74.500000000000014 542859.50000000012 0.16977175171376738 3.5000000000000004 11816.000000000002 8.5000000000000018 17770.000000000004 17365.500000000004 15714.000000000002 16272.000000000002 19923.000000000004 21751.000000000004 16848.500000000004 6.0000000000000009 681.50000000000011 6774.0000000000009 8791.5000000000018 7988.5000000000009 42545.000000000007 28712.000000000004 2147.5000000000005 12035.500000000002 11565.500000000002
decision_type=2 2 2 2 2 2 2 2 2 2 2 2 2 2 2 2 2 2 2 2 2 2 2 2 2 2 2 2 2 2 2 2 2 2 2 2 2 2 2 2 2 2 2 2 2 2 2 2 2 2 2 2 2 2 2 2 2 2 2 2 2 2 2
left_child=5 3 21 4 54 -1 -4 34 -9 32 11 12 24 15 -15 16 -14 18 19 28 -13 36 23 -23 25 26 27 -5 29 -16 53 -32 40 -34 -8 -12 -3 -26 -39 -6 -7 -41 -10 -43 -45 -42 47 48 60 -50 -48 -52 -51 -11 -2 -40 57 -57 59 -33 -47 62 -62
right_child=1 2 6 10 39 9 7 8 42 30 35 20 13 14 17 -17 -18 -19 -20 -21 -22 22 -24 -25 37 -27 -28 -29 -30 -31 31 58 33 -35 -36 -37 -38 38 55 41 45 43 -44 44 -46 46 50 -49 49 52 51 -53 -54 -55 -56 56 -58 -59 -60 -61 61 -63 -64
leaf_value=0.018144180578597565 -0.0030905390236066507 0.065016027364576859 -0.0056180842940716036 -0.009255001616330449 0.065364352890164762 -0.0055306392154666172 0.017999329488525697 0.011940397233202346 -0.0099524571501370396 -0.011082406926951676 -0.023382215277421181 2.64764177726321e-05 0.04824753225752048 -0.028938221178913291 0.012486538715817987 0.058454647480466082 -0.034339423217143089 -0.017535480928216895 0.012476544736169234 -0.020465543460448245 0.033054867882429888 0.050059779144800649 0.054710882186243467 0.021705485919160824 -0.029086087328500793 0.086970358141140333 -0.019763863932529973 0.063144510629347422 0.0079908533438197843 -0.016383226312540005 0.030971058718711184 -0.013589164620471947 0.012306320440235059 -0.025117287386654003 0.011623500114239524 -0.010832424098971597 0.017745219221697313 0.006689427962933139 -0.032482762059195279 0.028544515245563111 -0.01778722381618595 0.0024492786756235775 0.0001830618187986408 0.028599485300286887 0.075670802262618617 -0.020607331642449069 0.0057645765873643061 -0.030146744908216193 0.027659262844330498 -0.025694336311289746 -0.029518250679058555 -0.0036983132427671757 0.014229296152631346 0.10180343363251719 0.0066866854632551516 -0.017203739799267124 -0.019945030981649639 0.0052789902629318281 -0.022903728207587275 0.008711789638382917 -0.01118019382867365 -0.020274390545840643 0.007178187994641861
leaf_weight=3063.6753073483706 5535.7939705103636 182.95617845654488 9066.6234808415174 26468.36501391232 484.94177161157131 2549.1095045655966 14839.220407262444 5387.4815097153187 5349.8453493565321 8663.0418218225241 5204.2049779444933 914.58675816655159 1216.3148835003376 5188.4213952869177 1698.3093361854553 1273.2335174828768 1070.7156689763069 5611.8262228369713 5050.2817171663046 4114.0877733379602 2639.9787170886993 6721.2345185875893 9684.8175200372934 2971.0935320109129 1868.540074840188 718.76600585877895 7510.0340768992901 445.87500770390034 5874.2445988506079 3374.0032903403044 1344.3400479853153 1856.0766816288233 3273.6914541125298 3683.8483887016773 50670.470396950841 5675.7617972642183 1179.6364488005638 674.50880952179432 655.6775219142437 1302.8650737851858 44902.532321542501 86.644626393914223 4601.9831783771515 182.95273889601231 387.79815490543842 3790.2214681059122 1279.3068870604038 1608.0710974037647 405.76102578639984 335.66099534928799 583.59360045194626 1183.8748540431261 247.42245365679264 16.616104602813721 3479.9680891484022 3543.404319614172 4827.802007779479 1715.4761416614056 695.27438516914845 1263.2575524449348 4042.2035000622272 2296.023973852396 798.35484966635704
leaf_count=20632 39140 1091 64888 191408 3032 18623 99627 37476 38245 62970 38567 6350 7880 38763 11982 8161 7966 41249 34723 30025 17229 40935 58184 19630 13808 4489 55335 2839 41123 24566 8993 13505 23096 27408 345700 41599 7893 4749 4881 8332 330910 553 32452 1171 2253 27881 9129 12235 2721 2487 4341 8421 1730 112 24452 25933 35416 12260 5158 8875 29334 16663 5833
internal_value=-2.23389e-06 0.00506859 0.0160934 -0.00614462 0.0095919 -0.0126647 0.00908706 0.0107363 0.000777573 -0.0137777 -0.00799768 -0.00688517 -0.00823366 -0.00465625 -0.00831027 0.0270644 0.00957955 -0.00414886 -0.000412753 -0.00473568 0.0245599 0.0464678 0.048039 0.0413699 -0.0107798 -0.00861275 -0.0106095 -0.00805457 0.00117572 -0.00671512 -0.00598202 0.00222628 -0.0152974 -0.00750751 0.013068 -0.0168367 0.0241118 -0.0165113 -0.0144517 0.0424344 -0.0161438 0.0367481 -0.00526476 0.0529722 0.0606209 -0.0165837 -0.0133217 -0.0152695 -0.0132602 0.00619118 -0.00467287 -0.0122324 -0.00873933 -0.0108618 0.000682442 -0.0157802 -0.0146926 -0.00986815 -0.00790321 -0.00455494 -0.0150215 -0.0120528 -0.00815022
internal_weight=307333 219451 110655 108795 11461 87882 89915.6 80849 15339.3 84818.3 97334.4 86454.5 82899.9 34471.4 30911.2 3560.26 2287.03 25722.8 20110.9 15060.6 3554.57 20739.7 19377.1 9692.33 48428.4 35143 34424.3 26914.2 10946.6 5072.31 13838.6 5158.95 70979.7 6957.54 65509.7 10880 1362.59 13285.4 11416.9 2445.2 64022.1 1960.26 9951.83 657.396 570.751 61473 16570.5 13523.7 11915.6 988.844 3046.78 1767.47 583.083 8679.66 9015.76 10742.4 10086.7 5258.88 3814.61 3119.33 10926.8 7136.58 4840.56
internal_count=2167412 1526355 746121 780234 78933 641057 618388 553500 108173 620425 701301 621135 597556 246438 222431 24007 15846 183668 142419 107696 23579 127733 118749 60565 351118 254071 249582 194247 77671 36548 99613 36531 520812 50504 445327 80166 8984 97047 83239 15341 470308 12309 70697 3977 3424 451685 120775 98884 86649 6938 21891 12762 4217 63082 63592 78490 73609 38193 27538 22380 79711 51830 35167
is_linear=0
shrinkage=0.03


Tree=5
num_leaves=64
num_cat=0
split_feature=5 8 8 5 5 9 9 8 8 3 5 8 0 9 7 8 5 4 5 9 8 8 8 8 8 8 5 5 8 8 8 8 8 8 8 5 8 4 7 4 8 9 3 8 9 9 9 9 8 8 8 8 7 8 8 8 8 8 5 9 5 9 8
split_gain=32952.8 8830.44 22259.6 6621.93 4367.06 4246.45 2843.68 5564.39 5448.07 1711.94 1431.78 1314.64 1171.52 915.854 765.213 1037.23 716.907 645.633 605.798 552.506 524.454 1237.94 605.292 572.663 562.712 1269.8 519.44 511.8 502.404 472.661 611.895 470.103 1926.18 455.657 400.875 391.929 390.281 372.686 556.13 365.091 360.866 563.941 353.414 586.749 333.655 1393.25 432.924 803.638 332.681 436.439 305.148 1558.05 659.414 433.313 355.253 596.987 305.602 577.456 288.886 290.061 286.18 281.681 271.809
threshold=0.16504544797628437 57834.000000000007 131852.50000000003 0.094392033542976955 0.29883357502252111 36268.000000000007 36268.000000000007 57834.000000000007 351250.50000000006 1.0000000180025095e-35 0.2128048040741862 88355.000000000015 8.5000000000000018 15714.000000000002 84249.000000000015 88355.000000000015 0.056724360447642459 99732.500000000015 0.36818343827967215 16272.000000000002 15874.500000000002 43116.500000000007 31737.500000000004 25539.000000000004 11410.500000000002 11187.500000000002 0.35758377425044097 0.25347009593794656 351250.50000000006 6210.5000000000009 12353.000000000002 43116.500000000007 31737.500000000004 22398.500000000004 131852.50000000003 0.1873505117780358 19685.500000000004 29273.500000000004 84249.000000000015 37690.000000000007 799124.50000000012 42545.000000000007 1.0000000180025095e-35 4138.5000000000009 11171.500000000002 12035.500000000002 15714.000000000002 16272.000000000002 17565.000000000004 16697.000000000004 10736.500000000002 11410.500000000002 84249.000000000015 22398.500000000004 4015.5000000000005 3907.5000000000005 19685.500000000004 17565.000000000004 0.11932532318790233 76807.500000000015 0.28998106060606066 79.500000000000014 3907.5000000000005
decision_type=2 2 2 2 2 2 2 2 2 2 2 2 2 2 2 2 2 2 2 2 2 2 2 2 2 2 2 2 2 2 2 2 2 2 2 2 2 2 2 2 2 2 2 2 2 2 2 2 2 2 2 2 2 2 2 2 2 2 2 2 2 2 2
left_child=3 4 14 16 10 9 44 20 11 -4 31 -9 27 26 -3 -16 -1 -10 29 -15 24 22 23 33 25 -8 -14 -11 -7 -6 -31 32 42 36 37 -30 48 -13 -39 -24 -19 -42 43 -2 61 -46 -47 -48 49 -22 54 -52 53 -53 55 -44 57 -54 -43 -60 -37 -5 -12
right_child=1 2 5 6 18 28 7 8 17 12 62 34 13 19 15 -17 -18 40 -20 -21 21 -23 39 -25 -26 -27 -28 -29 35 30 -32 -33 -34 -35 -36 60 -38 38 -40 -41 41 58 50 -45 45 46 47 -49 -50 -51 51 52 56 -55 -56 -57 -58 -59 59 -61 -62 -63 -64
leaf_value=-0.027237768515362058 -0.001337072668522252 0.051958893745139206 0.019833680839488985 -0.0040937429334534431 0.0047337465420561461 0.018280088113711884 -0.013964530747454813 0.052564077287902716 -0.0082025994472609779 -0.012836255415332662 0.00042363213196532599 0.016455450222058004 -0.0048714282312114993 0.032293014903115612 0.0464159703922171 0.023404471840919108 -0.018562838743423408 0.0069159226635177968 0.046104775973026736 0.0069123072697788298 0.011830042612565591 -0.020199711106280244 -0.00062021509058252946 -0.017919077705259998 -0.029409998495636129 0.062687208269346012 0.068077504599669117 0.0070642144911402197 0.0057044722420906743 0.034819101515043138 -0.0028100551173606565 -0.014601599866226108 0.030212070349892539 0.011096790485032242 0.015129614551377603 0.011581494266390524 -0.023000825312676564 0.04828582407090877 0.0072327023354436812 0.025641828928087956 0.011793828697488807 -0.01594087963538196 -0.0064032777906586806 0.035408578338312957 0.0067799903310531064 -0.022048758562864642 0.022564557822117345 -0.014043454572617754 0.0064387665017823746 -0.019697360374107475 0.041233109438676641 -0.0043867635599769642 -0.022945576286454765 0.012847710372687155 -0.014064692711440721 0.062673392439558537 -0.019009772469480487 0.0069320866784448425 0.0086078128837342241 -0.0083558259878235702 0.020254908902057774 -0.018439084245177036 0.008156384392817571
leaf_weight=14232.756990194321 3640.9148824512959 8667.7931538373232 2838.0404310375452 1338.2607751339674 1105.5519555062056 10509.986200541258 18278.285616785288 1348.3288047760725 9528.9363824725151 11602.089286133647 6996.9828517884016 1174.2417549192905 6370.4784464687109 1142.8672510236502 5586.023657605052 2580.1217485815287 21608.44712986052 6760.6215799897909 1152.0102983564138 2381.6700099259615 551.69887901842594 4921.1387046575546 903.22459208965302 2410.5466719418764 2137.9966988116503 196.26702970266342 88.765405595302582 1291.8869373053312 9874.9968930929899 2176.2347689568996 472.96639838814735 4490.2774542272091 1398.1584424525499 2009.4744293242693 4790.5748931318521 40308.278621315956 960.41989716887474 1259.0165012180805 389.48861859738827 1006.3318503201008 1885.8567218482494 2112.9186782687902 10695.227755486965 437.81556951999664 3078.6492634415627 5472.2549606412649 599.70601092278957 5357.8167702406645 2131.4146298617125 1388.6930995583534 673.56223592162132 3974.1163635849953 965.75412897765636 1960.180757433176 7844.441266477108 113.47988091409206 3250.7860520780087 1464.3196873515844 1426.5030462145805 2489.6803246736526 3745.4907576590776 15774.387974083424 9859.2139272689819
leaf_count=108581 25717 50359 18775 9810 7747 69548 134825 7870 68914 85550 49493 7776 45827 7475 33042 16761 161031 46196 7012 16676 3880 37038 6274 18081 16400 1248 595 9320 67870 13526 3382 33405 8822 13641 32033 273316 7159 7414 2587 6490 13210 15408 77567 2695 22784 40670 3950 39559 14688 10384 4294 28677 7309 13368 57761 707 24178 10244 9919 17971 25173 117249 68181
internal_value=-6.34311e-06 0.00884003 0.0140783 -0.01092 -0.000102228 0.00816509 -0.00701148 -0.00364085 0.00527615 -0.00214117 -0.00241047 0.0252583 -0.00486782 0.00284641 0.0457455 0.0391476 -0.0220082 -0.00212203 0.0270683 0.0151469 -0.0116568 -0.00763112 -0.0021861 -0.00529912 -0.0148362 -0.0131487 -0.00386443 -0.0108416 0.0122782 0.021222 0.0280981 -0.00544233 -0.00431267 -0.00097714 0.0204193 0.0111082 -0.00580068 0.0293909 0.0385948 0.013217 0.0018256 -0.0025213 -0.00569154 0.00260736 -0.0144793 -0.0111303 -0.0159553 -0.0103559 -0.00174006 -0.0107283 -0.0067858 -0.00311407 -0.00568754 0.00130487 -0.00920416 -0.00567549 -0.0129932 -0.00493949 -0.00700082 -0.00217419 0.0123193 -0.0173179 0.00494713
internal_weight=307184 169660 106988 137524 62672 90154.6 101683 70061.7 33166.2 25715.8 57765.2 8961.65 22877.8 9983.78 16833.9 8166.15 35841.2 24204.5 4906.76 3524.54 36895.5 16282.9 11361.8 9452.25 20612.5 18474.6 6459.24 12894 64438.8 3754.75 2649.2 40909 36418.8 7041.7 7613.32 53928.8 5032.23 2822.75 1648.51 1909.56 14675.6 7914.96 35020.6 4078.73 31621.1 14508.4 11429.8 5957.52 4071.81 1940.39 30941.9 12288.7 11615.2 5934.3 18653.1 10808.7 5680.86 2430.07 6029.1 3916.18 44053.8 17112.6 16856.2
internal_count=2167412 1164372 720287 1003040 444085 620125 733428 499406 229298 184218 412418 57680 165443 70573 100162 49803 269612 171618 31667 24151 270108 117635 80597 67833 152473 136073 46422 94870 435907 24655 16908 294744 261339 49752 49810 366359 36111 17777 10001 12764 102704 56508 252517 28412 234022 106963 84179 43509 28952 14264 224105 88070 83776 42045 136035 78274 41731 17553 43298 27890 298489 127059 117674
is_linear=0
shrinkage=0.03


Tree=6
num_leaves=64
num_cat=0
split_feature=5 8 8 5 8 5 5 8 8 8 5 8 5 0 5 4 2 8 8 8 5 8 8 8 8 0 2 8 8 8 8 8 8 8 8 8 3 8 8 0 4 2 8 8 8 8 8 3 8 8 8 5 8 8 8 8 5 3 8 5 5 8 8
split_gain=31086.2 8530.26 20859.8 5806.36 4093.28 4046.31 1688.36 1672.86 5750.31 3632.09 1525.67 1023.84 971.617 709.041 707.955 646.005 626.716 1024.18 521.753 2129.59 508.995 497.715 1037.13 493.178 1027.26 485.319 459.076 563.569 433.842 403.476 500.779 359.943 341.185 756.392 403.554 712.555 408.463 554.371 296.957 293.563 272.272 450.856 262.467 252.038 606.94 958.55 479.158 746.511 295.707 285.705 254.389 244.258 240.569 238.311 1270.85 229.397 223.785 223.541 218.317 214.637 213.447 202.791 202.256
threshold=0.15785169141209512 57834.000000000007 131852.50000000003 0.094392033542976955 799124.50000000012 0.29883357502252111 0.21678289827500735 799124.50000000012 57834.000000000007 351250.50000000006 0.21470611891080352 88355.000000000015 0.33452380952380956 7.5000000000000009 0.056724360447642459 29273.500000000004 1.0000000180025095e-35 88355.000000000015 43116.500000000007 31737.500000000004 0.36818343827967215 15874.500000000002 43116.500000000007 11410.500000000002 11187.500000000002 7.5000000000000009 1.0000000180025095e-35 22398.500000000004 19685.500000000004 6210.5000000000009 12353.000000000002 351250.50000000006 25539.000000000004 22398.500000000004 19685.500000000004 17565.000000000004 1.0000000180025095e-35 4138.5000000000009 131852.50000000003 7.5000000000000009 29273.500000000004 1.0000000180025095e-35 55454.000000000007 3907.5000000000005 6251.0000000000009 6210.5000000000009 3972.5000000000005 1.0000000180025095e-35 4138.5000000000009 6527.5000000000009 2998.5000000000005 0.18650749194790647 2488.5000000000005 6251.0000000000009 6210.5000000000009 4912.0000000000009 0.12123717994980236 1.0000000180025095e-35 2107.0000000000005 0.1992522884289267 0.50581395348837221 6018.5000000000009 16697.000000000004
decision_type=2 2 2 2 2 2 2 2 2 2 2 2 2 2 2 2 2 2 2 2 2 2 2 2 2 2 2 2 2 2 2 2 2 2 2 2 2 2 2 2 2 2 2 2 2 2 2 2 2 2 2 2 2 2 2 2 2 2 2 2 2 2 2
left_child=3 5 16 14 31 10 13 8 21 11 18 -10 25 -6 -1 -11 17 -3 19 32 29 23 26 24 53 -8 28 62 -23 -7 -31 -4 33 34 35 36 37 -2 40 -9 -13 -42 -20 50 45 46 -45 48 -48 -46 52 -33 57 54 61 -50 -41 58 -12 -21 -14 -5 -28
right_child=1 2 4 7 6 20 12 39 9 15 43 38 60 -15 -16 -17 -18 -19 42 59 -22 22 -24 -25 -26 -27 27 -29 -30 30 -32 51 -34 -35 -36 -37 -38 -39 -40 56 41 -43 -44 44 49 -47 47 -49 55 -51 -52 -53 -54 -55 -56 -57 -58 -59 -60 -61 -62 -63 -64
leaf_value=-0.026908856051677674 -0.0018294924411952876 0.044123269428097217 0.017471926966243164 -0.01189092600420963 -0.0090504452736211143 0.0048457511638031947 -0.00036652527563373332 -0.014372314087214091 0.048855518137909233 -0.0071950422571339934 0.0048083128423847803 0.016689204323189679 0.036666045269855826 0.00067288279851854759 -0.018218765125798907 0.0061502583580474437 0.048432095122056949 0.02174856824272095 -0.021736029189181869 0.025028802285393132 0.042740754659913553 0.0038481264270214832 -0.019834476625145554 -0.029460477098666768 0.059371654145218625 0.012721562579053545 0.009678926492543715 0.010414492805637537 -0.018063598697195149 0.032381703737105957 -0.0014638633555232995 0.006913512642690892 -0.016474551346736931 0.011969584402793899 -0.019755743651283533 0.01001993678336271 -0.0081238242904664755 0.03309967277984046 0.014515565622653645 -0.012889987238306942 0.0058328762942028659 0.045792947951626549 -0.0078288697841573402 0.056723226544088054 -0.025498461026776782 0.071313415084651721 -0.008917675468047042 -0.013758344808037682 0.064354699674648089 0.0057672814227455 -0.013949469876041292 0.012513851989814339 0.026240028196976493 -0.019767425616914105 0.083938454652490224 0.023270794045935937 -0.0057248953309575121 -0.0052116110168222898 0.037382628937671684 0.056511523013320332 0.095164611100536659 -0.028898370396680449 -0.011072344741758961
leaf_weight=13974.050518468022 3902.9343785792589 5894.3360650986433 11104.655602857471 10589.13441132009 13392.396436244249 1101.0350221991539 4411.0484387129545 22532.397151842713 1236.9686652719975 7806.1957183480263 2868.9424471259117 1179.5156948268414 764.08569213747978 13604.50139285624 21337.956358551979 5610.1530614644289 9140.9651370197535 2681.8351169675589 2420.4481710195541 1378.1600341051817 1178.886587485671 1208.6734973341227 4437.7934109419584 1942.742401316762 172.06892131268978 6038.658117800951 512.69108207523823 3543.5798774808645 2481.0882251113653 2225.4967755675316 477.284578576684 8674.8362608551979 2496.1050511598587 2216.6558933109045 1846.5830795317888 2506.9318645000458 24932.773760542274 456.4738585203886 4420.4940455853939 7298.382629647851 334.29020170867443 1067.6320108324289 2471.7190547138453 204.36166247725487 272.26180031895638 316.40187774598598 130.42909897863865 705.38705962896347 223.07978841662407 7465.4260188341141 909.5992773771286 36709.414145573974 377.88680395483971 4915.9023443162441 122.96553988754749 273.77327752113342 8499.3323937058449 2468.4373373538256 197.7984139919281 227.77358834445477 60.708406776189804 671.75904828310013 2393.2398694604635
leaf_count=108636 27643 33953 72665 78434 97833 7692 31500 168402 7014 56614 20060 7731 4900 96107 161053 38193 51630 17186 18374 8572 7000 8319 33866 15212 1054 41323 3578 23743 18826 13551 3418 59023 18800 14981 13765 17483 182564 2761 29295 53928 2209 6125 18422 1206 2030 1777 924 5166 1331 51746 6505 245703 2665 37104 799 1713 61880 17630 1368 1404 391 5109 17595
internal_value=-3.42582e-05 0.00805327 0.0130833 -0.0113018 0.00749681 -0.000486108 -7.80596e-05 -0.00736832 -0.00399788 0.00801351 -0.00260053 0.0236915 0.00967201 -0.0041503 -0.0216582 -0.00161392 0.0429617 0.0371286 -0.00546426 -0.00433185 0.0255109 -0.0118823 -0.00773926 -0.0151612 -0.0134736 0.00719608 -0.00244406 0.00238314 -0.0108837 0.0201657 0.0264021 0.0126289 -0.00574912 -0.00500222 -0.00612073 -0.00532848 -0.00664245 0.0018279 0.0192428 -0.0121732 0.0273318 0.0362741 -0.0147123 0.00522504 0.00836047 0.02378 0.0139772 0.00740419 0.0312113 0.00466504 0.000815859 0.0114436 0.00308931 -0.0142443 -0.011858 0.0417627 -0.00903585 0.00150584 0.00691567 0.0295094 0.0410157 -0.012907 -0.0074075
internal_weight=307019 178730 112477 128289 94760.3 66253 38271.4 92977 54646.9 21655.2 61270.3 8238.9 11274.5 26996.9 35312 13416.3 17717.1 8576.17 44856.6 39964.4 4982.7 32991.6 14577.1 18414.6 16471.8 10449.7 10139.3 6449.51 3689.76 3803.82 2702.78 56488.9 38358.5 35862.4 33645.7 31799.1 29292.2 4359.41 7001.93 38330.1 2581.44 1401.92 4892.17 16413.8 9591.12 1853.43 1537.03 1332.67 627.282 7737.69 6822.66 45384.3 5913.07 16299.8 11383.9 496.853 15797.7 5535.18 3066.74 1605.93 824.794 11260.9 2905.93
internal_count=2167484 1222765 752214 944719 649445 470551 272054 675030 390820 147181 438890 52374 78114 193940 269689 94807 102769 51139 324769 287973 31661 243639 105927 137712 122500 72823 72061 44916 27145 24661 16969 377391 277997 259197 244216 230451 212968 30404 45360 284210 16065 8334 36796 114121 65893 12117 10340 9134 3968 53776 48228 304726 41723 121446 84342 3044 115808 39058 21428 9976 5291 83543 21173
is_linear=0
shrinkage=0.03


Tree=7
num_leaves=64
num_cat=0
split_feature=9 8 8 3 3 8 4 8 9 8 8 10 0 4 9 9 4 2 8 8 9 9 8 8 8 8 8 8 8 8 8 8 8 8 8 8 8 8 8 8 8 8 8 9 8 8 8 10 8 8 0 9 8 2 0 8 4 8 9 9 8 8 8
split_gain=18604.6 24461.9 19244.1 2977.54 2970.66 2921.26 1975.01 1655.39 1051.29 962.429 3416.79 959.77 800.878 691.945 543.902 1499.79 527.964 605.087 1340.97 479.464 479.035 2501.06 438.403 1556.51 3911.75 718.562 943.5 1197.08 531.988 2773.79 495.586 3706.56 632.98 1626.75 421.348 384.725 1467.44 609.458 606.975 341.195 728.107 339.122 671.108 334.439 308.457 294.522 303.257 286.051 275.024 251.211 243.04 276.779 234.689 221.428 214.246 254.227 284.156 191.948 182.524 332.161 177.531 176.789 2072.88
threshold=49374.500000000007 57834.000000000007 131852.50000000003 1.0000000180025095e-35 1.0000000180025095e-35 4138.5000000000009 29273.500000000004 799124.50000000012 76807.500000000015 43116.500000000007 31737.500000000004 0.18943643900012166 9.5000000000000018 29273.500000000004 15714.000000000002 16272.000000000002 29273.500000000004 1.0000000180025095e-35 88355.000000000015 55454.000000000007 36268.000000000007 42545.000000000007 15874.500000000002 11410.500000000002 11187.500000000002 25539.000000000004 22398.500000000004 19685.500000000004 10967.500000000002 10736.500000000002 6251.0000000000009 6210.5000000000009 4015.5000000000005 3907.5000000000005 351250.50000000006 10736.500000000002 11410.500000000002 15874.500000000002 25539.000000000004 11187.500000000002 10967.500000000002 17565.000000000004 16697.000000000004 74.500000000000014 4912.0000000000009 17565.000000000004 16697.000000000004 0.16977175171376738 6527.5000000000009 88355.000000000015 8.5000000000000018 2147.5000000000005 6639.0000000000009 6.0000000000000009 3.5000000000000004 11816.000000000002 542859.50000000012 681.50000000000011 21751.000000000004 42545.000000000007 3972.5000000000005 2906.0000000000005 2488.5000000000005
decision_type=2 2 2 2 2 2 2 2 2 2 2 2 2 2 2 2 2 2 2 2 2 2 2 2 2 2 2 2 2 2 2 2 2 2 2 2 2 2 2 2 2 2 2 2 2 2 2 2 2 2 2 2 2 2 2 2 2 2 2 2 2 2 2
left_child=3 4 16 -1 5 57 -4 34 -9 10 12 20 22 -12 53 -16 49 18 -18 -11 43 -22 23 24 28 26 27 41 29 30 31 32 33 61 -8 -14 39 -38 45 40 -37 42 -24 -5 -7 46 -39 -10 -32 -3 -45 -52 -50 -13 -46 -56 -57 -2 -17 -60 -59 62 -6
right_child=1 2 6 11 9 44 7 8 47 19 13 14 35 -15 15 58 17 -19 -20 -21 21 -23 25 -25 -26 -27 -28 -29 -30 -31 48 -33 -34 -35 -36 36 37 38 -40 -41 -42 -43 -44 50 54 -47 -48 -49 52 -51 51 -53 -54 -55 55 56 -58 60 59 -61 -62 -63 -64
leaf_value=0.016709103895215051 -0.0029293592940632771 0.052616223469675268 -0.0052078095470386738 -0.0045225015633953486 -0.010426780266932405 0.057216302826189031 0.016017006104050994 0.011338377035737209 -0.0098514190199075584 -0.022736478097668655 -0.00080825192323523507 -0.010586792421501633 -0.0062993272027576193 0.029231415387964171 0.02847695821195953 -0.018027332532077243 0.042330224687288871 0.045514411580043407 0.018735578936577481 -0.0099033095991303294 0.011979190747780415 -0.024341545449073923 0.011983176370931912 -0.0289693733359336 0.051154588688711533 -0.017933761029382211 0.011413060466537419 -0.020836840756522722 -0.034265788779744913 0.044339633023628124 -0.02828859158342472 0.075464531869364915 -0.020252732658600909 0.054513371264490948 0.010356800291791295 0.040473363756849561 -0.02540473946012678 0.012079423652388949 -0.014114269756667927 0.055583628724418077 -0.032686009786857359 0.0064283997114758422 -0.016858535408046257 -0.016875783913485768 0.012549798691756717 0.0091289479563806415 -0.01398548069829952 0.00037238955645901221 0.0053317312023177868 0.016323500803549097 -0.019810589736142314 -0.010436171141754465 -0.016388907687812385 0.097086645343061134 0.018581466899873871 0.032852999766745675 0.064094637637817004 0.0085310528696909381 0.0026828400073271499 -0.021927661610557057 -0.012488500103306068 -0.015312501657809155 0.048554683390922365
leaf_weight=3153.9782913029194 5513.2156001478434 200.16803140938282 8962.0158913135529 2510.1214873492718 13660.029980480671 526.00529216229916 15366.274357408285 5424.2163565158844 5291.931468769908 4993.3097193837166 916.31152828037739 8483.7253822088242 13801.924122564495 2788.0702262371778 1399.8373269587755 1126.1489375531673 7272.5859193354845 10533.438935905695 3091.8743061423302 5522.2546481490135 3284.7310987710953 3549.8603413179517 1112.2673019021749 4033.0194389522076 937.3485763669014 3408.3531040847301 3312.2357731610537 3653.0581770092249 857.74930748343468 814.69499057531357 1731.4216112345457 454.32573974132538 5206.6762398630381 362.19948223233223 51670.539926305413 453.37252706289291 936.00977158546448 601.94207541644573 2017.0650500953197 428.4857394695282 167.30080831050873 3788.063807964325 2088.8713636249304 43463.190420165658 429.84409981966019 4306.5305623263121 1205.2108529508114 4603.9801247268915 476.10707414150238 1213.2668111771345 3670.4859079569578 12503.030676096678 7313.7286254614592 16.910785004496574 502.85687638819218 723.01465600728989 414.04272705316544 3079.1943159103394 1942.2212750017643 661.22395442426205 409.16768319904804 3918.1683698147535 557.84499524533749
leaf_count=20676 39063 1092 64878 18713 100739 3058 99988 37439 38306 38513 6320 63001 101683 17338 9027 8551 40963 58154 19663 41505 23087 27536 7773 31583 5633 25920 22313 27577 6685 5035 13282 2617 39659 2166 345272 2791 7319 4203 15292 2578 1286 26276 15570 330867 2598 29655 8964 32467 3330 7860 27885 92827 54943 108 3114 4340 2205 21465 13753 5102 2914 28915 4049
internal_value=-3.6355e-05 0.00456514 0.0142684 -0.0118963 -0.0056989 0.00864095 0.00816575 0.00962117 0.000723466 -0.00743453 -0.00637874 -0.0129886 -0.00765804 0.0217989 -0.00571284 0.00200041 0.0392453 0.0404461 0.0352932 -0.0159985 -0.014426 -0.00688458 -0.00957181 -0.0112882 -0.00932276 -0.00558507 -0.00256797 -0.00692038 -0.0109269 -0.010346 -0.0116695 -0.00938393 -0.0110114 -0.00840954 0.0116544 -0.00304188 0.00140166 -0.00248464 0.000153644 0.0349865 0.0207327 0.000352649 -0.0068342 -0.0152552 0.0366775 0.00486294 -0.00529801 -0.00509411 -0.0174674 0.0214796 -0.0157068 -0.0125645 -0.0150601 -0.0103681 0.0314459 0.0363901 0.044251 0.000554176 -0.00793617 -0.00356609 0.00606212 -0.00966756 -0.00811101
internal_weight=306817 221052 113630 85765.5 107421 11597.3 91319 82356.9 15320.1 95824 85308.4 82611.5 81604 3704.38 13630.1 5129.43 22311.3 20897.9 10364.5 10515.6 68981.4 6834.59 57686.2 40323.3 36290.3 17362.8 13954.5 10642.3 35352.9 34495.2 33680.5 24159.2 23704.9 18498.2 67036.8 23917.8 10115.9 9066.76 8130.75 1049.16 620.673 6989.2 3201.14 62146.8 2595.76 6113.68 1807.15 9895.91 9521.26 1413.43 59636.7 16173.5 7789.84 8500.64 2069.76 1639.91 1137.06 9001.58 3729.59 2603.45 3488.36 18136 14217.9
internal_count=2167484 1526351 746082 641133 780269 78757 618350 553472 108212 701512 621494 620457 597836 23658 99542 36433 127732 118780 60626 80018 520915 50623 424065 298636 267053 125429 99509 77196 261420 254735 249700 178145 175528 135869 445260 173771 72088 65433 58114 6655 4077 49619 23343 470292 15315 42822 13167 70773 71555 8952 451579 120712 58273 63109 12257 9659 6545 63442 27406 18855 24379 133703 104788
is_linear=0
shrinkage=0.03


Tree=8
num_leaves=64
num_cat=0
split_feature=5 8 8 5 9 5 9 8 8 3 5 0 9 8 5 5 9 4 2 8 8 8 8 8 8 8 5 5 5 2 8 8 8 9 9 9 9 8 8 8 8 8 8 3 8 5 9 5 9 8 8 5 8 8 8 8 8 8 3 8 8 8 4
split_gain=28194.3 7379.33 17165.2 5527.72 3844.69 3521.32 2097 4146.68 4089.61 1530.84 1396.76 1031.21 913.862 833.96 703.225 512.306 511.587 504.236 492.321 807.693 471.197 1816.01 461.929 959.311 471.672 884.136 461.035 449.2 430.836 411.816 494.733 394.812 370.576 355.188 1389.24 368.502 649.741 328.208 409.664 310.746 662.295 368.429 619.816 360.031 463.76 280.794 275.62 256.185 254.738 241.186 239.704 235.622 225.965 1092.99 219.193 520.237 832.655 407.661 659.151 265.37 254.681 221.717 217.487
threshold=0.15785169141209512 57834.000000000007 131852.50000000003 0.094392033542976955 36268.000000000007 0.29883357502252111 36268.000000000007 57834.000000000007 351250.50000000006 1.0000000180025095e-35 0.2128048040741862 8.5000000000000018 15714.000000000002 88355.000000000015 0.056724360447642459 0.25347009593794656 16272.000000000002 217693.50000000003 1.0000000180025095e-35 88355.000000000015 43116.500000000007 31737.500000000004 15874.500000000002 43116.500000000007 11410.500000000002 11187.500000000002 0.24433218919327335 0.28998106060606066 0.36818343827967215 1.0000000180025095e-35 22398.500000000004 19685.500000000004 351250.50000000006 11171.500000000002 12035.500000000002 15714.000000000002 16272.000000000002 6210.5000000000009 12353.000000000002 25539.000000000004 22398.500000000004 19685.500000000004 17565.000000000004 1.0000000180025095e-35 4138.5000000000009 0.1873505117780358 79.500000000000014 0.35758377425044097 236.50000000000003 55454.000000000007 131852.50000000003 0.44320844171416979 6251.0000000000009 6210.5000000000009 3907.5000000000005 6251.0000000000009 6210.5000000000009 3972.5000000000005 1.0000000180025095e-35 6527.5000000000009 4138.5000000000009 2998.5000000000005 206343.50000000003
decision_type=2 2 2 2 2 2 2 2 2 2 2 2 2 2 2 2 2 2 2 2 2 2 2 2 2 2 2 2 2 2 2 2 2 2 2 2 2 2 2 2 2 2 2 2 2 2 2 2 2 2 2 2 2 2 2 2 2 2 2 2 2 2 2
left_child=3 5 18 14 9 10 33 22 13 -4 20 15 26 -9 -1 48 -14 -10 19 -3 21 39 24 29 25 52 -13 32 37 31 -31 -24 -6 46 -35 -36 -37 -7 -39 40 41 42 43 44 -2 -34 -5 -28 -11 -22 62 -17 53 -8 61 56 57 -56 60 -57 -59 -12 -15
right_child=1 2 4 6 27 28 7 8 17 11 54 12 16 50 -16 51 -18 -19 -20 -21 49 -23 23 -25 -26 -27 47 -29 -30 30 -32 -33 45 34 35 36 -38 38 -40 -41 -42 -43 -44 -45 -46 -47 -48 -49 -50 -51 -52 -53 -54 -55 55 59 -58 58 -60 -61 -62 -63 -64
leaf_value=-0.026452512494615638 -0.0018103367049284093 0.039583355226807164 0.017721653803530565 -0.0032353185633696505 0.015464736127114506 0.0047700378590944097 -0.012426684000284738 0.043821920237454778 -0.0077509086686557115 0.0023574726062911239 0.0029458963021914354 -0.0077461861743605507 0.029646889926482966 0.016021095594146564 -0.017679577747207027 0.0053168724530733985 0.0061239482415431324 0.0013533419822241593 0.043360347464088157 0.02002155451895446 -0.021028321266505851 0.026674448520276204 0.0034866690539446569 -0.019247257956024454 -0.028918849242737445 0.052445175042325189 0.0092774871443443933 0.019451339667927448 0.03905657842810667 -0.007093305282156126 0.0095927346296987102 -0.017448759587795074 0.005162257658501688 0.0079739188599944801 -0.021129627994773928 0.020890730193012966 -0.013371207517556053 0.029344093873556118 -0.0012370800196926195 -0.015924109510568996 0.011033612808546955 -0.019112547537679062 0.0092119687043217269 -0.0077576763929774473 0.029633367412878815 0.010372493273958273 -0.017927647738006643 0.061209865637163623 -0.013607759040603505 -0.0074914963048440053 0.013454907372898842 0.082590292086361872 -0.019185435847634814 0.074061563842441558 0.050933329104025739 -0.024856087499137373 0.064302314437110764 -0.0084651359124450296 -0.013390863384342488 0.0054401647867572287 0.037797465911138056 -0.012778707766578969 0.033194352052415575
leaf_weight=13580.738369837403 3868.4186315387487 6174.8286187648773 3008.7025870531797 1249.749041095376 10085.775573074818 1102.5079034119844 11088.549119651318 1298.6948140263557 10142.713241145015 976.12478169798851 6049.6402429640293 5824.5208894759417 1246.1264366060495 1300.0479170531034 20887.609462216496 1256.6703898757696 2508.0397589206696 11893.657809302211 9601.3241420686245 2748.5060394853354 2331.1912638098001 1649.1316988915205 1217.4195551127195 4328.8003668487072 1864.995269022882 183.43227107822895 931.99428255856037 5098.459334269166 1224.3025824427605 2880.3949331492186 3593.9677075147629 2422.1396566778421 12052.490586489439 2971.0864690989256 5021.4379350692034 555.60129834711552 4782.9994757324457 2307.7239245176315 474.75206835567951 2403.426634311676 2233.5696928650141 1782.0047170817852 2508.4169508069754 24326.730328112841 473.522351577878 41033.007697314024 14513.77830003202 93.962250307202339 11301.578934118152 2414.8396167308092 4496.6383046358824 36.273424595594406 4797.3331058174372 132.76157061755657 215.64478947222233 268.84548901021481 340.99455262720585 134.33122788369656 712.65442976355553 7761.4244101792574 520.37336929142475 930.85251298546791 1364.2505329847336
leaf_count=108636 27424 33953 19388 9297 64683 7692 83543 7014 74512 7294 42685 42546 7878 8291 161053 9104 17566 83025 51630 17186 18255 9898 8319 33866 15212 1054 6596 33183 7000 21173 23743 18826 81988 22277 38585 3584 36315 13551 3418 18529 14879 13643 17296 180391 2754 272845 111422 589 85553 18224 29295 232 37104 799 1208 2078 1809 965 5326 53697 3051 6778 7774
internal_value=-3.85323e-05 0.00758992 0.0122132 -0.0108882 0.00708429 -0.000389896 -0.00705265 -0.00397628 0.00396982 -0.00245684 -0.00239623 -0.00496869 0.00203967 0.0217006 -0.0211366 -0.0104459 0.0139361 -0.00283673 0.0386406 0.0335599 -0.00521462 -0.00413451 -0.0114304 -0.00742925 -0.0146282 -0.0129822 -0.00447876 0.0108836 0.0235317 -0.00236979 0.00216787 -0.0104438 0.0101918 -0.0137143 -0.0101077 -0.0152942 -0.00980282 0.0186343 0.0241235 -0.00548637 -0.00477316 -0.00584471 -0.00508589 -0.0063373 0.00161858 0.00918977 -0.0167635 0.014059 -0.0123377 -0.0141434 0.0176858 0.00751039 -0.013733 -0.0114007 0.00492451 0.00778269 0.021794 0.0126212 0.00656259 0.00442386 0.0282921 0.000847263 0.0248208
internal_weight=306582 180014 113978 126569 95453.7 66035.3 92100.4 63005.8 30496 27184 60926 24175.3 10604.6 8459.63 34468.3 13570.6 3754.17 22036.4 18524.7 8923.33 43991.3 39245.2 32509.8 14442.7 18067.1 16202.1 6850.48 68269.7 5109.29 10113.9 6474.36 3639.56 63171.3 29094.7 13331.1 10360 5338.6 3884.98 2782.48 37596.1 35192.7 32959.1 31177.1 28668.7 4341.94 53085.5 15763.5 1025.96 12277.7 4746.03 7160.94 1292.94 16018.6 11221.3 16934.8 9954.27 1924 1583 1367.36 8030.27 654.705 6980.49 2664.3
internal_count=2167484 1222765 752214 944719 649445 470551 675030 453550 209911 196746 438890 177358 75175 52374 269689 102183 25444 157537 102769 51139 321293 284814 243639 105927 137712 122500 49731 452699 31661 72061 44916 27145 419516 221480 100761 78484 39899 24661 16969 274916 256387 241508 227865 210569 30178 354833 120719 7185 92847 36479 45360 9336 121446 84342 117597 68134 12359 10550 9342 55775 4016 49463 16065
is_linear=0
shrinkage=0.03


Tree=9
num_leaves=64
num_cat=0
split_feature=5 8 8 5 9 5 9 8 8 3 5 0 8 9 5 5 4 8 8 8 8 8 8 2 8 5 5 2 8 8 8 8 8 9 9 9 9 8 8 8 8 3 8 9 9 9 9 5 5 8 5 9 8 8 8 8 8 8 3 8 8 8 8
split_gain=26571.3 6831.51 15782.6 5354.92 3549.63 3432.79 2062.03 4049.75 3750.63 1391.93 1260.33 1002.47 756.1 724.283 666.792 548.041 517.133 445.689 1643.74 442.447 934.43 453.987 840.997 438.081 767.769 403.87 391.912 377.771 479.064 357.854 336.57 321.712 394.615 316.689 1370.64 337.636 610.881 311.499 693.28 381.362 614.706 359.176 416.971 262.049 259.575 488.265 405.759 248.116 244.927 231.814 228.841 226.673 221.16 993.272 219.987 468.205 713.847 394.511 590.718 255.748 423.141 736.142 321.561
threshold=0.15785169141209512 57834.000000000007 131852.50000000003 0.092588218828181051 36268.000000000007 0.29883357502252111 36268.000000000007 57834.000000000007 351250.50000000006 1.0000000180025095e-35 0.2128048040741862 9.5000000000000018 88355.000000000015 13372.000000000002 0.056724360447642459 0.25696177885083438 217693.50000000003 43116.500000000007 31737.500000000004 15874.500000000002 43116.500000000007 11410.500000000002 11187.500000000002 1.0000000180025095e-35 88355.000000000015 0.36818343827967215 0.28998106060606066 1.0000000180025095e-35 22398.500000000004 19685.500000000004 351250.50000000006 6210.5000000000009 12353.000000000002 11171.500000000002 12035.500000000002 15714.000000000002 16272.000000000002 25539.000000000004 22398.500000000004 19685.500000000004 17565.000000000004 1.0000000180025095e-35 4138.5000000000009 79.500000000000014 13790.500000000002 15714.000000000002 16272.000000000002 0.1873505117780358 0.24154312248003726 55454.000000000007 0.44320844171416979 222.00000000000003 6251.0000000000009 6210.5000000000009 3907.5000000000005 6251.0000000000009 6210.5000000000009 3972.5000000000005 1.0000000180025095e-35 7537.5000000000009 11410.500000000002 10736.500000000002 15874.500000000002
decision_type=2 2 2 2 2 2 2 2 2 2 2 2 2 2 2 2 2 2 2 2 2 2 2 2 2 2 2 2 2 2 2 2 2 2 2 2 2 2 2 2 2 2 2 2 2 2 2 2 2 2 2 2 2 2 2 2 2 2 2 2 2 2 2
left_child=3 5 23 14 9 10 33 19 12 -4 17 15 -9 48 -1 51 -10 18 37 21 27 22 52 24 -3 31 30 29 -29 -21 -6 -7 -33 43 -35 -36 -37 38 39 40 41 42 -2 -5 -15 -46 -47 -32 -13 -19 -17 -11 53 -8 -12 56 57 -56 -59 -57 61 -61 -62
right_child=1 2 4 6 26 25 7 8 16 11 54 13 -14 44 -16 50 -18 49 -20 20 -22 -23 -24 -25 -26 -27 -28 28 -30 -31 47 32 -34 34 35 36 -38 -39 -40 -41 -42 -43 -44 -45 45 46 -48 -49 -50 -51 -52 -53 -54 -55 55 59 -58 58 -60 60 62 -63 -64
leaf_value=-0.026131066013385565 -0.0015083586905969876 0.037889653179108813 0.016796582507763058 -0.0031397177235691987 0.014807643186037212 0.0046625204788394662 -0.012232406946766868 0.04151541349306187 -0.0075807148126903062 0.0025721238307574498 0.00049205140129454379 -0.007715388590632471 0.01697100919712289 0.040558713803497688 -0.017463847822223315 0.0061032172303621037 0.001639382308234755 -0.020604176569434533 0.025191832718789688 0.0030189917394164568 -0.019061894660176812 -0.028464129499174231 0.049306495115023448 0.0412419957175044 0.018969493244543643 0.03788899969083051 0.018411844161224527 -0.007156551197865871 0.0092593793071300886 -0.016830419152916543 0.005074443035787881 0.028823435415834622 -0.0010124519380265288 0.007743753299370563 -0.020878431379493346 0.01966256782892889 -0.013471628880147213 -0.015832807088310381 0.011502455775143399 -0.019265586908810452 0.0092481785666466594 -0.007597329551820302 0.028112172411226686 -0.017505561031156226 -0.019696892723284364 0.028205665903494145 0.0060034781178468838 0.009962356839788071 0.0094614317395139529 -0.0072400155198369259 0.072251738237002136 -0.012098360692314068 -0.01893941889101057 0.067088963320446601 0.049368920514317398 -0.010874591599140598 0.059694832982173318 0.026565175590094043 -0.012905902514284567 0.00037417358461815044 -0.024079677590871172 0.040736716891833488 0.0041849197374655102
leaf_weight=13308.729457505047 3890.5179943740368 6296.2409961819649 3032.9866252690554 1242.2870067805052 10193.565908789635 1111.9231824874878 11035.971145160496 1339.1737290173769 10073.305246457458 1020.0276887267828 6947.0358934402466 3754.7227439582348 7242.5209441632032 291.74585051834583 20025.830874077976 1396.3738711029291 11990.00890520215 2291.3917608186603 1663.0955897122622 1237.456041187048 4285.8143834248185 1848.429760158062 193.75266022980213 9796.8982978761196 2788.5171813219786 1256.8741879165173 5156.807399764657 2869.9284211844206 3614.1540988683701 2403.5480596125126 12086.897264525294 2336.3156458884478 480.39498171210289 3006.0344332754612 4994.6685853749514 557.72620613873005 4868.1390747129917 2361.2410878539085 2258.0836259871721 1760.1701885610819 2534.0235905796289 24188.974193997681 480.20687294006348 14514.054583400488 408.45362156629562 1266.0550151020288 1788.9300266355276 41370.054033190012 932.02177731692791 2389.5063951313496 48.452465981245041 13201.43600730598 4757.3405430987477 143.60531096160412 220.6387735158205 892.38777284324169 346.61523242294788 659.33311443030834 706.4077967107296 855.26555813848972 389.20934824645519 775.84601294994354 5168.1207789182663
leaf_count=108480 27614 33923 19330 9265 64759 7734 83869 7079 74392 7595 49198 27604 45425 2050 156328 10020 83667 18211 9830 8445 33985 15388 1083 51556 17229 7036 33160 21196 23735 18911 81953 13490 3462 22425 38949 3553 37324 18407 14938 13656 17369 180309 2747 112833 2955 7863 12416 273293 6535 18125 293 100169 37293 829 1203 6502 1783 3981 5328 6029 2907 4719 35802
internal_value=-1.73325e-05 0.00734542 0.0117653 -0.0106197 0.00683132 -0.000348651 -0.00689449 -0.0038419 0.0039754 -0.00235587 -0.00234784 -0.00476594 0.0208035 0.00356688 -0.0209247 -0.00925672 -0.00256982 -0.0050357 -0.00398893 -0.0112383 -0.0073204 -0.014378 -0.0127628 0.0368368 0.032084 0.0230804 0.0104554 -0.00234908 0.00199212 -0.0100821 0.00981051 0.0183379 0.0237321 -0.0134876 -0.0101 -0.0152484 -0.0100632 -0.00528443 -0.00457467 -0.00568004 -0.00491052 -0.00616718 0.00174566 -0.0163736 0.0133838 0.0110888 0.0152094 0.00885738 -0.00429724 -0.0137849 0.00834228 -0.0110455 -0.0135188 -0.0112109 0.00459549 0.00744123 0.0207046 0.0121701 0.00614445 0.00426677 0.00614808 0.0195823 0.00220259
internal_weight=306346 180794 114830 125552 95948.5 65963.6 92217.9 63035 30645 27141.2 60778.1 24108.2 8581.69 8441.93 33334.6 15666.3 22063.3 43817.2 39136.3 32390 14410.9 17979.1 16130.7 18881.7 9084.76 5185.51 68807.3 10125.1 6484.08 3641 63650.5 3928.63 2816.71 29182.9 13426.6 10420.5 5425.87 37473.2 35112 32853.9 31093.7 28559.7 4370.72 15756.3 3755.18 3463.44 3054.99 53457 4686.74 4680.9 1444.83 14221.5 15936.9 11179.6 16960.9 10013.8 1932.99 1586.38 1365.74 8080.83 7188.44 1631.11 5557.33
internal_count=2167537 1223083 752703 944454 649995 470380 679646 455297 210563 196830 438658 177500 52504 59423 264808 118077 158059 321206 284870 244734 106272 138462 123074 102708 51152 31722 453165 72287 44931 27356 420005 24686 16952 224349 102251 79826 40877 275040 256633 241695 228039 210670 30361 122098 25284 23234 20279 355246 34139 36336 10313 107764 121991 84698 117452 68254 12295 10512 9309 55959 49457 10748 38709
is_linear=0
shrinkage=0.03


Tree=10
num_leaves=64
num_cat=0
split_feature=9 8 8 3 3 8 4 8 9 10 8 8 0 4 9 9 9 9 8 4 2 8 8 8 8 8 8 8 8 8 8 8 8 8 8 8 8 8 8 9 8 8 8 8 8 8 10 8 8 0 9 8 8 8 8 9 9 0 8 4 8 8 8
split_gain=15773.8 20051.7 14780.7 2522 2480.13 2316.01 1591.59 1359.32 1028.36 908.707 837.396 2874.15 734.204 538.296 474.79 2433.64 460.512 1133.34 434.179 390.159 445.166 1036.45 366.023 1458.14 3382.9 621.199 860.042 1088.51 519.548 2497.77 480.308 3108.04 602.243 1418.06 360.638 1266.88 574.139 536.576 323.498 296.513 288.831 636.826 279.48 274.503 643.323 266.686 266.489 261.267 250.333 222.779 259.365 210.889 209.2 451.208 220.034 195.944 358.158 182.365 223.007 235.457 177.612 1997.23 386.561
threshold=49374.500000000007 57834.000000000007 131852.50000000003 1.0000000180025095e-35 1.0000000180025095e-35 4138.5000000000009 29273.500000000004 799124.50000000012 76807.500000000015 0.18943643900012166 43116.500000000007 31737.500000000004 9.5000000000000018 29273.500000000004 36268.000000000007 42545.000000000007 15714.000000000002 16272.000000000002 55454.000000000007 29273.500000000004 1.0000000180025095e-35 88355.000000000015 15874.500000000002 11410.500000000002 11187.500000000002 25539.000000000004 22398.500000000004 19685.500000000004 10967.500000000002 10736.500000000002 6251.0000000000009 6210.5000000000009 4015.5000000000005 3907.5000000000005 10736.500000000002 11410.500000000002 15874.500000000002 25539.000000000004 351250.50000000006 74.500000000000014 17565.000000000004 16697.000000000004 6527.5000000000009 11187.500000000002 10967.500000000002 17565.000000000004 0.16977175171376738 16697.000000000004 4912.0000000000009 8.5000000000000018 2147.5000000000005 88355.000000000015 8791.5000000000018 7988.5000000000009 6639.0000000000009 42545.000000000007 28712.000000000004 3.5000000000000004 11816.000000000002 542859.50000000012 2906.0000000000005 2488.5000000000005 3328.5000000000005
decision_type=2 2 2 2 2 2 2 2 2 2 2 2 2 2 2 2 2 2 2 2 2 2 2 2 2 2 2 2 2 2 2 2 2 2 2 2 2 2 2 2 2 2 2 2 2 2 2 2 2 2 2 2 2 2 2 2 2 2 2 2 2 2 2
left_child=4 3 19 5 -1 -2 -4 38 -9 14 11 12 22 -13 39 -16 -11 -18 -12 51 21 -21 23 24 28 26 27 40 29 30 31 32 33 60 -14 43 -37 45 -8 -6 41 -24 -32 44 -36 47 -10 -38 -7 -41 -51 -3 53 54 -44 56 -19 -50 -59 -60 61 -5 -62
right_child=1 2 6 10 9 48 7 8 46 16 18 13 34 -15 15 -17 17 55 -20 20 -22 -23 25 -25 -26 -27 -28 -29 -30 -31 42 -33 -34 -35 35 36 37 -39 -40 49 -42 -43 52 -45 -46 -47 -48 -49 57 50 -52 -53 -54 -55 -56 -57 -58 58 59 -61 62 -63 -64
leaf_value=0.01461837778202601 0.00050740047894632528 0.046307971467824921 -0.0047313995189823422 -0.0097816217650756581 -0.0042473099388406687 0.050041501452604768 0.014219609931718735 0.010999175315752948 -0.0097919805827184764 -0.0093984154390058389 -0.021596447336497356 -0.00036031587946322885 -0.0058869288576131797 0.025918043739063992 0.012303981883471118 -0.023812674302007182 0.024433408931773634 -0.01237500208200366 -0.0091895063971631583 0.036591213040004733 0.039157146019671005 0.016309517825196837 0.0115897081600254 -0.028136469780250032 0.046251546531612696 -0.017042771770181587 0.010616051192506802 -0.020364597816006531 -0.033904842328216472 0.040691716986326155 -0.027953867248904907 0.065043076782468415 -0.019505073725674071 0.049451900957508614 0.037025130910313092 -0.024923334260878748 0.011017167200073263 -0.013299244066252635 0.0093238889038654276 -0.016000897268190255 0.0056123512255230245 -0.01653865506441635 0.0034140519716140015 0.049999318469004683 -0.032443249386243801 0.0087475409739335378 7.185286510249393e-05 -0.013168462928552426 0.010342865390354219 -0.018958056043882867 -0.0097416824837166516 0.014095845381258803 -0.020255167892433631 0.0066030708761478556 -0.018727040271980834 -0.021867239248014186 0.008544096140753292 0.015419499669442283 0.028762918661735307 0.056317418918922203 -0.028820515443091665 0.047506204508328972 -0.0082677635604789922
leaf_weight=3238.5236950963736 9017.7618979811668 214.93107961118221 8852.1145716309547 13368.601565346122 2473.217209354043 556.04709000885487 15805.049174189568 5491.2151347994804 5279.7753022238612 8299.2786650583148 4796.1797057688236 926.032201603055 13580.554166279733 2885.207899749279 3309.9671270251274 3407.0591449439526 1455.8040199130774 1764.414686396718 5402.1165931224823 7731.5705169141293 11200.902833715081 3212.5270924568176 1117.9245509505272 3842.3485450223088 980.73763702809811 3296.2023625448346 3376.7108527570963 3529.9090470820665 815.32675816863775 863.3620678037405 1658.1292553693056 502.78676599264145 5036.6848400980234 381.1399007588625 472.01036517322063 892.65808054804802 607.01092758774757 1949.4010049104691 52657.553155764937 42076.309345453978 3829.1599404364824 2055.4285840168595 469.2611173838377 454.10693782567978 160.44324966520071 4377.348016038537 4620.336284480989 1187.4796493947506 447.62105509638786 3549.8699872642756 12222.627043120563 1237.4713778346777 3154.6660058349371 1091.0896964818239 2869.3570385053754 644.11942711472511 1263.6274704784155 520.07184690237045 758.16840654611588 445.1408007144928 1202.5720234662294 570.76268658041954 2619.7300593554974
leaf_count=20624 63575 1099 64800 100467 18691 3046 100042 37425 38258 63057 38555 6313 101626 17275 23114 27450 8951 13472 41506 40975 58080 19737 7806 31540 5599 25893 22337 27553 6669 5120 13222 2671 39586 2163 2790 7284 4234 15220 345809 331084 26337 15627 3279 2591 1288 29814 32344 8986 2596 27944 92788 7779 24565 8030 22327 5149 8823 3085 4324 2218 9088 4040 19797
internal_value=-1.94808e-05 0.0041589 0.012762 -0.00527432 -0.0111199 0.00783472 0.00736604 0.00864323 0.000586796 -0.0121559 -0.00690674 -0.00592233 -0.0071304 0.0195312 -0.0135828 -0.00601428 -0.00503117 0.00203532 -0.0150257 0.0339599 0.0349484 0.0306392 -0.00898531 -0.0105788 -0.00868246 -0.00533314 -0.00255723 -0.00678164 -0.0102401 -0.00966845 -0.0109896 -0.00872503 -0.0103263 -0.00777743 -0.00269406 0.00159806 -0.00209023 0.000419221 0.0104543 -0.0144254 6.47146e-05 -0.00662646 -0.0167908 0.0321958 0.0193809 0.00475415 -0.0051878 -0.00498185 0.0320586 -0.0148603 -0.0118169 0.0188775 -0.0143481 -0.0101383 -0.0156123 -0.00684307 -0.00364233 0.0274423 0.0318758 0.0389751 -0.00900681 -0.00743429 -0.0147382
internal_weight=306076 222371 116303 106067 83704.8 11744.8 92706 83853.9 15391.3 80466.3 94322.4 84124.1 80312.9 3811.24 67039 6717.03 13427.2 5127.97 10198.3 23597.4 22145 10944.1 56631.9 39426.6 35584.2 17205.3 13909.1 10532.4 34603.5 33788.1 32924.8 23682.3 23179.5 18142.8 23681 10100.5 9013.9 8121.24 68462.6 60322 7002.51 3173.35 9242.5 1086.56 632.454 6171.84 9900.11 1794.49 2727.05 57848.8 15772.5 1452.4 7584.37 4429.71 3338.62 3672.16 3028.04 2171 1723.38 1203.31 17761.7 13939.4 3822.3
internal_count=2167537 1526390 746348 780042 641147 78844 618678 553878 108027 620523 701198 621137 597549 23588 521071 50564 99452 36395 80061 127670 118792 60712 423716 298163 266623 125553 99660 77323 261024 254355 249235 177812 175141 135555 173833 72207 65538 58254 445851 470507 49770 23433 71423 6669 4078 43034 70602 13220 15269 451816 120732 8878 58201 33636 25606 27444 22295 12223 9627 6542 133392 104507 28885
is_linear=0
shrinkage=0.03


Tree=11
num_leaves=64
num_cat=0
split_feature=5 8 8 5 9 5 9 8 8 5 5 0 9 5 8 5 9 4 8 8 8 8 8 8 5 2 8 5 2 8 8 9 9 9 9 8 8 8 8 6 8 8 8 8 9 0 9 5 8 8 8 5 9 8 8 8 8 6 8 8 8 6 9
split_gain=24116.8 5926.44 13158.6 5096.08 3001.79 2996.83 1900.8 3680.26 3281.36 1286.41 1149.6 696.855 704.67 633.538 631.021 578.342 473.412 452.706 417.217 861.365 435.444 736.954 406.123 1421.01 357.071 355.047 620.53 346.865 344.562 420.148 328.024 294.943 1345.37 317.509 553.982 287.418 613.477 354.608 548.532 314.854 354.833 284.917 263.338 325.153 260.662 257.838 250.323 226.519 218.764 210.843 868.189 206.429 201.827 194.801 404.986 603.833 333.974 510.494 236.89 218.694 211.073 194.251 192.082
threshold=0.15785169141209512 57834.000000000007 131852.50000000003 0.091229193341869422 36268.000000000007 0.29883357502252111 36268.000000000007 57834.000000000007 351250.50000000006 0.23272557157594226 0.2128048040741862 7.5000000000000009 15714.000000000002 0.056724360447642459 88355.000000000015 0.33452380952380956 16272.000000000002 217693.50000000003 15874.500000000002 43116.500000000007 11410.500000000002 11187.500000000002 43116.500000000007 31737.500000000004 0.28998106060606066 1.0000000180025095e-35 88355.000000000015 0.36818343827967215 1.0000000180025095e-35 22398.500000000004 19685.500000000004 11171.500000000002 12035.500000000002 15714.000000000002 16272.000000000002 25539.000000000004 22398.500000000004 19685.500000000004 17565.000000000004 0.20134983813500515 4138.5000000000009 351250.50000000006 6210.5000000000009 12353.000000000002 4615.5000000000009 7.5000000000000009 79.500000000000014 0.1873505117780358 55454.000000000007 6251.0000000000009 6210.5000000000009 0.57518796992481214 3914.0000000000005 3907.5000000000005 6251.0000000000009 6210.5000000000009 3972.5000000000005 0.20134983813500515 6527.5000000000009 4138.5000000000009 2998.5000000000005 0.20134983813500515 76807.500000000015
decision_type=2 2 2 2 2 2 2 2 2 2 2 2 2 2 2 2 2 2 2 2 2 2 2 2 2 2 2 2 2 2 2 2 2 2 2 2 2 2 2 2 2 2 2 2 2 2 2 2 2 2 2 2 2 2 2 2 2 2 2 2 2 2 2
left_child=3 5 25 13 9 10 31 18 14 11 22 44 61 -1 -9 45 -14 -10 20 28 21 49 23 35 41 26 -3 42 30 -30 -20 46 -33 -34 -35 36 37 38 39 -2 -41 -6 -7 -44 52 -11 -5 -43 -24 50 -8 -29 -4 60 55 56 -55 -58 -56 -59 -12 -13 -26
right_child=1 2 4 6 24 27 7 8 17 15 53 12 16 -15 -16 -17 -18 -19 19 -21 -22 -23 48 -25 62 -27 -28 51 29 -31 -32 32 33 34 -36 -37 -38 -39 -40 40 -42 47 43 -45 -46 -47 -48 -49 -50 -51 -52 -53 -54 54 58 -57 57 59 -60 -61 -62 -63 -64
leaf_value=-0.025688054529799269 -0.0071779333318582753 0.034326704711952177 -0.0073464022375353813 -0.0028666612280737525 0.013693904939988797 0.0045895931110899032 -0.011796419780046637 0.037622594152868588 -0.0072338487901508815 -0.0014845747791193944 0.0026221712904602812 -0.0075057966528240616 0.028345912710219561 -0.017069543417676081 0.015658017960641805 0.034677931346979857 0.0034657897272173167 0.0013949433575138586 0.002655804226103964 -0.018474552314528405 -0.02793052681626873 0.044215253716134766 -0.019945742822630352 0.022975614962723857 0.047481980016567081 0.037333581387174741 0.017532849971920769 0.03232071312828954 -0.006809711021860362 0.0085267612368358035 -0.01629455192648652 0.0079400614387077958 -0.020394932644081567 0.018053108250261393 -0.013120178191863752 -0.01523137652384879 0.010709386116378377 -0.018638012347933001 0.0086765887447906483 -0.0014793198071060031 0.025465508651578248 0.0046618560257980406 0.026261896787664777 -0.00080480206841789664 -0.015548028325975662 0.010888793619065015 -0.016935332001500356 0.0093120464986961825 -0.0068268772831174438 -0.018398296890500217 0.060346772717208098 0.091745051261275481 0.019935601261550542 0.04485208604484902 -0.024431433052810279 0.054341682870297142 -0.012301184186534392 -0.0099086732023317917 0.0050797555753724511 0.032771927451930798 -0.012880942014311869 0.0098049240941101828 0.016184889104813704
leaf_weight=12939.845201984048 23904.673227384686 6532.0715427547693 3355.9410606324673 1238.4010468423367 10372.711705908179 1113.2718122601509 10953.497986540198 1400.6981758326292 9980.6286417096853 2479.0587189346552 6022.7779072225094 6281.6241727620363 988.55911737680435 18910.790763877332 7405.1930149644613 706.75145560503006 2268.3434392362833 12110.417026005685 1257.9307041019201 4185.9345506727695 1791.5208269506693 204.43325901031494 2223.7535841986537 1711.2260603606701 183.0057056248188 10177.532034620643 2846.9613268971443 1241.1856481432915 2858.1063797175884 3673.0637670457363 2367.8802536055446 3005.723289206624 4904.4664997458458 571.19029155373573 5003.7411605715752 2309.6219975948334 2288.6101380884647 1714.3821481019258 2560.195501357317 3887.9458278864622 495.61946180462837 12182.795516163111 2408.8350097388029 478.05165709555149 6041.4067396968603 3895.1577948480844 14317.24152635783 41838.243221282959 2362.584968328476 4690.9797941744328 151.88422034680843 54.946616783738136 262.74405521154404 230.11024396121502 252.30915702879429 361.82987748086452 692.71183688938618 134.30132995545864 7838.4931838214397 543.76510778069496 909.41203252971172 642.4538247436285 5061.3464754074812
leaf_count=108480 180309 33923 25667 9292 64759 7734 84497 7140 74401 18179 42464 47072 5976 150767 45573 4333 16214 84175 8541 34004 15530 1088 18211 9830 1093 51556 17229 6735 21293 23832 19066 22512 39185 3562 39152 18407 14938 13656 17369 27614 2747 81953 13490 3462 47169 26118 113850 273293 18125 37685 829 301 1997 1203 2038 1783 5328 953 53921 3028 6734 4105 32067
internal_value=-2.16051e-05 0.0069332 0.0110081 -0.0102278 0.00646305 -0.000264197 -0.00664951 -0.00372347 0.00366916 -0.00204376 -0.00216039 -0.00596163 -0.000484118 -0.0205714 0.019154 0.00893274 0.0110223 -0.00250314 -0.0108315 -0.00702274 -0.0139011 -0.0123293 -0.00474703 -0.0037505 0.00975191 0.0334485 0.0292307 0.0213735 -0.00230188 0.00181398 -0.0097178 -0.013 -0.00975069 -0.0148257 -0.00992385 -0.00498162 -0.00430198 -0.00535739 -0.00461886 -0.00582255 0.00156663 0.00913847 0.0169966 0.0217771 -0.0117334 0.00607529 -0.015816 0.00826354 -0.0131906 -0.0130625 -0.0108073 0.0348675 -0.00536155 0.00445706 0.00712487 0.0193501 0.011427 0.00580089 0.00415747 0.0243045 0.000586599 -0.00589796 0.0172814
internal_weight=305781 181857 116117 123924 96560.1 65740.6 92072.9 63032.2 30896.9 26922 60444.3 19841.1 10181 31850.6 8805.89 7080.97 3256.9 22091 32135.2 14342.9 17792.3 16000.8 43458.6 38872.3 69638.1 19556.6 9379.03 5296.29 10157 6531.17 3625.81 29040.8 13485.1 10479.4 5574.93 37161 34851.4 32562.8 30848.4 28288.2 4383.57 64393.8 4000.16 2886.89 9660.09 6374.22 15555.6 54021 4586.34 15796.4 11105.4 1296.13 3618.69 16985.7 10053.5 1962.72 1600.89 1370.78 8090.8 678.066 6932.19 6924.08 5244.35
internal_count=2167537 1223083 752703 944454 649995 470380 685207 457654 211289 196830 438658 148200 73367 259247 52713 48630 22190 158576 246365 106736 139629 124099 321206 284870 453165 102708 51152 31722 72732 45125 27607 227553 104411 81899 42714 275040 256633 241695 228039 210670 30361 420005 24686 16952 74833 44297 123142 355246 36336 123011 85326 7036 27664 117452 68254 12295 10512 9309 55959 3981 49198 51177 33160
is_linear=0
shrinkage=0.03


Tree=12
num_leaves=64
num_cat=0
split_feature=5 8 8 5 5 8 5 8 8 8 8 8 5 5 5 5 8 2 0 4 7 8 8 8 8 0 2 8 8 5 0 0 8 8 5 8 8 8 8 8 3 8 4 2 0 10 5 8 3 8 8 2 8 2 8 8 8 8 3 8 3 8 8
split_gain=22604.8 5484.26 12125.5 4972.41 2720.68 2561.91 1270.72 1237.08 3009.26 1494.13 2285.23 928.415 724.3 715.176 679.325 584.348 570.968 552.373 539.464 498.972 430.899 479.106 397.588 340.484 655.79 323.617 314.704 530.674 291.456 271.206 252.267 242.194 213.107 768.428 202.617 187.597 178.99 384.332 483.217 236.294 175.963 175.428 184.208 323.093 174.397 240.246 173.338 182.776 169.024 207.08 270.732 189.677 405.301 168.256 163.783 301.125 391.342 220.53 350.909 191.853 299.811 186.144 154.094
threshold=0.15785169141209512 57834.000000000007 131852.50000000003 0.095726775445322376 0.24433218919327335 799124.50000000012 0.21678289827500735 17565.000000000004 799124.50000000012 57834.000000000007 351250.50000000006 43116.500000000007 0.33452380952380956 0.056724360447642459 0.33050177718514273 0.18326851893922777 88355.000000000015 1.0000000180025095e-35 7.5000000000000009 29273.500000000004 76521.000000000015 3907.5000000000005 13534.000000000002 43116.500000000007 31737.500000000004 7.5000000000000009 1.0000000180025095e-35 88355.000000000015 19685.500000000004 0.28998106060606066 7.5000000000000009 6.5000000000000009 6251.0000000000009 6210.5000000000009 0.12123717994980236 6018.5000000000009 15874.500000000002 799124.50000000012 57834.000000000007 131852.50000000003 1.0000000180025095e-35 131852.50000000003 174803.00000000003 1.0000000180025095e-35 9.5000000000000018 0.16248140521849982 0.50581395348837221 3907.5000000000005 1.0000000180025095e-35 22398.500000000004 19685.500000000004 1.0000000180025095e-35 43116.500000000007 1.0000000180025095e-35 10736.500000000002 6356.5000000000009 6210.5000000000009 3972.5000000000005 1.0000000180025095e-35 11410.500000000002 1.0000000180025095e-35 4138.5000000000009 17565.000000000004
decision_type=2 2 2 2 2 2 2 2 2 2 2 2 2 2 2 2 2 2 2 2 2 2 2 2 2 2 2 2 2 2 2 2 2 2 2 2 2 2 2 2 2 2 2 2 2 2 2 2 2 2 2 2 2 2 2 2 2 2 2 2 2 2 2
left_child=3 4 26 13 15 29 18 32 9 11 16 17 25 -1 20 23 -11 28 -7 -12 -6 40 54 24 62 -8 27 -3 -9 44 -10 48 33 35 -32 -5 -15 38 -38 -40 -22 42 -18 -44 45 -4 47 -16 -17 50 -50 -51 -53 -47 55 56 57 -23 61 -56 -61 -59 -2
right_child=1 2 5 7 14 6 12 8 30 10 19 -13 -14 36 46 31 41 -19 -20 -21 21 22 -24 -25 -26 -27 -28 -29 -30 -31 34 -33 -34 -35 -36 -37 37 -39 39 -41 -42 -43 43 -45 -46 53 -48 -49 49 51 -52 52 -54 -55 59 -57 -58 58 -60 60 -62 -63 -64
leaf_value=-0.025452937513694002 -0.008792756926457701 0.032594163342189598 0.011167564354033245 -0.010344920940232358 -0.00047631351786368414 -0.0078822153557202949 0 0.0021300629332450826 -0.01267208269222888 0.036018125128026976 -0.006355857868648917 -0.018111740408367411 0.034340837106091086 -0.022025167294150334 0.013169809324385502 0.0047533318253630647 0.013019933240482329 0.0057814341459751376 0.00067841608819104425 0.0053794897662445733 0.01153208922792814 0.04512484632110484 -0.00055730733323429427 -0.017699872613220587 0.018800686045908059 0.010655846254045573 0.03551222729416445 0.01715100981341464 -0.016053155493399935 0.017089498263535539 -0.011405264515744066 0.0014679491408887276 -0.016832945008795928 0.056533847590761646 -0.0044188268261566837 -0.027447579294173668 -0.015564368158009009 -0.016847397702569697 0.037184307368014043 0.0035761615524535499 -0.0023777482116147919 0.011481111573787789 0.0029525115745568957 0.036388904366033197 0.01212191055083401 0.005140283448039208 0.074061409320605648 0.035356463582110892 -0.0050395155087979695 -0.013974666430801275 -0.019628067890458914 0.019417103207566729 -0.0064108202797061647 0.012030520894273972 0.033677213162105035 -0.0030399993599625062 0.055527408721981142 -0.0066581283271817488 -0.015526575691119177 0.022101685521897792 -0.032636598723814414 0.04457281203098469 -0.0018985938943315275
leaf_weight=12721.620667465031 12880.573085695505 6662.6235121935606 16205.234309449792 10006.661202594638 2933.7331457436085 12977.898010268807 4375.8627187907696 1207.827185600996 20982.516392059624 1392.7747129648924 7590.2404767274857 4116.8989404514432 895.69977267086506 4114.7898471578956 500.01725974678993 1839.3152246624231 1344.9182338565588 4901.2600076943636 13530.214065864682 5715.8133095651865 1494.9736393243074 158.30663765966892 824.24467691779137 2501.7595860734582 918.63303577899933 6194.9271641522646 10359.808142125607 2869.2036050409079 2306.8520319983363 4597.2368022054434 6834.2203334644437 18159.656462602317 8042.0754073485732 151.96590349078178 8255.7049993351102 613.18781413137913 1303.368643514812 14365.426185712218 254.243055164814 726.47492557764053 1806.4427634775639 4617.2012432664633 341.45231881737709 1100.1867556124926 16064.064451515675 18145.51900999248 77.633475467562675 1019.8337716758251 8565.3476424366236 515.97762840241194 1322.084193482995 1071.4032696336508 1115.5490723326802 3873.5361623615026 1533.953604131937 566.87314039468765 265.86293491721153 91.110790148377419 335.35039180517197 1105.8529537916183 97.647880896925926 210.13046030700207 3777.2550211176276
leaf_count=108669 97437 34044 104246 77545 20562 98038 31512 8165 165224 6964 56543 33888 5351 33794 3090 12491 8253 32712 95817 38204 10299 827 5804 20171 5264 41270 51603 17188 18790 28692 52713 130294 65207 804 61909 5001 10377 116167 1619 5232 12868 29030 2116 5690 103016 117628 413 5385 63460 4042 10586 6658 8625 23985 8433 3887 1288 650 2533 6160 697 1172 27307
internal_value=-4.87944e-05 0.00665243 0.010554 -0.00998792 -0.000281738 0.0061725 9.6668e-05 -0.00629876 -0.00447941 0.00183641 0.00652858 -0.00643783 0.00844078 -0.0198502 0.0119965 -0.00331772 0.0183924 -0.000725697 -0.00351242 -0.00131408 0.00943254 0.0128572 0.0185415 -0.00734362 -0.00586876 0.00624441 0.0318881 0.0279472 -0.00980224 0.0100906 -0.0105438 -0.000837055 -0.0131357 -0.0103742 -0.00758374 -0.011334 -0.0164168 -0.0150298 -0.0035934 0.0123067 0.00391876 0.0150742 0.0210227 0.028478 0.00949762 0.00839442 0.0303215 0.0280672 -0.00373848 -0.00497984 -0.00699165 0.00237607 0.00623927 0.00635295 0.0221497 0.0145968 0.0240286 0.0134651 0.00556037 0.0266352 0.0176459 0.0290569 -0.00723007
internal_weight=305449 182441 116752 123008 65689.5 96860.2 37974.6 89521.8 70707.9 34635.4 22102.6 12532.8 11466.5 33485.9 13022 52667.6 8796.53 8415.94 26508.1 13306.1 11424.5 8490.75 5189.33 20078.2 17576.5 10570.8 19891.6 9531.83 3514.68 58885.6 36072.4 32589.3 18813.9 10771.8 15089.9 10619.8 20764.3 16649.5 2284.09 980.718 3301.42 7403.76 2786.56 1441.64 54288.4 38224.3 1597.48 1519.85 14429.7 12590.4 9887.43 2702.93 2186.95 22019.1 4365.09 1627.63 1060.76 794.898 636.592 2737.45 1203.5 301.241 16657.8
internal_count=2167409 1222793 752390 944616 470403 649555 271988 668758 520201 240355 146800 93555 78133 275858 84068 386335 52053 59667 193855 94747 75180 54618 31451 150179 130008 72782 102835 51232 26955 377567 279846 236156 148557 83350 114622 82546 167189 133395 17228 6851 23167 45089 16059 7806 348875 245859 8888 8475 105862 93371 74046 19325 15283 141613 25647 10357 6470 5182 4355 15290 6857 1822 124744
is_linear=0
shrinkage=0.03


Tree=13
num_leaves=64
num_cat=0
split_feature=5 8 8 5 9 5 9 8 8 5 5 5 0 9 8 5 9 9 8 8 8 8 8 8 5 7 8 9 9 9 9 9 9 7 8 8 7 8 5 8 9 8 8 8 8 3 8 3 8 5 8 4 8 9 8 8 0 9 9 0 5 0 8
split_gain=21338.6 5111.95 11159.6 4804.94 2702.97 2564.74 1710.23 3281.19 2815.04 1162.51 949.599 651.645 620.588 698.085 523.55 474.106 441.207 617.471 387.976 1375.62 385.208 799.25 431.981 644.508 353.225 342.606 364.239 341.016 332.149 1300.48 313.949 517.386 290.487 286.57 484.182 280.705 263.692 282.217 330.863 316.648 256.896 251.708 520.911 344.885 526.441 298.745 329.912 249.016 231.993 230.785 230.352 207.579 269.278 280.676 199.987 706.159 193.821 190.314 189.32 188.615 187.419 216.087 186.126
threshold=0.15785169141209512 57834.000000000007 131852.50000000003 0.092588218828181051 36268.000000000007 0.22121394838987415 36268.000000000007 57834.000000000007 351250.50000000006 0.23272557157594226 0.31000207992172468 0.056724360447642459 8.5000000000000018 15714.000000000002 88355.000000000015 0.33452380952380956 42545.000000000007 49374.500000000007 43116.500000000007 31737.500000000004 15874.500000000002 43116.500000000007 11410.500000000002 11187.500000000002 0.28998106060606066 84249.000000000015 22398.500000000004 16272.000000000002 11171.500000000002 12035.500000000002 15714.000000000002 16272.000000000002 4615.5000000000009 84249.000000000015 88355.000000000015 19685.500000000004 76521.000000000015 6210.5000000000009 0.44320844171416979 6356.5000000000009 79.500000000000014 25539.000000000004 22398.500000000004 19685.500000000004 17565.000000000004 1.0000000180025095e-35 4138.5000000000009 1.0000000180025095e-35 55454.000000000007 0.1992522884289267 351250.50000000006 153094.50000000003 799124.50000000012 76807.500000000015 6251.0000000000009 6210.5000000000009 8.5000000000000018 11565.500000000002 3914.0000000000005 8.5000000000000018 0.42206477732793529 3.5000000000000004 6018.5000000000009
decision_type=2 2 2 2 2 2 2 2 2 2 2 2 2 2 2 2 2 2 2 2 2 2 2 2 2 2 2 2 2 2 2 2 2 2 2 2 2 2 2 2 2 2 2 2 2 2 2 2 2 2 2 2 2 2 2 2 2 2 2 2 2 2 2
left_child=3 5 33 11 9 18 28 20 14 12 -7 -1 32 -14 -9 47 -10 -18 19 41 22 25 23 54 50 26 -22 -15 40 57 -31 -32 58 -3 -35 -27 -12 38 -38 -39 -5 42 43 44 45 46 -2 -11 -20 -21 -6 -19 -53 -54 55 62 -49 -30 -4 -33 -41 -62 -8
right_child=1 2 4 6 24 10 7 8 16 15 36 -13 13 27 -16 -17 17 51 48 49 21 -23 -24 -25 -26 35 -28 -29 29 30 31 59 -34 34 -36 -37 37 39 -40 60 -42 -43 -44 -45 -46 -47 -48 56 -50 -51 -52 52 53 -55 -56 -57 -58 -59 -60 -61 61 -63 -64
leaf_value=-0.025160764789344255 -0.001339230414799521 0.033908706987017243 -0.0063106454078023927 -0.0022624877366872738 0.012511275778703285 0.0048528892010309896 -0.010157779736919904 0.034343893891256944 0.011567456248147747 0.014832313582657578 -0.0036565888919064759 -0.016348065840832232 -0.0060010375764381714 0.026169963508272512 0.014491644815471518 0.031028928093207019 -0.021690386265390223 -0.0056325616959299147 -0.019528904124298172 0.017654281277353141 -0.0061249253401789031 -0.017825676238215859 -0.027521978494747284 0.040804326127352346 0.016480195830089375 0.0019197931983862553 0.0082017535621528147 0.0046392012686593794 -0.0080777781938956954 -0.019626393561510937 0.017747222151996998 -0.016182462477872459 -0.014515713423987464 0.031139045338212976 0.016471184590674405 -0.015784383955452383 0.006119108444539589 0.071804563586017542 0.060637473095929671 0.021344287400690155 -0.01655762067792331 -0.014048280259636052 0.00969028986580865 -0.017953940553265334 0.0086607507908744285 -0.006682981223141495 0.023264076662357597 -0.0041735609819766976 -0.0060755390804660319 0.047325915707198449 0.007661298024280957 0.0052478727454554949 0.0048946943140489325 -0.010228226385767977 -0.017720415794300195 0.052895319566207494 0.0081999977388949406 0.011966997131406811 0.017431980579325219 -0.0029679210062048254 -0.0084319209113468251 0.047905927483605226 -0.027176706569122855
leaf_weight=12486.838759809732 4164.3573622554541 10521.689454436302 3852.4617207199335 1233.1594722792506 10524.275464296341 15941.165545754135 10068.716559439898 1422.2231373935938 1882.8207638412714 1867.4509117305279 392.09797084331512 19144.38243740797 5808.5041429102421 997.84569022059441 7535.254514798522 735.72973155975342 1568.4344879165292 8227.4681736677885 2225.5724912211299 1514.0659650564194 2810.2705196663737 4072.7076059132814 1729.5240382775664 207.1425361931324 5332.5072786659002 1239.4350469559431 3698.0186617970467 1970.8554074317217 514.30113364756107 4755.8898906111717 579.2713199108839 3306.8659992441535 6746.1910917013884 6763.1788475364447 2897.5661484748125 2299.7807345613837 1249.0258266180754 135.06997914612293 108.70835141837597 2491.6312796324492 13929.479891680181 2369.3534016609192 2353.5282814502716 1729.8364082723856 2628.1086864471436 24552.583814941347 555.64488050341606 2349.1507034748793 2400.9197213202715 280.035141736269 54495.381133601069 5539.2228297293186 1773.8587564975023 2923.7887036055326 4528.7464026883245 156.94493325054646 2210.9720156639814 2472.8932791948318 327.53713017702103 1379.5718894898891 69.840070948004723 479.79476380348206 614.21018113940954
